{"W2":{"v":1,"dim":[5,3],"data":[0.16501904,-0.78891015,-0.69141865,0.03179257,-0.53048015,0.9163606,-0.36576748,-0.3908491,0.8291359,-0.9548094,-0.88563323,-0.8451338,-0.42604756,-0.061389685,-0.3991282]},"W3":{"v":1,"dim":[10,5],"data":[0.5826902,0.20483577,-0.011409993,0.5672531,-0.40070796,-0.046453953,-0.20230865,-0.3213563,0.5605564,-0.2158997,-0.2788446,0.05796075,-0.80938077,0.13507605,0.32823825,0.29258,0.86203575,-0.4309156,-0.57153726,-0.016620874,-0.39631176,-0.12781225,0.96736044,0.17165256,0.820879,-0.45099902,0.995873,-0.47635442,0.5609877,0.71394205,-0.18164659,-0.31103587,-0.014703751,-0.06774855,-0.92605233,0.029152768,0.42699838,0.9903846,0.1484189,0.04237628,0.3263276,-0.4820001,-0.73487854,0.38416553,-0.03942108,0.6644428,0.7642349,0.58481234,-0.33325672,0.2694533]},"b1":{"v":1,"dim":[3,1],"data":[-0.0124054,0.0060054734,-0.0060054306]},"b2":{"v":1,"dim":[5,1],"data":[-0.014264149,-0.013459894,-0.006133146,0.0,0.0]},"b3":{"v":1,"dim":[10,1],"data":[-0.0044811657,0.0,0.0,-0.0138165755,-0.0058880583,-0.005890834,0.0,-0.013809133,-0.014446666,-0.004482462]},"W1":{"v":1,"dim":[3,12288],"data":[0.12490231,-0.9171571,0.099092185,-0.9594137,-0.057886522,0.12264865,0.147131,-0.70563984,-0.5329099,0.7899359,0.7168358,0.9097521,0.6564278,-0.97049236,0.9750554,-0.13857456,0.035057478,0.59186006,-0.6676471,-0.11508538,-0.32106853,-0.6811868,0.36514708,0.6183749,0.9335711,0.5310897,-0.29322836,0.79315984,-0.78259087,-0.0169491,0.27318993,-0.78837454,-0.23344776,0.26698345,0.6156674,0.61454135,-0.5183306,-0.0942374,0.92626363,0.47924682,0.032112204,-0.52651846,0.052357282,0.094395004,0.33520055,0.05085892,0.37652445,0.75357896,0.86002344,-0.3295568,0.5907752,-0.83630365,0.15272368,0.07557481,-0.06925665,-0.6263723,-0.029962685,-0.042782634,0.86334884,0.6796555,0.17256506,-0.5105785,-0.86429477,-0.21929704,-0.023936506,-0.0988069,-0.64271885,-0.68259734,0.67790174,-0.7915178,0.8237324,-0.7581387,0.86125773,-0.770137,0.3561451,-0.6815049,0.4439187,0.94741523,-0.8282323,-0.6805369,-0.115864545,-0.90945274,-0.8981956,0.055667795,0.27579254,-0.22743575,-0.28885677,0.34841552,0.20882067,-0.9467945,0.03515295,0.2566495,-0.37499276,-0.13573761,0.72071636,-0.0149260955,0.9090568,-0.28752342,0.41083992,0.26759565,0.8077534,-0.6785561,0.13258442,0.16534254,-0.8617036,0.90110403,-0.94174653,-0.9131601,-0.83107674,0.005747065,0.7827424,0.905669,-0.31563798,-0.0141080525,0.517691,0.95803267,-0.007901122,0.5842631,-0.634937,-0.12438013,-0.6469761,0.20339689,-0.9742097,0.09590121,0.41966093,-0.14133915,-0.117759205,-0.29097342,-0.60922647,-0.50397366,-0.4616167,-0.95755744,0.26552176,-0.08425742,0.36890405,-0.01335966,0.7377462,-0.036663465,0.67409736,-0.31590006,-0.09034598,-1.008249,-0.8118344,0.66749716,-0.73931557,-0.6183934,-0.31938428,0.22920236,0.53648734,0.1598566,0.44091833,0.68940836,0.9416533,0.3920765,0.60986906,0.25330958,-0.28714082,0.88792866,0.10780676,0.70849717,0.73636866,0.22882617,0.2710981,-0.6429098,0.9812854,0.5566878,0.46911064,0.91449994,0.24016692,0.94724816,-0.80782497,0.003672889,-0.38819203,0.29115626,0.38667232,0.40460458,-0.25029188,0.5427675,0.5600836,0.090364404,-0.7776286,0.86300075,0.59607345,0.43079638,0.7281961,-0.48410657,-0.70544136,0.8510666,-0.8961935,0.59781724,-0.063454196,0.40570748,0.04515918,0.5817332,0.2702301,0.18264042,-0.28323823,0.8359027,0.723063,-0.11940863,0.19163679,0.5073129,-0.035193417,-0.5202494,0.93342793,0.20105644,-0.45419586,-0.02502973,0.5638126,0.021646084,0.006138322,0.5524128,0.8101869,0.19006266,-0.4883838,-0.21531932,-0.9074277,-0.40746433,-0.24849227,-0.9571403,0.06489446,0.64654344,0.83902323,0.79037404,-0.27781138,0.3493541,-0.14363381,-0.019598013,-0.6030938,-0.45914575,0.89269197,0.552753,0.5117238,-0.52804697,-0.072953984,0.08340516,-0.22360395,-0.8138318,-0.9511686,-0.67463464,-0.3504589,-0.35650596,0.74710417,0.17456359,0.8268474,0.637375,-0.64663523,0.23026212,0.7461552,-0.309433,0.5184244,-0.4443208,-0.3720097,-0.92576504,-0.89803225,-0.67471266,0.18439761,0.1440265,0.65917915,0.09363453,0.07183859,-0.9608185,-0.3353581,-0.7415195,0.7260904,0.58727616,0.7270486,-0.8622376,-0.3644936,-0.8142612,-0.9820686,-0.17955396,-0.5029896,-0.23262978,-0.117709875,-0.8255344,-0.8145802,0.9826591,0.29588786,-0.44575137,-0.7689352,0.6290233,-0.7181327,-0.71490157,-0.9588356,0.7083615,-0.9863636,0.8346372,0.8831801,0.48136258,0.7905029,0.4974011,-0.5379034,0.50811607,-0.77430564,0.35253835,0.4105833,-0.654128,-0.927542,0.9625109,0.584915,-0.9655347,0.6609095,-0.030591285,-1.0089086,-0.07349085,-0.8140467,-0.41701338,-0.20175005,-0.078935415,-0.91773206,0.29163003,0.73905504,-0.33467236,-0.30159444,0.18210973,0.1458347,0.15642254,-0.25477514,-0.19884914,-0.1949302,0.93389595,-0.11062239,0.4919836,-0.987827,0.6619509,0.4643861,0.8161757,0.7983328,0.9127484,-0.008588193,0.4280432,-0.8744228,0.026490737,0.51114035,-0.5282964,-0.7685579,-0.85671633,-0.47126755,-0.5563056,-0.6604097,-0.4357634,0.5105462,0.11002248,0.60687244,-0.22019921,-0.9668458,0.22054534,0.039061096,0.17295407,-0.4679269,-0.12026581,-0.52869296,-0.71073,-0.7499973,0.66175455,-0.9447173,-0.6995633,0.8606463,-0.6699654,0.06925541,0.47887576,0.8643075,0.745832,0.70895547,0.14615208,-0.5476233,0.6681619,0.39148682,-0.52648854,-0.94271207,0.045309167,0.77330416,-0.69417214,0.5496223,0.27808034,-0.102665335,-0.7470423,0.9178799,-0.74635404,0.69240254,0.24560367,-0.87664574,-0.23716538,-0.7334463,-0.7751595,0.7948739,-0.39485696,-1.0041482,-0.22818641,0.24730337,0.10604786,-0.893121,0.36821404,-0.97358733,-0.29091313,-0.4006614,-0.59729826,-0.53586936,0.7605099,0.80563486,-1.0072842,-0.94898725,0.65619224,0.8316705,-0.7788724,-0.7733908,-0.66011214,0.5288924,-0.56782335,0.9544984,0.0016579997,-0.4971007,0.4329441,0.65376836,0.06891283,-0.13665453,-0.2806069,-0.61673373,-0.6514992,-0.23497327,0.019425292,0.79914826,0.21029872,0.97694016,-0.9455352,0.41224876,-0.75040555,0.89809614,-0.14430657,0.17159443,-0.11610433,0.31580988,0.20375459,0.5990599,0.8397018,-0.8590134,0.35348725,0.68761283,-0.30970225,-0.022634301,-0.37166137,0.0111645665,0.12956077,0.678537,0.41737348,-0.14202842,0.8663231,-0.40326276,0.19898705,-0.50529987,0.64895,0.5917371,-1.0042394,-0.27049306,-0.88833874,0.37209988,0.90836877,0.6372141,0.67899615,-0.3223404,0.38922033,0.6709513,-0.054139126,0.07292357,0.31541735,0.67835826,-0.038864188,-0.15517795,0.81434816,0.5721179,0.26982015,0.5674145,-0.66164297,0.6978641,-0.8015017,-0.15488365,-0.49526036,-0.10678662,-0.23084593,-0.06467999,0.64818436,-0.49653056,-0.1635327,-0.15108413,0.3332447,-0.58247924,0.6613973,0.049554884,-0.20556763,-0.14554384,-0.6913188,-0.7287242,-0.84565693,-0.6573492,-0.012052565,0.5955379,0.6530444,-0.82913524,0.2956711,0.640043,-0.8884259,-0.1026437,0.65907943,0.13262032,0.26939604,0.8707602,0.2907097,-0.0026905006,-0.6206146,-0.22856893,-0.25388482,0.17408699,-0.72147566,-1.0080391,-0.8276926,0.80909735,0.36414987,0.17272812,-0.22813863,-0.32540792,-0.58477724,0.61897606,0.20925891,-0.53876674,-0.20529486,0.0155089125,-0.34154874,-0.23884286,-0.22486973,0.8399637,0.3603198,-0.5408633,-0.8056173,0.010669563,0.72962284,-0.3180063,-0.7795751,0.679778,-0.7044394,0.48343736,-0.994769,0.21796782,-0.30290475,0.92247784,-0.78862745,0.5743358,-0.15217812,-0.5720012,0.11129494,0.04938385,-0.3059135,0.09131423,0.027195457,0.6466661,0.30807745,-0.52575594,-0.08137393,-0.114761956,-0.028189383,-0.44011337,-1.0047176,0.11050154,-0.042082664,0.32994905,0.12562396,-0.357759,0.3117494,0.38118917,0.95364916,-0.5741558,-0.8540016,-0.030643983,0.7635109,-0.7454502,-0.41112652,-0.1692109,0.18550166,-0.8149234,-0.27270883,-0.29746133,-0.047725063,-0.8847315,-0.16475223,-0.96813995,-0.97587746,-0.91019666,-0.22887817,-0.83668375,0.25650457,0.41813073,0.13633066,0.95962846,0.07205237,0.40726203,-0.61075705,0.3343854,0.9704244,-0.7541599,0.53803384,0.89876974,0.91888213,-0.22406793,-0.9588375,-0.96579915,0.8881833,-0.63116026,-0.27198622,0.6861833,-0.29118735,-0.34606063,0.90258795,-0.1751689,0.90040684,-0.9354975,0.8497124,0.23449706,-0.30160788,-0.62011933,-0.15904234,-0.63294786,-0.467352,-0.26036236,-0.077075265,-0.8656322,-0.9692725,0.028275782,-0.2300104,0.949853,0.3175176,0.2846889,0.10505335,-0.19487028,-0.0029420985,-0.95749015,0.59468925,-0.42445514,-0.6153973,0.4141428,-0.2904268,-0.06652838,0.9724136,0.659314,0.011842218,-0.9511956,0.58552057,-0.6318507,-0.3125893,0.26021343,-0.9032263,0.9129832,0.82030964,0.40645355,-0.46341667,-0.94599295,-0.47753984,-0.41832748,-0.21724817,0.5278818,0.8900614,-0.30081147,0.54245406,0.9197133,-0.5433523,-0.54780954,0.0816042,-0.56022835,0.10623171,-0.9341634,-0.30587757,-0.7315733,-0.26648045,-1.0089612,0.5565113,0.5817878,-0.92223436,0.1463423,0.35546312,-0.46675965,0.08727453,-0.43578148,-0.4270429,-0.3608369,0.5658822,0.66124314,0.82164663,0.938263,-0.4029685,0.9207779,-0.038351182,-0.113617204,0.24646692,0.75166094,0.57860863,0.6644602,0.8196201,-0.97562593,0.6690762,0.942463,-0.86218476,0.65897065,0.17730539,0.19468592,-0.6621844,0.34359112,-0.9405576,0.9271115,-0.9520285,0.13212243,-0.6797778,-0.6488025,0.335565,-0.9926905,0.27227193,0.6354623,0.5175608,0.8096776,0.36656812,-0.5596088,0.5854023,0.8318806,0.8475169,-0.9959302,-0.8820625,0.25398347,0.58642584,0.080152825,-0.40381676,-0.5876514,-0.17945719,-0.42995366,0.87872875,0.04550967,0.76021844,0.9783543,-0.8660667,0.051211894,0.0482125,0.18020298,0.47591776,-0.26873174,-0.45178816,-0.30597222,-0.016226128,0.49254256,-0.036425486,0.69753265,0.936923,0.7371763,-0.62932473,0.86502427,0.49424094,0.08185279,-0.18363605,-0.94975764,0.12202719,-0.8309059,-0.3436657,-0.39710483,0.22412068,-0.48051217,-0.4165915,-0.6668351,0.59522706,0.8381107,-0.2429338,-0.8695342,-0.7836762,0.894181,0.91140884,0.40693054,-0.5961507,0.9299054,0.03051527,-0.10889516,-0.56316805,-0.6679685,0.56247646,0.92099184,0.15740752,0.15590136,0.4307197,0.33274472,-0.2440369,-0.6092094,-0.99502873,-0.6164269,0.31113586,0.8312078,-0.75839525,-0.23041892,0.96738714,-0.48144144,0.84099203,0.22794352,0.9767177,-0.63389003,0.26766998,0.9267504,0.9731727,0.09794597,-0.40604615,-0.48750824,0.096708015,-0.69850034,-0.76138496,0.1396486,0.552038,0.7986674,0.79061395,-0.50474143,-0.46119404,0.2740763,-0.6951035,-0.20277637,-0.39227465,-0.24523614,-0.11208143,-0.4806997,0.33833662,-0.7267722,-0.78623205,0.030949188,-0.26999158,0.3984446,-0.4730633,-0.69476646,-0.865157,0.17837973,-0.20578384,-0.9533651,0.07427759,0.8005483,-0.026341911,-0.47218943,-0.2980747,-0.9157443,-0.3193444,-0.73946404,-0.9082993,0.8874153,-0.85332274,0.87400496,-0.7822073,0.71272975,0.6830185,-0.78387374,-0.09725161,-0.77088165,0.06722677,-0.6960317,-0.46087334,0.12934117,0.4770319,-0.11967225,0.7454653,0.030985795,-0.4520701,-0.08733268,0.49416047,0.038268894,0.66258234,0.1839646,-0.03744742,0.81447756,-0.9847309,-0.014023462,0.75479597,0.7811589,-0.06390849,-0.4008371,0.4104569,-0.598804,0.4891861,0.60874987,-0.73381865,-0.22687493,-0.26024055,-0.773972,0.7753801,0.16675954,-0.9874164,0.33435366,0.6296753,0.84506017,-0.9172044,0.25059578,0.79302746,-0.7267601,-0.36794657,0.18116365,-0.83693373,0.7566561,-0.35983193,0.00939186,0.6867931,-0.97009367,0.6017639,0.15189289,0.9821198,-0.7861012,0.36514047,0.004742564,0.1490936,0.03650468,0.16605446,-0.4857086,-0.08857497,0.5968195,0.1627326,0.8995141,-0.5917756,-0.9543878,-0.20923878,-0.14096756,0.26135373,-0.6783949,-0.9955081,-0.8540067,0.533842,-0.43116078,-0.6161393,-0.39695856,-0.55185115,-0.5434931,-0.90664023,0.29479942,-0.8995008,-0.74277985,-0.06608779,0.6187894,0.91581935,0.658284,0.7977919,-0.31719902,-0.6388943,0.838785,-0.9695167,-0.28914848,0.3920925,-0.6679634,-0.26590896,-0.12973064,0.38412446,-0.7605184,-0.80381656,-0.08784299,0.10815751,-0.94634557,-0.5745029,-0.60532254,0.36736917,-0.5839106,0.51428,0.57473266,0.33627832,-0.041971426,0.04349077,0.28991112,-0.9269018,-0.5573692,0.15907711,0.24039891,0.57713,0.8254284,0.46488217,-0.9470602,-0.72766876,-0.2343777,0.6456732,0.23131901,-0.41841787,-0.14243576,-0.1452669,-0.4387282,0.8593839,-0.09160942,-0.13911228,0.09389904,-0.99830806,-0.7844781,-0.90606904,-0.34453437,0.20997524,-0.49201012,0.9006894,0.7535492,-0.64317316,-0.5654155,-0.55367404,-0.9938245,0.6957985,-0.08857509,-0.8572671,0.07217678,-0.38376155,-0.77086514,-0.04821271,-0.8673573,0.05136296,-0.15393117,-0.59585947,0.42299518,-0.7252368,0.23707022,-0.15892792,0.37590954,0.39316162,-0.6247188,0.46687412,0.7882355,0.59577084,-0.4475848,-0.41139627,-0.48512185,-0.43387532,0.2742969,0.6729338,-0.058896746,-0.5330201,-0.89627856,-0.96006715,-0.789929,-0.010345244,-0.005832606,0.40704465,0.6069392,-0.6288912,-0.15481962,0.7237645,0.21238266,0.71019375,-0.48304382,-0.73678815,-0.8202299,0.60581607,-0.3180457,0.079610504,0.74818265,0.50883925,-0.095662,0.95073634,-0.5059249,-0.4661384,-0.7752491,0.2034304,-0.18987478,0.40638727,0.14430568,0.087243795,-0.59423906,-0.9266311,0.23099166,0.13621579,0.8446243,-0.037129007,0.6380622,0.18489978,0.5651005,0.3310599,0.047985267,-0.6331703,0.40039682,0.16715689,-0.15190743,-0.5526543,-0.50301254,-0.18809563,0.21906498,0.9840085,0.8744061,-0.2086056,0.05140215,-0.93913704,0.94082373,-0.8625235,0.05606354,-0.019690245,0.8213154,0.83267564,-0.7610631,0.36057025,-0.017887633,0.74650496,0.42692173,0.88653314,0.5675875,0.9375711,-0.035324752,0.83833647,-0.65211993,-0.19862221,-0.034124605,0.0028088982,0.0471459,-0.84613246,-0.26943755,0.5749923,0.7169124,0.7087319,0.62946004,0.19353004,-0.9963555,0.55821574,0.2325657,-0.29350084,0.80972975,-0.6647357,0.7394204,-0.4469468,0.07757794,0.5500505,-0.99041796,-0.7377826,0.41942498,-0.1945716,0.86388403,-0.42647645,0.13482851,-0.8589361,0.35372704,-0.071469024,0.34561658,0.20426741,0.6099155,-0.17193411,0.6755112,-0.83300024,-0.67375535,0.6251112,0.7445322,-0.40033743,-0.81999063,-0.94235647,-0.22872727,-0.22299525,0.18394178,0.5988956,-0.27105182,0.18748622,-0.8233445,-0.3678506,0.20602326,0.43729398,-0.30705473,0.046869323,-0.35498813,0.7380742,-0.906407,0.5201506,-0.8432689,-0.91258043,0.9174525,-0.86917436,-0.44515568,0.52064764,0.75503606,-0.16126359,-0.01742845,-0.3073666,0.73919445,-0.7342997,0.47911578,-0.7489786,0.6087086,-0.62371397,0.24999218,-0.6627772,-0.76762724,-0.25844207,-0.43131155,-0.026811551,0.5160859,-0.4598289,-0.6402806,-0.21030973,-0.09087402,-0.68613654,-0.20093676,0.38984564,0.53712124,0.5551505,0.219289,-0.64213306,-0.6135948,0.9657448,0.15479833,-0.75723934,-0.5288518,-0.8266508,0.66270524,-0.40608564,0.26384392,0.72969514,0.371642,-0.10294771,0.8692332,-0.800355,-0.9896848,-0.12740289,0.24772783,-0.40436518,-0.40599853,0.021896813,0.80228657,0.07874122,-0.25792894,0.076288104,0.4078847,-0.105135344,-0.053092614,0.80610144,0.68104583,-0.1146287,0.2697886,-0.10160931,-0.78510916,0.9308064,-0.12978838,0.87672925,-0.1605492,0.62807995,0.3034918,0.57931715,0.3357067,0.1666183,0.9676713,0.33524352,0.4798952,0.96098244,-0.0841881,-0.2761755,0.674017,-0.43163946,-0.34811047,-0.19557527,-0.6320023,-0.6872553,-0.9469187,-0.57758933,-0.1859534,0.86703634,0.9456703,-0.17862396,-0.9346884,-0.70973206,-0.9002919,0.9387543,-0.7308129,0.33990744,-0.03181595,-0.8303501,0.7459083,0.2581566,0.10303781,-0.57042694,0.604898,0.19127864,0.21401516,-0.22728354,-0.16769049,0.22786129,-0.15529478,0.9299477,0.7478162,-0.4935737,-0.7847768,0.9847829,0.6112852,0.31947953,-0.7845554,0.829776,-0.081103675,0.68497664,0.9792546,0.30314472,-0.14599873,0.8622468,0.8387065,-0.1667541,0.035516944,-0.93329877,-0.00957994,-0.06672827,-0.42629135,0.36069623,-0.2207972,-0.68692356,-0.68384355,0.6038462,0.8725602,0.73564345,0.7535095,-0.08358139,0.6670728,-0.4137533,0.6571336,0.95393753,0.18370761,0.80478483,-0.6755487,0.18097407,0.48870748,0.9203344,0.45621926,0.29541484,0.50237584,0.26683939,-0.90197915,-0.99542207,0.32094312,-0.24857761,-0.6373075,-1.0066339,-0.18875603,-0.07770325,-0.9391303,-0.68479645,-0.756833,-0.11532292,0.1646436,0.72007793,-0.29977915,0.5731649,-0.32887122,0.4190773,0.5004774,0.3481462,0.19845086,-0.40786806,0.71134365,0.5330038,0.9020884,0.8367694,-0.032174032,-0.63849103,-0.55449593,-0.99560946,-0.6000981,-0.80514115,-1.0029118,-0.97182274,-0.51497436,-0.3604367,0.5843899,0.13295199,0.17655098,0.93638796,-0.27880675,-0.3030764,0.8935169,0.2850641,0.03204982,0.4371464,0.37277666,0.06469555,0.027405381,0.94956934,-0.6853654,0.28093204,-0.8521611,0.82887775,-0.09635266,0.86679184,-0.18181491,0.42125958,0.95138896,0.8587599,0.3520527,0.011232125,0.56124383,-0.50479174,-0.37636623,-0.13122685,0.63569206,-0.96439254,0.6605887,-0.65429515,-0.9548256,0.00004513356,0.47979075,0.7842639,-0.9099192,0.18421614,0.30426553,0.11085169,-0.4442636,-0.09536408,0.015947675,-0.12863027,0.82161444,0.85618985,-0.061359297,0.30967802,0.26205072,0.29611313,0.9290691,0.9019478,0.74843067,0.27962056,-0.3402554,0.09936903,-0.11835947,-0.3153935,-0.8065298,-0.7669993,0.49246466,-0.92117757,0.4392942,-0.008545986,-0.8046344,-0.87482756,-0.50671446,0.6458715,0.6368218,-0.41697595,0.97271734,-0.72833437,0.6688263,0.53972083,0.15095422,0.92031986,-0.5320415,-0.8135948,-0.95024914,0.1838958,-0.27409753,-0.073044784,-0.45054173,0.90535253,-0.73237157,-0.2672627,0.0019144056,0.75279504,-0.6269023,0.74511033,-0.85012174,-0.3854257,-0.87959313,0.8878387,-0.46859407,0.963004,0.81609476,0.7403078,0.77348614,0.11953286,-0.69793755,-0.3105435,0.91156524,-0.57735234,-0.6114565,0.8365841,-0.9023768,-0.26150495,-0.97707725,-0.3911309,0.86524147,-0.95646465,-0.69340503,-0.31263292,0.6775972,0.10984743,0.05303539,0.89637464,0.533326,-0.32535604,-0.3276253,-0.9772171,-0.6006045,-0.44215468,-0.9615514,0.5525336,0.89583796,-0.614003,-0.12688681,0.17983526,0.9640597,-0.73551774,-0.59648937,0.031222515,0.1506191,0.18216006,-0.024731232,0.42249465,0.65152466,-0.49550512,0.056334298,-0.31874347,-0.6135337,0.32470337,0.3721961,0.37646994,-0.17215103,-0.3585483,-0.43041876,-0.7240234,-0.96693116,0.18481807,0.6494819,0.64944494,0.016434295,0.15564564,0.7115423,0.23136547,-0.7422975,-0.8427305,0.58436775,-0.2432451,0.5016813,0.11648297,-0.2170108,0.117605574,-0.49548724,-0.3265662,-0.92135304,0.807144,-0.6513524,-0.76080537,-0.73109406,-0.6915655,-0.37599736,0.17902714,0.46617216,-0.42207268,-0.6074846,0.0537573,-0.76101726,-0.94930387,-0.456301,0.4061217,0.17064837,-0.4557803,0.5285904,0.5933595,0.7559301,-0.79431593,-0.72669315,0.34264195,0.12871313,0.75562197,0.4171599,-0.61694133,-0.1458306,-0.3606001,0.3870414,0.6130339,0.927702,0.48115787,0.24696305,-0.19121793,0.570082,-0.33584508,-0.9031794,0.33939162,-0.0810024,-0.29232347,-0.5011781,-0.003988466,-0.45542765,0.008277149,0.9650419,0.62957364,-0.32099298,-0.89755464,-0.19491322,0.91939473,0.23963937,0.114691526,0.710622,0.40154886,-0.80026096,0.6220358,0.13685231,0.666636,0.50724876,-0.8367109,-0.135238,-0.20792013,0.6964541,-0.23987819,0.05772968,-0.9607352,-0.23065959,-0.0036663471,-0.017973665,-0.80785817,0.2810351,0.14467084,0.77368075,-0.060215622,0.58454806,0.009599405,0.91457635,0.6592302,0.28285807,0.21261951,0.87046653,0.9749288,0.2732397,0.13897851,0.22529632,-0.121270634,-0.17906447,0.48165,-0.29997316,-0.43974623,-0.9916452,0.57800436,0.12303524,-0.2038364,-0.22733635,0.47529754,-0.6588905,0.179752,-0.20078558,0.027367435,-0.09028911,0.8078745,-0.65408766,0.19542886,-0.861068,-0.22779168,-0.68842745,-0.17083405,0.043443788,0.79639345,-0.81243616,0.046252422,-0.06795727,-0.2989218,-0.3762848,0.848663,-0.42034143,0.957781,-0.5372189,0.87806576,0.80981576,0.8912267,0.56755096,0.47831893,-0.60583997,-0.18348238,-0.5676443,0.339811,0.028494578,-0.6399983,-0.44383693,0.47029474,0.8030005,-0.71258044,-0.7012587,-0.7624193,-0.30578822,0.5349603,-0.07099006,0.63407254,-0.2784579,-0.39821285,-0.23358184,-0.11902768,-0.30999863,-0.77045846,-0.56778085,-0.030237166,-0.66483325,-0.86141425,-0.20129761,-0.7834779,0.57292026,0.6481049,0.58970475,0.19506621,0.83769065,0.23698147,0.7961193,0.74408245,-0.7551915,-0.8066718,0.79901344,-0.3838564,-0.40743947,-0.5688495,-0.9514434,0.79944676,-0.25459743,-0.25945136,-0.7543691,0.7079604,0.3173347,0.6836982,-0.1434008,-0.5658783,0.7460417,-0.025748758,-0.61672384,-0.6656349,0.93328696,0.86780864,0.09687798,0.28047574,-0.9301915,0.63442886,-0.67094475,-0.79398245,-0.20249292,-0.70524603,0.32267177,0.2991223,-0.6258309,-0.3600546,-0.9625787,0.81980014,-1.0017372,-0.78237087,0.40651196,-0.66378266,0.42951015,0.75366485,-0.012601808,0.63508123,-0.9959178,-0.31739846,-0.88073194,-0.1245452,0.96250725,-0.59492326,-0.2752662,0.7857552,-0.32081234,-0.069378026,-0.96495646,0.43958247,-0.8929316,0.82109815,0.061610214,-0.98483855,0.49113235,-0.3942683,0.5506327,-0.7775278,0.11574333,-0.6869527,0.7528601,-0.7790192,0.34724724,0.7102174,0.4177269,0.97807395,-0.23527999,-0.18125764,-0.16377048,0.3133072,-0.7452845,-0.10506581,0.7401676,0.34739694,0.8691903,-0.25513104,-0.07142236,0.22399002,-0.80218065,-0.9108837,0.6576059,-0.71941423,-0.67484844,-0.50131655,0.7962253,-0.022219764,-0.19491854,0.029595863,0.32872608,0.42178512,-0.8110149,-0.4785241,-0.598585,0.37690434,0.33153746,-0.19380814,0.687949,-0.23500101,-0.9126353,0.81039524,-0.6862517,-0.3871981,0.29048455,-0.9182083,-0.2635555,-0.0024852415,-0.10239834,0.6099158,-0.44929367,0.07696233,-0.32938063,-0.6905941,-0.5121945,0.5882245,-0.44647396,0.25774616,0.033411205,-0.08593764,0.06930778,0.11736094,0.17331454,-0.056373693,0.51804644,0.3969476,-0.23484917,0.55888486,-0.26560697,-0.45888793,-0.20162852,-0.4488434,-0.7369121,0.46995822,0.23065066,0.7113349,-0.8622538,-0.82932115,0.6331584,-0.14410047,0.58436453,-0.21314518,0.31633756,0.4995112,-0.9151815,0.23043868,-0.4530632,0.36023083,-0.9414168,0.22997627,-0.7244383,0.8350004,-0.5935646,0.043046277,-0.4568013,-0.8246951,0.014416078,-0.9579747,0.23101974,-0.8751796,0.1431898,-1.0105839,0.29679012,0.8448716,-0.36217198,-0.5379907,0.1826128,-0.25851142,0.040948518,0.5257764,-0.37715498,0.9007476,-1.0055045,-0.54659426,-0.7695062,0.86878175,0.58993137,-0.56492734,-0.47781718,0.11469883,-0.22694229,0.28927276,0.8526562,0.12710623,0.060878795,-0.39594546,0.73235184,-0.9369003,0.5024829,-0.33023673,-0.73784286,-0.041683953,0.6897923,-0.19764556,-0.7606247,-0.94426596,-0.5150958,0.84156483,0.9299525,0.89004177,0.4833392,0.4498134,-0.8759674,0.30628762,0.26738185,0.94489753,-0.16084145,-0.16163403,0.9615366,0.58016396,-0.75204265,0.65119964,0.77966976,-0.854476,0.37874565,0.6894264,0.9350372,0.33768097,-0.6180744,-0.61965406,-0.08477939,0.72632855,0.25962168,0.93774265,0.83749515,0.21807395,-0.362985,-0.93847185,0.90702885,0.84752846,0.028110743,0.3711774,0.060534492,-0.1245504,-0.20301276,0.78226954,0.9645069,0.26099163,-0.68922377,-0.63066685,-0.40005186,0.71165764,-0.35315984,0.1809625,0.34453425,-0.746913,0.48681366,-0.8052311,0.86517435,0.25792453,-0.07618307,-0.73512477,-0.13186342,0.23513126,-0.7990116,-0.57649046,0.49990422,0.8216561,0.15128072,0.52310735,0.6011056,0.6943286,0.110693306,0.96495306,0.18824075,0.5634216,0.84348637,0.09243513,0.50964844,-0.49496847,0.38633406,-0.46935067,0.44193465,-0.7040998,-0.6650289,0.17557895,0.051973213,-0.653748,-0.3541579,-0.7014694,-0.344938,-0.16812338,0.027335396,-0.14723273,0.39679644,0.25970778,-0.95256764,-0.82163537,-0.5148069,-0.88195384,0.038390044,-0.40556845,-0.47447056,-0.65772206,-0.5662277,0.482934,-0.8678421,0.8794805,-0.119125724,-0.593386,0.41203725,0.93845403,0.91506445,-0.11999218,0.77612716,0.7130337,-0.27924612,0.42106304,-0.9808239,-0.30403242,-0.6026858,0.8588395,0.92789555,-0.1568016,-0.6631893,0.6401436,0.4852001,-0.064716004,0.6885201,-0.59231627,0.092195936,0.3763418,-0.9548668,-0.5044221,0.00040484383,-0.5474598,-0.8134423,0.28137052,0.50693464,0.80079305,-0.96351653,-0.0056395913,0.91807777,-0.39141884,0.6266443,0.32905325,0.07502441,0.52420735,-0.36792287,0.66893333,-0.41882774,-0.83605427,-0.01682785,-0.78679085,0.19951053,-0.8058482,0.44370723,-0.6800642,0.5574127,0.8577716,-0.75715274,0.46700698,0.65083414,0.26387286,-0.5572362,-0.49603727,-0.028485652,0.74809533,-0.20381054,-0.1488566,-0.3530603,0.04777761,-0.056392,-0.34450713,-0.5498736,-0.73819774,-0.8552158,0.9003809,-0.58517134,-0.63025385,0.06545661,-0.20518897,0.09757276,-1.0126256,-0.22043757,-0.42995158,0.054319944,-0.09888124,-0.8971876,-0.4537707,0.06690995,-0.67464405,0.77900475,-0.20107153,-0.5337088,0.39216647,0.78163177,-0.6910965,-0.44436482,0.0009126984,-0.36784345,0.9581821,-0.22693652,-0.37703547,-0.66442114,0.67426103,0.7401014,0.2655628,0.8943937,-0.3983673,0.5106915,0.8511344,-0.66219044,0.8544974,-0.24826133,0.55654544,0.115651846,0.7679798,0.43026498,0.85495955,-0.43989724,0.8453847,0.72080505,-0.8110244,0.96545225,0.49432915,-0.43319932,-0.24970575,0.56858563,0.6221601,0.6432733,0.6798579,0.53397346,-0.020883737,0.34762442,-1.0094559,0.8870768,0.45836923,0.20068222,0.85495865,0.17742443,0.81586516,-0.5624391,-0.95313984,-0.40141538,0.31849438,-0.004351968,-0.66319215,-0.42607328,-0.17464188,-0.5988948,-0.6713866,0.4061871,-0.8464079,0.6735773,0.4918096,0.017659174,0.39261764,-0.36227113,-0.47477114,-0.38796544,-0.4846023,0.8905171,-1.0030167,0.34471512,0.10378194,0.8864682,0.35695887,0.05662814,0.7124186,-0.2693424,0.31403995,-0.5372844,0.9043116,0.61445475,0.832062,-0.72703314,-0.4875768,0.8074717,0.90003484,-0.4180629,0.4695319,0.8402058,-0.5492475,0.75669783,-0.31480014,-0.6627372,0.67223907,-0.89771765,-0.92593205,0.0061988537,-0.034324065,-0.69227636,0.5934976,0.07058753,0.3825622,-0.14292918,0.11446194,-0.3920264,0.24897684,-0.07685959,0.6439956,-0.20328476,-0.97355616,-0.21787362,-0.7874801,0.5098216,0.009345311,-0.37873432,0.2301294,0.5172657,0.22944415,0.931671,-0.12703799,0.8618449,0.9556012,0.7062855,0.3034588,-0.37365723,-0.39513865,0.0060925996,-1.0085847,0.9003078,-0.46346685,-0.413706,-0.66015136,-0.13671985,0.05278361,0.50653327,-0.48622042,-0.8295429,-0.3819841,0.52097684,0.4089546,-0.68252033,0.96781,0.36782578,-0.4094406,-0.8111734,0.9246793,-0.2339685,-0.24243999,0.5453749,0.8464099,-0.24011141,-0.40471184,0.93231314,-0.07446572,0.35943186,0.96899366,-0.22674209,-0.885441,-0.76652116,0.056108896,0.8193049,0.645858,0.7076026,-0.64157265,0.9101516,-0.722605,-0.9581267,0.696367,0.05830102,0.3587767,0.75808895,0.5283103,0.85116786,0.0018093871,0.8156195,0.13541493,-0.3845416,-0.59280527,-0.40782008,-0.23828249,0.55082875,0.077502914,0.026524533,0.4341229,0.16913249,0.59158283,0.010267599,-0.6071236,0.3823476,-0.03319756,-0.05986294,0.8547046,0.23379049,0.22492833,-0.953481,0.10563927,0.92024547,-0.030440507,-0.011027693,-0.8716807,0.588247,-0.24209483,0.5316768,0.37134066,0.5772301,0.5668841,0.55914533,0.5695169,0.13951744,-0.4776662,-0.569542,-0.9113814,-0.9049029,0.20949627,0.5672347,-0.21466677,-0.26469535,-0.38292792,-0.34804428,-0.34966144,0.419474,-0.2977971,0.047807876,0.9368477,0.9875122,0.9345877,-0.6211429,0.20364028,-0.5462851,0.78306335,0.54688096,0.8763369,0.07145456,-0.09491221,0.77734035,0.5582959,0.5921042,0.5998166,-0.061813794,-0.19107126,0.47901946,-0.16245362,-0.53894746,0.024117524,0.8800212,-0.98657817,-0.22200556,-0.27766532,-0.079584524,0.18471436,0.22697519,0.946038,0.5065586,0.047451083,-0.5820441,-0.33739123,0.9142252,-0.99959457,0.3168153,0.47892943,-0.5371094,-0.40988925,-0.55650127,0.31132156,0.6537801,-0.8436287,-0.5843052,0.74044913,0.64203244,0.7087649,-0.2904407,-0.74888104,-0.5101238,-0.938663,-0.34413812,0.898281,-0.37054458,-0.9386649,-0.27538627,0.97720265,0.96985656,0.5027052,-0.66502446,-0.2923345,-0.3644869,0.43319607,-0.16778533,0.49335045,0.48068476,-0.9592582,0.17686662,0.018263884,-0.0905649,0.26670262,0.19533378,-0.5341754,0.5693039,-0.15772825,0.42057818,-0.36316106,-0.058335513,0.175559,-0.3586643,-0.6248199,-0.76595306,-0.4545663,0.55386794,-0.49237677,0.2600711,-0.40127677,-0.3887993,0.074986435,-0.8791136,0.9191062,-1.0085837,0.78246474,0.91368335,-0.1292553,-0.19528116,0.41939387,0.5695604,0.26068488,-0.35111576,0.8715761,-0.8164886,-0.4032627,-0.04647193,0.1766608,-0.44724482,0.2700016,0.6693902,-0.6695698,-0.8402405,-0.03738889,0.58734214,0.124838986,-0.77454484,0.7515735,0.6516724,0.81838727,-0.8506466,0.5366483,0.009525597,-0.9779392,-0.80430865,-0.276584,0.13792178,-0.18540926,0.91531163,0.59602934,0.18636802,0.41559824,-0.73551023,0.08613131,0.8774193,-0.16877007,0.07080638,0.11905474,0.04166138,0.12476961,-0.21190017,-0.9057363,0.8154479,0.36555308,0.24456748,0.70457244,-0.6434388,0.1375749,0.17350298,-0.48166516,-0.7812751,-0.13868003,0.1941428,0.1793701,0.49362952,-0.4381848,0.38228273,-0.76905483,0.16260749,-0.9618537,0.39269036,0.42381892,0.5705406,0.7574279,-0.88109064,0.6507203,-0.52926165,-0.5502189,0.73717254,-0.38620287,0.35599127,-0.57536113,-0.16989902,0.72424805,-0.58567,-0.75660646,-0.71132463,0.05554217,0.09940456,0.17509755,0.4232453,0.7467117,-0.96037644,0.34646058,-0.75697494,0.37983873,-0.31540856,-0.025952665,-0.11108771,0.778705,-0.8692148,-0.067761615,-0.13387205,0.5674267,0.37051192,0.18824165,0.8125911,0.024358869,-0.42554834,0.61248064,-0.849117,0.76877266,0.7345778,-0.24737836,-0.66161305,0.0024505095,-0.032356873,0.6272212,0.34271958,-0.27453238,0.38759103,0.52241784,0.40713573,-0.8077732,-0.49326262,-0.06293852,-0.79004866,0.763864,0.6308353,0.11262491,0.10941028,0.15196344,-0.97003704,0.8773697,0.6281697,0.7519799,0.10010333,-0.52916896,0.0028765036,0.82461476,-0.15421607,-0.7398093,-0.78473526,-0.57852054,-0.93734163,-0.20642066,-0.19141702,0.8170263,-0.89594775,-0.6555102,0.28112364,-0.49294633,0.7576301,0.27647138,0.043969963,-0.8900477,0.759972,0.24652018,-0.0143347485,-0.7942251,-0.29116276,0.89809746,-0.6442791,0.28218946,-0.73036355,-0.49725613,0.9064986,0.6312089,-0.28883183,0.58040744,0.8283277,-0.71794623,-0.46025762,0.050680377,0.7540229,-0.057539806,-0.6245841,-0.74538976,0.38289085,-0.32523298,0.0066507556,-0.32891852,0.87553686,-0.28149316,0.8266836,-0.8129533,0.7025099,0.57207197,0.16438703,0.16542146,0.119771816,-0.9395724,-0.3433513,0.55423856,-0.69394565,-0.0032595687,-0.11384414,0.42443895,0.6071278,0.013939173,-0.28695467,0.10355754,0.6562921,0.6122386,-0.8243667,0.4888656,0.5148051,0.3137835,0.8276729,0.9271232,-0.9336939,-0.6459667,0.8453653,0.7457402,-0.8314799,-0.7023931,-1.0074517,-0.8597454,0.35693806,-0.69104606,0.40013978,-0.5696235,0.9692288,0.4894138,0.7565735,-0.6103008,-0.8226064,0.1790339,-0.73491675,0.17483246,-0.51430285,0.73464555,0.81641424,-0.9203443,-0.92649025,-0.07527183,-0.2240573,0.65991205,-0.036516923,0.96906495,-0.39791146,0.12828931,0.34138888,-0.7375456,0.12124556,0.12224655,-0.3883858,0.19357584,-0.83933294,-0.46738744,0.7849476,0.50694686,0.591667,0.7721776,0.38092485,-0.44924992,0.66055304,0.98178774,-0.020685675,-0.6832914,-0.6339853,-0.28288567,-0.6434654,0.15225078,-0.92767113,0.42092866,-0.00977425,0.8615528,-0.86615795,-0.4072957,0.40436846,0.2375008,0.9659067,-0.14165635,-0.738204,0.4744335,-0.5595803,-0.5969783,0.13402703,0.84111375,0.89516234,0.2687079,0.088167295,0.9579612,0.9680803,0.25859275,-0.19477268,-0.03997506,0.39737165,-0.28230914,0.8836445,0.33697286,-0.28711826,0.20246275,0.25488928,-0.20405072,0.036541905,-0.38921988,-0.37765187,0.1945799,-0.45466557,0.51286346,-0.18567759,-0.9929908,0.7212775,0.6994075,-0.057479396,-0.9397141,-0.41609278,0.44087005,0.6946644,0.86783504,0.5952345,-0.1272035,0.6877008,-0.33420825,-0.12543178,0.34332544,0.38309354,-0.8945715,-0.47281122,0.1714157,-0.14602809,0.9227133,-0.3583352,0.6029356,0.15547682,-0.53468454,-0.43014368,0.7590781,-0.96090513,-0.6495917,0.979143,-0.7279464,-0.1624428,-0.26943067,0.84125316,0.6799603,-0.28329083,0.8040846,-0.92313474,0.8763084,-0.6215794,-0.642341,-0.32437694,0.47689563,-0.07459633,0.053572327,-0.009156148,-0.2983857,-0.7190622,0.6050813,-0.7063409,-0.19465378,0.86093825,0.21714246,-0.4969562,0.82671326,0.71109116,-0.5116143,-0.23250417,0.36016873,-0.21186316,-0.5339342,-0.55207497,0.16947468,-0.5690849,0.35879895,-0.17948198,-0.31849396,0.010127993,-0.19569741,0.9200382,-0.06711128,-0.8157806,0.48291475,0.7271878,0.42818546,-0.51124334,-0.5263456,-0.84730864,0.0893078,0.68150395,0.40998924,-0.32260484,-0.56543434,-0.83563775,-0.654512,-0.7100361,0.74497265,0.68549126,-0.26129606,0.41359738,0.62363905,-0.3521284,0.5996723,-0.7889322,0.31890577,0.3371324,-1.0065544,0.30768716,-0.6353367,-0.87979585,-0.3644293,0.22490765,-0.01460778,-0.50566083,-0.74419725,-0.72403073,0.34701657,-0.80414206,0.6177055,0.2551082,-0.4610112,-0.9787135,0.026534919,-0.016745413,0.08075495,0.014789623,0.06606156,-0.5365856,0.31559837,-0.38556457,-0.17293118,0.15272456,0.7062782,-0.41714922,0.8453569,0.5577941,-0.107299276,0.4483846,0.9847181,-0.48316193,0.9758728,0.91289294,0.85915095,-0.5028017,0.97590977,-0.4155271,0.4055996,0.96489626,0.46159443,0.14427632,0.6623169,-0.71925837,-0.6072293,-0.66378677,-0.97818214,0.27622053,0.047873545,0.44620094,-0.9083731,-0.9743094,0.40260923,0.1410784,-0.3370117,-0.8431017,0.5935359,0.7201063,0.86079013,-0.4601043,-0.11077609,0.057672624,-0.49372163,-0.27734062,-0.009627044,0.85936964,-0.7934288,-0.00560688,0.17012821,0.668029,-0.9360902,0.7459222,0.9600408,-0.63710237,0.51964885,-0.066078655,-0.76573175,0.55923486,-0.05886114,0.16200678,0.9376381,-0.6418293,-0.3714561,0.41902477,-0.4316687,-0.52439857,0.42852744,-0.94347054,0.3244701,0.69879764,-0.16852883,0.9420105,0.3795476,-0.34388256,-0.3690515,-0.18510056,-0.03903614,-0.29449844,-0.43661988,-0.76877064,0.19456296,0.61259335,-0.68960094,-0.88726944,-0.90791506,0.95809066,0.085404135,-0.51354253,-0.6202014,0.30534217,-0.83231544,0.009509919,-0.1536777,0.29780447,0.66110444,-0.7570438,-0.17818733,0.13520429,0.6024487,0.7146766,0.56796646,-0.7620166,-0.8421644,-0.98115456,-0.14821304,0.6716861,-0.7286961,0.45974088,0.060511228,-0.35580397,-0.82203186,0.88278836,-0.5518881,0.06396438,-0.4614795,0.85550076,-0.8511232,0.38553855,0.13694617,-0.21464823,-0.3548642,0.60786223,0.33308655,-0.012053384,-0.19376893,-0.2912878,-0.6779653,-0.08994328,-0.21454735,-0.7948605,-0.1368403,-0.21314509,0.19441068,0.37427163,0.43297845,0.087296054,0.5574652,0.8398093,0.0065561165,0.0515418,-0.21612573,-0.96623594,0.9220747,0.9127062,-0.32637987,0.8543951,0.39278927,-0.9208074,0.28343022,0.018833812,0.38875988,-0.3163177,-0.25650635,0.163634,-0.35376778,0.2504146,-0.18098666,-0.4258575,-0.12752484,-0.106966354,0.84056515,-0.09123504,-0.89849913,-0.89322114,-0.048953176,-0.9670617,0.880869,-0.34808448,0.18931644,-0.9467584,-0.5934408,-0.7339541,-0.16876705,-0.16853401,-0.5235519,0.051783796,-0.17224517,-0.9917991,-0.72959197,0.8124439,-0.08259567,-0.18825516,0.8144805,-0.032506242,0.39822856,0.069364004,0.71067834,-0.5950813,0.4928271,-0.99976,-0.03499764,-0.5735287,-0.64570016,0.09940726,-0.5893129,0.6158498,-0.10260546,-0.9746063,-0.07670782,0.67725635,0.18612167,-0.5456922,0.44346988,0.64090264,0.62159926,0.5881477,0.87441033,-0.10182595,0.17569146,0.9585314,0.5467018,-0.91171664,-0.8149562,0.32064554,-0.4265596,-0.8934889,-0.9880219,0.4593447,0.6262474,-0.80975854,-0.4580789,0.9695626,-0.005948789,0.64436793,-0.63715255,-0.7477718,0.5067531,0.4628863,-0.93255347,-0.24369794,-0.1811422,0.82014316,0.51294506,-0.48084527,0.89747256,-0.50975686,-0.67556685,-0.38079953,0.15599068,0.014215773,-0.19875997,-0.028509064,-0.09420118,0.8416035,-0.049657006,-0.0775768,0.7560086,-0.7664484,0.91937375,0.9024892,0.56524426,-0.0922873,-0.0747939,-0.43091464,-0.91276836,-0.6981988,0.5854173,-0.14450991,-0.66323334,-0.9143782,0.20755497,0.4391584,0.085319765,-0.40360016,0.51490265,-0.5573122,-0.13204227,-0.7099975,0.91100854,-0.25403458,-0.47256985,0.7816756,0.79926485,0.5501835,-0.59731925,-0.08282628,-0.18597348,-0.14878884,0.9138285,0.16951217,-0.16161147,0.1416138,-0.5482351,0.9008635,-0.10681604,-0.6644029,0.21104692,-0.26506063,0.5786341,0.5450048,0.41798314,-0.4733953,-0.6189659,0.5506352,-0.26126626,-0.07414237,0.19840182,-0.8874965,-0.5694278,0.8824118,-0.6680614,0.9276399,-0.42789772,-0.046029713,0.23861533,0.36130175,0.18052489,0.32736042,-0.3574354,-0.6098073,-0.9389418,-0.44743726,-0.2962396,0.3693057,-0.25054365,0.029525854,-0.81091607,-0.8935432,0.7964749,-1.0049539,0.859921,0.7054828,0.7427682,-0.3872764,-0.5139442,0.134711,-0.34533465,0.4836531,-0.7552199,0.77310467,0.90845376,-0.09173005,-0.118699886,-0.081559785,-0.9673033,-0.53377783,-0.9480719,0.6745449,-0.63224494,0.9084128,-0.6567765,-0.14400846,0.21163867,-0.43708155,-0.9665007,0.5961435,0.65542537,-0.69774663,-0.9457008,0.36886272,-0.71175647,0.21832263,0.07066831,-0.24784353,-0.052969065,-0.73117,0.7856606,0.9213498,0.8146588,0.22597787,-0.3969626,-0.18219623,0.20476955,-0.98793715,-0.60487026,0.6646144,-0.24719307,-0.285064,0.18818606,-0.3564954,-0.71718013,-0.69643813,0.89985293,0.38170812,-0.28235415,-0.19849497,-0.45914605,-0.4653369,-0.46081787,-0.004912725,0.9289772,0.24117923,0.9767724,-0.31886968,-0.12186584,-0.2286319,0.77903014,-0.4380285,-0.6662032,0.86259305,0.9458791,-0.27244452,0.4971571,-0.031166404,0.8656782,-0.4513768,0.31897265,-0.7773462,0.032762967,0.19450487,0.271717,-0.5352842,0.6381819,0.8932396,-0.23528098,-0.38624287,-0.018585058,-0.65303427,0.9856061,-0.18913947,-0.5749043,0.90902513,-0.09153568,0.72711754,0.9163419,-0.35711747,0.73396254,0.30314836,-0.39148024,0.30608526,-0.7650004,0.21214406,0.7337467,-0.34382054,0.7475692,0.6423572,-0.17283405,-0.16973191,0.6589585,-0.6723292,-0.8986082,-0.4239729,0.769561,0.15475398,-0.8679039,0.9540824,0.43550193,-0.26387975,0.6435778,0.09611027,-0.096028216,-0.45344293,-0.12988527,-0.37284148,0.13216345,0.9723128,-0.14650802,0.74377245,-0.9956744,-0.3781461,-0.24367562,-0.5179093,0.7787694,0.603236,0.2694699,0.15850793,0.1335917,-0.66281855,-0.7966751,-0.55950487,0.14706902,0.48400635,-0.3380327,-0.5638348,-0.09460375,0.60627216,-0.84164625,0.8961343,-0.13951603,0.92863154,-0.42560086,0.43170002,0.4406249,0.08931706,-0.17282143,-0.28543273,-0.23805314,0.6358393,0.12586491,0.637427,0.84371215,0.5054973,0.63153905,-0.38030332,-0.44381034,-0.2354583,0.7500982,0.2070093,-0.9633073,0.9676346,-0.76510876,-0.8394106,0.5184065,-0.10380734,0.08168911,-0.8247985,-0.68896943,-0.0997431,-0.21032791,-0.34125143,0.13811322,0.8039237,0.39305353,0.37076795,0.36970872,0.85294783,0.8281768,-0.9663409,-0.29930934,-0.7789126,-0.5303651,0.9396631,0.85746765,-0.42765146,0.106186174,-1.0059143,-0.20209545,0.36511463,-0.0023305237,0.18850403,-0.03643031,0.6890967,-0.8222483,-0.47215506,0.9718184,-0.99510264,0.7299295,-0.80209583,-0.09612041,-0.41154292,-0.56095695,0.51419735,-0.60813874,-0.24778053,-0.8142893,0.12434136,-0.91778135,-0.3859925,0.55086327,-0.83361304,0.887602,-0.26192546,-0.577826,0.08643261,0.9433461,0.29984215,0.735143,0.61547637,0.09541996,0.97529817,-0.35269877,-0.14589405,0.1322378,-0.19062175,-0.14855197,-0.5290413,-0.7316491,-0.13406645,-0.21411811,-0.8200138,0.49741283,-0.8608089,0.61488533,0.73807824,0.89645594,0.73784333,0.055441365,-0.18475892,-0.4708153,-0.14494368,0.92617667,0.05474695,0.89852333,-0.24095145,0.5197909,-0.97259766,-0.38841137,-0.8154582,-0.47148976,-0.99705225,-0.70221645,0.820882,-0.272252,0.0675868,-0.3290655,0.9400485,-0.6367054,-0.054487683,-0.33696637,-0.122499876,-0.2702694,-0.839347,-0.3144191,-0.3155553,-0.9788427,-0.37931162,-0.27315158,0.51476395,0.80511427,-0.9067226,-0.69947916,0.6063483,0.18816485,-0.7302631,0.8660284,-0.8572312,-0.4696769,-0.38521084,-0.47713912,0.11529674,-0.7996166,0.5974546,-0.23899697,-0.3788119,0.35657123,-0.002848622,-0.8367052,-0.50989103,-0.54193294,0.31246588,-0.00018059353,-0.53355885,0.63026315,0.48361817,-1.0094235,-0.03981853,-0.68420404,-0.2840476,-0.7722216,0.29140306,0.19297956,0.7624395,-0.57654,0.13389577,-0.0459226,0.9026428,0.5266864,-0.24482962,0.95009357,0.032452263,0.4208134,-1.0048445,-0.5978569,0.2620093,-0.09662297,-0.41382113,-0.2239671,0.054685235,-0.9794302,0.96024525,-0.67730343,0.44490013,0.10515091,-0.94167525,-0.23776746,-0.3875442,0.8538684,-0.42112458,0.8396287,0.6424031,0.42944074,-0.00074327487,0.7682972,0.42422414,-0.23654743,0.78815603,-0.71419257,0.4833753,0.5973128,0.5231194,-0.032320857,0.20479205,0.26925656,0.38786048,0.30828643,0.08003967,-0.25955275,0.6810562,0.43505108,0.85304606,0.318015,0.9246171,-0.59523416,-0.010907128,-0.8248671,0.38913164,-0.61905444,0.8147023,-0.7432017,-0.5659208,0.711684,0.00943474,-0.6975908,0.2722898,0.6579819,0.5283848,-0.43429625,0.30087754,-0.47206146,-0.4606395,0.988113,-0.09522731,-0.025092317,-0.7987021,-0.8138559,0.6397978,-0.42601454,0.2574262,0.7903252,-0.226076,-0.41687626,-0.83275026,0.93010366,-0.8206821,-0.58648384,0.46636912,-0.6100568,0.4413426,-0.69371134,-0.28551254,0.29816973,-0.23996033,0.9514196,-0.3436732,-0.014885348,-0.32529208,0.39938626,0.71462,0.6633234,-0.27941477,-0.21898736,-0.6932144,-0.090944156,0.22717619,-0.4881759,0.7911612,-0.6202105,-0.013593714,-0.96315694,0.98485434,0.21373402,-0.08920207,-0.11613902,0.1231307,0.12982559,0.013249542,-0.28123382,-0.84921867,0.6692719,-0.89946234,-0.53609794,0.816295,-0.5843492,-0.845358,0.50998974,-0.5200849,0.44085377,0.8048372,-0.7306282,-0.5077321,-0.72193855,0.47061706,-0.18717258,-0.7749608,0.13553493,0.31064826,-0.44319853,0.36358932,0.78840005,0.06656741,-0.43652716,-0.54593366,-0.7040105,-0.21083266,-0.67032474,-0.4507702,0.20396385,0.7316299,0.964995,-0.38898674,0.07703958,-0.61763066,-0.6771679,-0.58373106,0.8518701,-0.28762835,0.043348968,0.84831923,0.8831962,-0.9615415,-0.61477613,-0.37792563,-0.9103746,0.097943306,-0.928832,-0.8833208,-0.36046326,0.43490055,0.26846448,-0.7860981,-0.81719285,0.9338662,-0.013113245,-0.9781942,0.48739386,-0.044168547,-0.8190646,0.6764733,-0.7339922,0.19546348,0.10316621,0.41982606,-0.10567599,0.034263756,-0.19112831,0.8763812,0.89409846,0.111104995,0.90735704,0.23109058,0.09989905,-0.40394425,0.6164795,-0.0025448264,-0.66572493,-0.7501923,0.8523823,0.8114814,0.17163797,-0.06905658,0.6156194,-0.3428109,-0.53436697,-0.6657652,-0.58214706,0.2898085,-0.98419446,0.5030834,-0.8376918,-0.7040574,0.27073625,0.13260737,0.08064517,0.91840005,0.58244026,0.91831064,0.22035341,-1.0023603,-0.47876504,0.6153817,-0.9294894,-0.2038575,-0.34235516,0.16959465,-0.6620373,0.7621066,-0.52090406,-0.1410005,-0.20151883,0.32399476,0.47837242,0.53816485,0.38341147,-0.33739024,-0.7683582,0.66850567,-0.06506894,0.9683901,-0.12387598,-0.25373596,0.857954,-0.13359743,0.28088182,0.2514832,-0.13076,-0.9175726,0.1878699,0.39080313,0.96212023,-0.74344146,0.13368139,-0.4821797,0.8209667,0.20324959,-0.9841989,-0.6602568,0.489437,-0.5835746,-0.23117934,0.35917595,0.3276973,-0.3476052,-0.114354104,0.1762651,0.40564975,-0.9633334,0.909797,-0.9175976,0.68002224,-0.99809784,-0.8155543,-0.81544775,-0.46497995,-0.6050098,-0.73611814,-0.98752207,0.11010457,-0.6552335,0.00032619343,0.7661313,0.3898097,0.5981457,0.7888317,-0.8143738,0.771336,-1.008628,0.9109688,-0.09248943,0.23636667,0.78523695,-0.2650814,-0.33809248,0.46991116,0.49511144,-0.82260084,-0.71222895,0.7536342,-0.4721427,0.65481395,0.561595,-0.063863695,0.90946656,-0.6311705,0.68801457,0.5333776,0.10382247,-0.8224645,-0.6531927,0.58322674,-0.24544004,-0.17417836,-0.81219685,0.26799038,-0.08657055,0.27784264,-0.10992132,0.1844037,0.067400925,0.010406617,0.67042947,0.9449176,0.55440897,0.72843456,-0.3450894,-0.98250717,0.50441253,-0.90101886,-0.089285046,0.5483414,-0.4333143,-0.7108534,-0.93103313,0.32224616,0.5497549,0.26836792,0.60073155,-0.98147327,-0.12198709,-0.42181543,0.97972107,-0.46773535,-0.5598271,0.55197036,0.92686415,0.15385383,-0.9816701,-0.016627705,-0.40229842,-1.0027561,0.69070166,-0.8174872,0.11673998,0.93918574,0.24497782,-0.7719956,0.32381898,-0.8969515,-0.45443398,-0.90950084,0.2818272,-0.68762714,-0.7158702,-0.6525579,0.0057257316,0.42132682,-0.8086012,-0.69678247,-0.3490653,0.011006482,0.01449754,-0.899604,-0.4779115,-0.3236197,0.34799197,-0.012175687,-0.69778836,0.5533256,0.8149504,0.37677577,-0.024973897,-0.5224373,0.29252213,-0.06425211,0.6789471,-0.24137397,-0.4939823,0.2283346,0.21934785,-0.78109014,-0.28202116,0.32588434,0.32286933,-0.43835112,0.18232898,0.14668691,0.83407235,-0.6440498,-0.26487532,-0.83696514,0.85366935,0.3969032,0.78156877,-0.7284947,0.9437749,-0.56064755,0.96299314,0.5105596,0.9822847,0.645494,-0.44053233,0.42096075,0.51258135,0.027760714,-0.03417737,-0.86856943,-0.41115844,0.29076856,0.30098802,0.5970639,0.63570064,-0.24944252,0.33883277,0.818646,-0.3817054,-0.07705959,0.06971877,-0.37061715,0.94496614,-0.83317435,0.7191254,0.6719318,-0.18267874,0.94782597,-0.80237985,-0.5512073,0.7909001,0.06112362,-0.23459433,-0.80585057,0.94399923,-0.06022755,-0.25964668,-0.79253143,0.120189905,0.37708417,0.7546801,-0.06074017,0.089649856,0.72439075,-0.23660569,-0.07463356,0.83771664,-0.8945511,0.4211183,0.21579826,-0.4549454,-0.8567501,0.43169695,-0.03905479,-0.17655759,-0.60038054,0.83756787,-0.25547275,0.13655756,0.82648516,0.37731576,0.34015396,-0.7789704,-0.89204854,-0.86903405,-0.6088268,0.5377343,0.5053976,0.44428793,-0.47373098,-0.106120594,0.3748715,0.97414726,0.75225705,0.31944004,0.60984325,-0.3783324,0.32332966,0.8530691,-0.2011173,0.17797787,-0.47084147,0.45574015,0.021727867,0.37681228,0.4705481,0.15952682,-0.4729269,-0.92619866,-0.2876917,0.78034884,-0.49948713,-0.7362208,0.17727415,-0.31506196,0.7054987,-0.37083712,0.35346308,0.5314403,-0.32403472,-0.8947842,-0.56499773,-0.1857258,-0.07946973,0.56404173,-0.8337114,-0.36080775,0.48624656,0.13519192,0.675904,-0.55933464,0.5708005,-0.55419165,-0.21094619,0.06996923,-0.6231276,-0.4595801,-0.7494278,0.25400302,0.9598065,-0.51199955,-0.89183736,0.5067251,-0.32020313,0.1791463,-0.0084452145,0.82490295,-0.8946016,0.37689775,0.26673627,-0.6341447,0.13472518,-0.29965082,-0.7956135,0.8197525,-0.4982003,0.47309482,0.30772975,0.43329325,-0.92917925,-0.7141094,0.7421114,-0.1436111,-0.77182263,-0.69224185,0.7417007,-0.47282353,0.20218761,0.30349496,-0.3499872,-0.94617116,0.52536637,0.34987566,-0.7643155,-0.27152085,-0.06613676,-0.35792238,-0.8151198,0.5203393,-0.31411958,-0.38944045,-0.5639908,0.8643238,-0.79808223,0.47902068,-0.94409025,-0.9793044,-0.37005153,0.023536772,-0.098549426,0.47023576,0.69592893,0.8682607,0.10534198,-0.21700469,-0.61779284,-0.19144401,0.8501196,0.6622659,0.7977054,0.041737758,0.3286454,0.5321264,-0.92515415,-0.2331811,-0.23535523,-0.2047019,0.008117704,-0.42047644,-0.61879796,-0.4357133,0.8995353,0.7846748,-0.43280923,-0.14113839,0.5376115,0.15692364,0.7222574,-1.0057158,-0.3568248,0.38157266,0.6917626,0.8467646,0.8149689,0.509859,0.4630748,0.12966037,0.17296353,0.1288448,0.3070259,0.5543522,-0.7679733,0.7858204,-0.8436294,0.42961636,-0.9925526,-0.08746051,-0.13373606,-0.37356493,0.0831493,-0.36184627,0.9237086,0.072377935,0.62279963,0.65032005,-0.7975713,-0.6263259,0.57052773,0.9597546,-0.4910964,0.6280966,-0.20701388,-0.8849489,0.10039617,-0.24170938,0.6244914,-0.7454063,0.035512876,-0.0967464,-0.17116515,-0.642477,0.22914468,0.40705433,0.6013427,0.7059704,-0.8464503,-0.365123,0.27227622,0.10658771,0.39683935,0.090623006,-0.08172005,-0.3915586,-0.6771272,-0.7275546,0.815296,0.37861973,0.48095366,0.46085542,0.3342123,-0.68497926,-0.66518056,0.6792125,0.40857998,-0.105052084,-0.28482664,-0.22760701,0.2965471,-0.35624945,-0.6384708,0.90498275,-0.6913997,0.030434163,0.82463473,0.021611545,-0.6020109,0.65468526,0.9355091,-0.01081241,-0.3176835,-0.9191093,0.13806282,0.40868866,0.93299913,-0.14210236,-0.09648504,-0.18346721,-0.89290035,0.894237,0.8979881,-0.21055315,-0.98197615,-0.21838832,0.15959921,0.26222536,-0.59284776,0.7280049,0.39091834,-0.21408565,-1.0061435,0.3474,0.24572733,0.475408,-0.9088435,-0.2531488,-0.3866084,-0.5942455,0.64847034,0.059708994,-0.38409457,0.060682833,-0.00006416188,0.27486727,-0.21649563,-0.10497441,-0.009189882,0.8500304,-0.5817443,0.3579735,0.61905193,0.5194936,-0.10867631,-0.21337366,-1.0011101,-0.011396164,0.9574805,-0.22560993,-0.44682983,0.0285599,0.6667011,-0.20497456,0.28666708,0.20230852,0.4018674,0.7946151,0.3753018,-0.115774296,-0.84565085,-0.97480726,-0.15052533,-0.36915645,-0.54897755,-0.4437565,-0.42897677,-0.66086775,-0.1888267,-0.28895515,-0.79807705,-0.22505291,-0.58193517,0.9509404,-0.95448107,0.08602195,-0.7246525,0.1428183,0.18371148,0.09175473,-0.5187563,0.35940132,0.9706185,0.75394887,-0.0113985455,-0.5708039,-0.541117,0.4835757,-0.3159245,-0.56764,-0.39474058,0.092861444,-0.7715702,-0.99966246,0.73207074,-0.6913857,0.93911326,0.7470825,-1.0007573,-0.38590652,-0.56333303,0.93876994,-0.2362418,0.2899359,0.85977507,-0.40682864,0.018115051,0.10181043,-0.90031135,-0.12010748,-0.32631364,0.4382603,-0.3117332,0.035417166,-0.42184493,-0.1513032,0.563438,0.36311448,-0.643327,0.6061554,0.6547428,-0.5601766,-0.6684579,-0.8369595,0.5922283,-0.3996711,-0.13380942,0.5565972,-0.306253,0.92423075,0.36811265,-0.47765577,0.9147811,0.91350424,-0.6601449,-0.9192289,0.52049685,-0.53426856,0.86730814,-0.8957376,-0.48472488,-0.09419548,0.545466,-0.026008012,-0.34629744,0.568564,0.014565532,0.4731726,0.23339233,0.068668805,0.5132121,-0.5571113,-0.99605095,0.13114008,0.27789485,0.3754851,-0.942313,-0.3375359,0.1093655,-0.5446335,-0.7907305,0.47844717,-0.07759546,0.17956425,0.07857911,-0.10153139,-0.2909503,0.27404982,-0.18454903,-0.38980135,-0.1109093,0.4852879,-0.22563513,-0.24792527,-0.59750015,-0.96386707,-0.9507606,0.85282874,0.23374899,-0.9721869,0.43884006,-0.5934722,0.11071577,0.102874696,-0.032538638,-0.58387625,0.6674889,0.8534248,0.64321905,0.93799174,0.06423143,0.6533111,0.4822493,-0.7103231,0.18833417,0.9796535,0.96060365,0.41290432,0.87647635,0.9725672,-0.033896435,-0.3977931,0.64552474,-0.7353188,0.32200515,0.42097375,-0.5257521,-0.9518567,0.9306,0.2571665,0.74634284,-0.7956196,0.13840474,0.76397544,0.4563444,0.028772749,-0.26214793,-0.49057168,0.96541166,0.4198355,-0.6126954,0.78767014,-0.8722022,0.44521362,0.30542383,0.591853,0.7194154,0.16640702,-0.27237266,-0.19272688,-0.15892239,0.065658435,-0.50178146,0.044305563,-0.53101975,-0.958367,0.195744,-0.5413759,-0.60648286,0.024454994,-0.35002747,-0.49337298,0.5284392,0.63629675,0.5723779,-0.49347186,-0.2963375,-0.2745832,-0.20122246,0.51684386,0.9638659,-0.59613734,-0.076002724,0.068675935,-0.9751422,0.15416613,0.36163566,-0.22734548,-0.6761002,0.9405013,0.78276676,-0.07343734,0.942876,0.32655463,0.8762187,-0.8386288,-0.53798926,0.97152054,-0.33775073,-0.13741162,-0.015045262,0.93704766,-0.09081454,0.4710235,-0.62809116,0.9501775,-0.5110976,0.6786319,0.055582426,-0.9583153,0.64136076,-0.79729635,0.011655989,-0.5126823,0.01635207,-0.092925526,0.9721942,0.8261852,-0.54528433,0.26648772,-0.70060295,0.18851772,-0.16833512,-0.60757357,-0.153978,0.5526503,-0.83232695,0.9145221,-0.99758524,-0.39389274,-0.0586652,0.8348342,0.01081971,-0.5472889,0.7545225,0.44153467,-0.4050407,-0.6124785,0.4712445,0.9307299,-0.47517946,-0.48820418,0.0032829484,-0.43446293,-0.7127772,0.44640914,0.26207244,0.48416087,0.0068003936,0.8205726,-0.7616182,-0.93375874,0.8225293,0.18069772,-0.97807205,-0.37244052,0.11524271,-0.9533092,-0.095267676,-0.7409913,-0.0860958,-0.61587846,0.41741997,0.49076986,-0.833521,-0.33400396,0.7276179,-0.694988,-0.08222442,-0.16790003,0.29452035,-0.502437,0.46716645,-0.6577447,-0.31222594,-0.5718172,0.34053653,0.19895668,0.44891804,0.46875936,0.41378936,-0.8267381,-0.6982749,0.22657098,0.029798001,0.17239088,0.2662119,-0.6894019,-0.8149649,-0.55935776,0.9151667,-0.6930685,0.8514317,-0.81361204,0.073639885,0.20082642,0.8725816,0.14966495,-0.8695904,0.20683688,0.2504098,-0.9551096,0.36575568,-0.5750408,-0.0010793078,-0.4824444,0.22412461,0.566208,-0.2919538,-0.029709067,0.18155152,0.32349735,-0.026692936,0.52220756,-0.12033229,0.8785268,0.39089343,0.27664158,-0.052219763,-0.92554784,-0.043977294,-0.83425325,0.67404777,0.21221334,-0.20602313,-0.63459784,0.954986,-0.34422696,0.21652023,0.80286384,0.79217416,0.3064867,-0.4765964,-0.046293933,-0.790225,0.2660474,-0.22878245,0.0017341381,0.35621515,0.9869339,0.50615966,0.45679653,0.6596089,-0.8052517,0.54666275,0.6870271,-0.36645266,-0.70200413,0.14000154,-0.12679236,-0.80108213,0.4094387,-0.35920632,-0.5614864,0.95579696,-0.2962758,0.40472394,0.6704531,0.41068375,-0.40203783,0.5583495,-0.5533901,0.10093551,0.967057,-0.8982136,-0.033948667,0.10157173,-0.2478965,0.47358954,0.90134704,0.5322565,0.9366488,0.76804185,-1.000656,0.86727834,-0.6296434,0.7272605,-0.24912558,-0.3241641,0.7503067,-0.15386328,0.15521641,-0.26107675,0.060894426,0.9267427,0.72619826,0.7627921,-0.6614522,0.5345197,-0.43266535,0.18867469,0.38739467,-0.7380557,0.9506182,-0.8703321,0.5272987,-0.6947901,-0.15846117,-0.56638545,-0.5884898,-0.43304315,0.65111136,0.28374276,0.8503863,0.47769126,-0.565528,0.8940175,-0.9005313,-0.6219406,-0.80279225,-0.76756275,-0.9415802,-0.5422752,0.18551055,0.4154733,0.96341383,-0.58443683,-0.14170797,0.38403794,-0.28587517,0.59791714,-0.7187503,-0.42907673,-0.05916707,-0.049977913,-0.84559536,-0.44714984,0.9511331,0.3153786,-0.105872944,-0.90637296,-0.2581526,-0.3239982,0.80295837,-0.7398014,-0.9759695,-0.5165277,0.2003436,-0.6706785,-0.3906066,-0.3257387,-0.44539002,0.024330253,-0.82080406,-0.15961966,-0.6965729,0.49003664,0.504556,0.30080348,0.85352236,0.103389986,-0.83242553,-0.78337055,0.63091904,-0.0355298,-0.7093876,0.2874108,-0.117514335,0.7773854,-0.57354087,0.3600063,-0.6009573,0.3543551,0.4655101,0.09485231,0.49283406,0.6964655,-0.50699127,0.04875911,-0.19384614,-0.80980766,0.35308304,0.6525468,0.468784,0.7734901,-0.53216267,-0.073413186,0.156238,0.41298938,-0.23083515,0.39240262,-0.25615588,-0.07857353,-0.45872635,0.71155983,-0.65724975,0.21473481,0.46119,-0.42866597,0.22206897,-0.56037486,-0.41884902,0.013076959,-0.4376016,0.4334727,0.021162087,-0.904888,-0.058101546,-0.70474845,0.4971984,-0.34317702,-0.32132724,-0.42317364,-1.003737,-0.4896627,0.38355923,0.5345678,0.748472,-0.45165733,-0.0032862239,-0.44828627,-0.16177258,0.9327355,0.66392064,-0.5213337,0.85305375,-0.49915418,0.1457813,-0.570085,0.7014164,-0.8235939,-0.58300674,0.16582513,0.17765896,-0.6625374,-0.88455766,0.019564455,0.5357912,-0.53993076,0.81861883,0.15468219,0.26773176,0.048075,-0.024335343,0.43923536,0.40366733,-0.32442474,-0.39208752,-0.54869044,-0.91699725,-0.44492328,-0.42307207,-0.98279345,-0.520293,-0.11340379,-0.2659734,-0.20576164,0.07058467,0.9439443,0.58928293,-0.9281301,-0.36664596,-0.9280756,0.4278741,-0.8774011,-0.30304646,0.112927265,0.7152704,-0.52212083,0.60262424,-0.106059566,-0.7481873,0.97338367,0.6786847,-0.70060974,-0.78649837,0.84428513,-0.60220915,0.50652456,-0.96721494,0.29995653,0.9029413,-0.56192327,0.30203053,0.9453335,0.39785293,-0.53902596,0.69686365,0.38605815,0.60006016,0.3480485,-0.31960827,-0.9632946,-0.33860165,-0.8204246,-0.84107643,0.73986244,0.78005624,-0.328291,-0.55757606,-0.56730425,0.748279,-0.3059176,-0.46379992,0.33491975,0.590766,-0.2909248,0.4994319,-1.0096962,-0.5100561,-0.13445482,-0.16618331,-0.7352196,-0.80661184,-0.34935617,0.69345254,-0.6099464,-0.31634912,0.49178275,-0.028617352,-0.53747207,0.39035323,0.3504202,-0.8481232,0.2838478,-0.978903,-0.8065274,-0.4758943,0.26508072,0.08731843,-0.39700934,-0.6061901,0.19919553,0.4274951,0.91769964,0.7209742,-0.49638557,0.36693162,-0.48664576,-0.09375813,-0.14026448,-0.8471282,-0.14477454,0.37248975,-0.39302412,-0.8352629,0.5514217,-0.8409978,0.31990138,-0.9770678,0.19556418,-0.695824,0.2090042,-0.65426415,0.86889327,0.96863216,-0.79720616,-0.62816924,0.40691003,-0.97282064,-0.18719822,-0.22398728,-0.5764348,0.97322,-0.4317767,-0.13857736,-0.09267695,0.4388978,0.25758827,-0.39949653,-0.09154096,0.23311678,-0.43871412,0.22975601,0.44674772,0.76196396,-0.0059719305,0.3564583,-0.19784927,0.076263964,-0.71810156,0.019105105,0.18800093,0.5278046,-0.6149446,-1.0030512,0.9241912,-0.9054035,-0.3614747,-0.22204542,-0.98827803,-0.6676252,-0.9392124,0.97478557,-0.26402184,-0.94415694,-0.094977714,-0.42204234,0.5732058,0.87725425,0.67377406,0.6763202,0.9243558,0.7586085,0.032642875,-0.109726265,-0.546774,-0.8488159,-0.40293917,-0.72553694,-0.5998039,0.43916067,0.060978465,0.8865176,0.4751837,0.45681942,-0.37306938,0.95728475,-0.20480219,-0.5224481,-0.7906226,0.62556237,0.6029049,0.37141046,-0.9899252,0.53587484,0.76554257,0.13625002,-0.08796521,0.85562426,-0.8141959,0.96360695,-0.4303736,0.6750083,0.57927716,-0.6515307,0.866251,0.3008677,-0.028432239,-0.65182686,-0.26610303,-1.0040171,0.8111454,-0.6146406,0.87327194,0.23887278,0.25660846,0.9832513,0.82865644,0.9835735,-0.77843094,0.06190855,-0.1563568,0.27969036,0.523046,0.71920484,0.2289618,0.5288494,-0.95558727,-0.73594904,-0.061526123,-0.8126843,0.18087442,-0.48622236,0.4977066,0.15623045,0.4920492,0.17752358,0.5055641,-0.60037345,-0.5281752,0.5265077,-0.01607091,-0.65732247,-0.7805581,0.9820587,-0.03858036,-0.69907653,-0.11338741,0.02623774,-0.024479156,0.71557444,-0.09289313,0.8579359,-0.9676235,0.562219,0.4763161,-0.5901057,-0.01793572,-0.6848225,-0.04633108,-0.5129698,-1.0096091,0.8452297,-0.5522761,-0.6611479,-0.049445804,-0.1352779,-0.17232719,-0.75937605,0.8983705,-0.18781212,0.24047206,-0.6146557,0.14957203,-0.46581268,-0.3703661,0.6446067,-0.0014202041,0.5912681,-0.35067624,0.6007241,-0.53741646,0.38945854,-0.17302932,0.9820212,0.84750265,-0.4145436,-0.85592973,0.30058765,0.5168108,0.9173971,0.5168913,-0.5672498,0.06469204,-0.4718801,0.43788716,0.13858879,-0.63535064,-0.8545629,-0.6824154,0.89453703,-0.9907708,0.14314336,0.66479206,-0.7421008,0.57570773,-0.62036353,0.48640192,-0.90522796,0.45834887,-0.9652146,0.8179968,-0.9410392,0.72479016,0.33481783,0.38855278,-0.28541952,0.11323725,-0.54740834,0.54679525,-0.5225809,0.85985655,-0.9169771,0.2797342,0.62531996,-0.904315,0.12323557,-0.9835152,0.6985102,-0.982156,-0.3850359,-0.7798277,0.06832065,0.6107723,-0.24652761,-0.93725926,-0.42471635,0.3697169,0.38986805,0.62268674,-0.030016096,0.6404804,0.26741302,-0.77440464,0.85097843,-0.38936132,0.9621311,-0.42065853,-0.0052931923,0.6095054,0.3630534,0.4133873,-0.91575813,0.54196733,-0.55752665,0.6710437,-0.65389585,0.11930951,0.5777509,0.6283575,-0.96521145,-0.86697483,-0.051598564,0.41570663,-0.24736586,0.85557777,-0.29127184,0.16285215,0.43678558,-0.056509573,0.9215034,0.729505,0.6099949,0.09127205,0.90460616,-0.04065576,0.34994468,-0.9652227,0.5769917,-0.3815384,0.7511749,0.31415448,-0.89298,0.0045184577,-0.9351285,-0.6157051,-0.6928793,-0.8661771,0.7297503,-0.99230367,-0.40297925,-0.48000547,0.32537487,-1.0115762,0.3067129,0.8397332,0.32140118,-0.69090813,0.07067588,0.93238425,0.7945425,-0.6861318,0.8019574,0.29879373,-0.026674546,0.5055775,-0.61009514,0.81381184,0.21272281,-0.2298433,0.23025261,0.75622416,0.6008705,-0.12090553,0.98404306,0.9236929,-0.186684,-0.5482748,-0.12314391,0.36412296,0.24903247,-0.4319955,0.1658977,0.71631163,0.7910491,0.473191,-0.8255396,-0.9152661,-0.49228725,-0.50848025,-0.65415096,0.7920106,-0.05191606,0.41094384,-0.0056702914,0.115563266,0.95882773,0.9119703,0.09135432,-0.15476578,0.11840141,0.5646525,0.38956487,0.3378758,0.46625304,-0.5869995,-0.24108772,-0.90870136,0.88536197,-0.8020564,0.4267243,0.028854968,-0.6510435,-0.2570229,-0.6273258,0.6757433,0.9516945,-0.32433623,0.35444212,-0.52349037,0.51102835,0.3098906,-0.59179705,0.7336163,0.65088475,0.32517737,0.9325043,-0.3177807,0.4972498,-0.9098252,-0.7086092,-0.3794982,-0.14308167,-0.35136917,0.035882257,-0.3137553,-0.37262997,0.2876625,-0.16236417,0.53823465,0.28651413,0.68540937,0.6988703,-0.4044494,0.75483584,-0.94285405,-0.33851963,-0.4657746,-0.9598318,-0.100147024,0.015644275,-0.09201365,0.83693594,0.9462101,0.07269209,0.5991056,-0.022383267,0.37765098,0.8609119,0.018568572,0.07160169,0.2446727,0.5502813,-0.12552437,-0.50578284,0.62576866,-0.6181408,-0.76428235,0.53026277,-0.14103071,-0.8567403,0.7066354,0.2424832,-0.46677154,-0.73976713,0.83431214,-0.16847916,0.09601613,-0.019634336,-0.7329357,0.5657419,0.7131237,-0.6565768,-0.160341,-0.6930917,0.5864581,-0.059677526,-0.78922355,0.018194614,0.45944744,-0.1390734,0.68828034,0.84094316,-0.09811589,0.520833,0.71730345,0.85838944,0.17782079,0.53615427,0.04564825,-0.5075723,0.69451433,0.7093591,-0.5885662,-0.39410558,-0.28609043,-0.09818802,-0.21745539,0.043468405,0.697696,-0.3612994,-0.62911713,-0.56882674,-0.817385,-1.0100693,0.45568678,-0.7817241,0.95249224,-0.3890991,-0.9306664,-0.8250667,-0.3116984,0.14280356,0.89701664,-0.3918679,0.23225994,-0.17869315,0.6025988,0.10773151,0.59781176,-0.6542835,0.2659587,0.15726247,0.37237018,-0.23033223,-0.24495524,0.38066167,0.6281441,-0.58293617,0.24753866,0.49312243,-0.43794543,0.1413532,-0.055589736,-0.6499175,-0.9543782,-0.04271051,-0.35564303,-0.55810446,-0.2222746,-0.34766605,-0.67762524,0.5019256,0.05335003,0.57378525,-0.35825345,0.54393905,-0.9367393,0.8912136,-0.35059032,-0.44427454,-0.07341813,-0.48732835,-0.31127936,-0.46912342,0.5951645,0.16443819,0.7570646,-0.75632095,-0.7749708,0.053677525,0.7384077,-0.75126654,0.67681736,-0.38980737,-0.052790783,0.11149053,-0.5407597,-0.0073971823,0.016186606,0.22990476,-0.40237403,-0.39418045,-0.9857603,0.49245057,0.50573605,-0.3658542,0.58665234,-0.72163504,-0.26735488,-0.97544396,-0.39126918,-1.0071886,0.76545995,-0.8222902,0.85433817,0.16576597,0.69379747,0.26560462,-0.20466897,-0.30432487,-0.84029686,-0.8967701,0.8790983,0.94021666,-0.5960994,0.050788663,-0.9524924,-0.32501104,0.37945086,0.6928339,-0.068295114,-0.6972584,0.84314656,-0.6886784,-0.07978084,0.7878868,-0.27578542,-0.8958668,-0.31290278,-0.3928347,0.6883849,0.8456717,0.41495755,0.6658996,-0.85502166,-0.3795269,-0.5793651,-0.9139074,-0.91253954,-0.97201127,0.85130525,-0.9105244,0.53659934,0.57145715,-0.37060004,-0.5180905,0.27843246,0.54277873,-0.63871634,-0.8417044,-0.2235201,0.2761805,-0.7157969,-0.9192166,0.05923795,-0.29471362,-0.77969337,0.3760426,0.46181887,-0.45457032,0.5565185,-0.28498474,0.2796694,-0.18492016,0.16108392,-0.5953673,-0.72651887,-0.48633608,-0.9287776,-0.6365033,0.98137194,-0.8036072,-0.077736706,0.5811504,-0.14700873,-0.3545416,0.66069984,0.15013841,0.26451886,-0.6239207,0.022548253,0.4806935,0.41831464,-0.9188215,-0.1487269,0.71885884,0.02824714,-0.6025648,-0.57289267,0.32302275,0.49770853,0.71562564,0.5239685,-0.8780507,-0.20879975,0.06275105,0.96849537,-0.8688271,-0.11556896,-0.48841825,-0.76021814,-0.35382792,0.97557,-1.0001645,-0.88758856,-0.8063855,-0.15542257,-0.70423675,-0.40337572,-0.36170506,-0.9251236,-0.6389,0.14460963,0.33053625,-0.79737294,0.39785716,-0.70164055,-0.9976722,-0.027025089,0.46866086,-0.9232356,0.526954,0.35240364,-0.27938342,-0.5192626,-0.9605286,-0.7093886,-0.6836619,-0.017586123,0.15596694,0.00583742,-0.57811004,0.7611387,-0.090056576,-0.15357335,-0.5265838,-0.2178624,-0.59039545,0.59756476,0.62542,-0.14766373,0.7132425,0.41824758,0.90181375,0.8331044,0.9343363,-0.3876118,0.90060735,0.45904902,0.7702691,0.97423196,-0.45533684,-0.66874325,0.78884715,-0.9756557,-0.03527401,-0.2529379,-0.7146237,0.36210424,-0.46427655,-0.07861577,0.5289145,0.741894,-0.69752544,-0.43332654,-0.92101187,0.57889575,0.24189387,0.7377155,-0.04580876,0.12679766,-0.028964033,0.09445749,-0.22965905,-0.77587414,-0.43927693,-0.99720126,0.040461276,0.7457956,0.5180661,0.10245753,0.82584196,-0.08899561,0.74800366,-0.82469624,0.44978455,0.34761643,-0.62587523,0.85307,-0.3909543,-0.25269082,0.15963894,-0.18890132,-0.31334162,-0.707864,-0.37460393,-0.02868596,-0.8213132,0.66139215,0.47323883,0.61384565,0.5112916,0.19291948,-0.091529995,-0.07345916,-0.3934332,-0.11593855,-0.115733095,-0.21522523,0.9044532,-0.8069719,-0.36151147,-0.72220427,0.7735203,-0.14757967,-0.32769156,-0.66025674,0.062147994,-0.93624765,0.8548011,-0.4760569,-0.5558492,-0.81915355,0.98203856,-0.5097643,-0.77633107,-0.57093716,-0.33264685,0.012641701,-0.20622471,-0.89885134,-0.4331277,-0.36428177,-0.61416495,0.93588686,-0.47388434,-0.49099955,-0.9769284,0.7133011,-0.82281893,0.8841274,0.91548866,0.42723733,-0.43153894,0.497301,0.6708302,-0.81606823,-0.69428575,0.77856064,0.4317455,-0.38219953,-0.7457233,-0.32522708,0.6494883,0.84648293,-0.18851388,-0.43824378,-0.67613864,-0.38730964,0.75091136,-0.93613446,-0.61835283,0.6925003,-0.13036104,0.52572674,-0.30995622,0.85290694,-0.4450494,-0.66518736,-0.42211407,-0.8171505,-0.94698346,0.74064004,-0.33787483,-0.91477597,0.5640396,-0.8688053,-0.09647941,0.15241452,0.25691772,-0.9666164,-0.85113686,0.3707107,0.3455536,0.9672215,-0.3061736,-0.56668144,0.7967709,-0.4721406,-0.026224438,-0.7972929,0.324847,-0.9676723,0.5891565,-0.73308396,-0.8903858,-0.2863144,0.71229374,-0.8689755,-0.23392251,0.08748573,-0.36473405,0.5993525,0.6979489,-0.71147,-0.9465503,0.145269,-0.007194962,-0.14446904,-0.05049129,-0.5803943,0.67848784,-0.00848167,-0.6508188,0.32923004,0.3259373,0.39542332,0.43277493,-0.7836454,0.06947254,0.2702594,0.935569,0.22297554,-0.4378017,-0.4429889,0.5528178,-0.21059126,0.04121462,-0.37362075,0.7498619,0.7414779,0.8046073,-0.57727474,-0.06561003,-0.7971612,0.3928191,0.83102524,0.14775653,-0.4255656,0.023038104,-0.95038587,0.58059406,0.07531051,0.17975204,0.054091983,0.8951667,-0.84450424,-0.19797942,0.7104548,0.21573673,0.7890619,0.82248044,-0.96859276,0.44602054,0.41631556,0.3540113,0.9546959,-0.20925686,0.9411224,0.9256101,-0.6115388,0.58699054,-0.28632307,-0.0002810716,-0.60370266,-0.6916373,-0.6362054,-0.90371805,0.4948229,-0.8365199,0.7727169,-1.0036066,0.31788504,-0.84797895,-0.2694303,-0.06561577,0.55027586,0.958356,-0.3911668,-0.45226085,-0.96689534,-0.24383144,0.52858484,-0.19792506,0.10197645,-0.47080278,-0.29235944,0.7540593,-0.7413143,0.73322016,0.29971358,-0.7835782,-0.24140339,0.31963617,-0.29016137,-0.8842311,-0.41890198,-0.21036626,-0.8455052,0.37913457,-0.9072853,-0.3835281,0.75990736,0.3876113,-0.638582,0.47400153,0.70758706,0.44616622,0.39787897,-0.97613907,-0.82892853,-0.06907567,0.8116315,-0.34596,0.8146896,0.11907896,-0.09686848,-0.08345068,0.7812395,-0.8837556,-0.008526744,0.07051038,0.83509696,0.26347795,0.24588789,0.14304383,0.20141129,0.3801487,-0.7888522,0.11327435,0.09654952,0.0149973845,0.80828077,-0.17377035,-0.80690175,-0.90473986,-0.97019106,0.71026844,-0.91306365,-0.840186,-0.32219768,-0.49017647,-0.1275379,0.836582,0.62014866,-0.3367237,-0.513645,0.7351779,0.12358863,0.25101748,0.37262633,-0.5397209,-0.64018285,0.35580915,-0.18226573,0.78049016,0.74335116,0.24791363,-0.70745385,0.3435781,-0.8735078,-0.7027223,-0.9104619,0.79357857,-0.26687312,0.93963987,0.43020594,0.60477275,-0.09491175,-0.60878855,-0.73941386,-0.020533243,-0.020116836,-0.9273331,-0.7481772,-0.4768875,-0.5589992,-0.43292066,-0.50681496,-0.071541294,0.35485098,-0.30844486,0.7092414,0.031081917,0.0013917774,-0.6730245,-0.852488,-0.6467913,0.4790685,0.54020494,0.80222636,-0.9784129,0.55151105,0.11998027,-0.05273246,-0.9839014,-0.7736683,-0.91313577,-0.48505735,0.34847295,0.8444656,0.487188,0.93512875,0.8905181,0.13422959,-0.25298864,-0.43970358,-0.25632522,0.17514002,-0.9069302,-0.89526176,0.8580385,0.21432759,0.665274,0.63740575,-0.40599802,0.48501247,0.9867203,0.51190025,0.6749731,-0.61614615,0.23831192,0.94083184,0.08369291,0.94638133,-0.36477536,0.43078947,0.5291221,0.014720707,0.58353955,-0.059880946,0.12895584,-0.5347156,0.32281092,-0.072362304,0.74290913,0.8384127,0.7374796,-0.32524323,-0.86266863,-0.64788204,-0.44312087,-0.24849425,-0.20726183,-0.24798205,0.5513342,-0.82520413,0.043193463,-0.344495,-0.629546,0.8066751,0.6803617,0.49510926,0.064087674,-0.007765181,0.92757446,-0.5714954,-0.9469922,0.60716087,0.8397655,-0.06651879,0.12501502,-0.13770387,-0.24770564,0.9010487,-0.37534782,-0.5507754,0.54959095,-0.37935713,0.5335,-0.87249744,0.3636266,0.04197019,0.14432845,0.8877079,-0.6739722,0.78088397,0.65995365,-0.45346954,0.68533194,-0.8511252,-0.5293232,-0.56832993,-0.19742146,-0.6027845,-0.43172264,-0.97766113,0.35390902,-0.70166665,-0.22482099,0.056297544,-0.17766793,0.7277452,0.47133878,0.43604398,-0.67830795,0.6514123,0.058141917,-0.28617015,0.25873253,0.25450546,0.7969432,-0.72866726,0.85949486,0.22911976,-0.79444057,0.60223573,0.6874589,-0.7517204,0.62052035,-0.84701866,-0.06025047,0.31694356,0.017214604,0.91228443,0.20347205,-0.55686474,-0.8557744,-0.61859024,0.72459435,-0.84758514,-0.94410694,-0.37436688,0.10891719,0.044185556,0.54468644,0.41702405,-0.80714375,0.500538,-0.11228214,-0.12901394,-0.9750255,-0.93541294,-0.85507405,0.6139094,-0.49825466,0.21044855,-0.28508288,0.62061137,-0.3123157,0.41404632,0.0037667071,-0.85189897,-0.47489148,0.17424695,-0.56582046,0.8052829,-0.6125743,0.9446274,-0.83912134,-0.06069381,0.27599162,0.4634523,-0.9104372,0.9111877,0.8100941,-0.04790236,0.8013687,-0.48790735,0.69993204,0.5232005,-0.66219485,-0.8942969,0.6728506,0.4077983,-0.8355164,-0.5338549,-0.62604976,-0.90043217,-0.6557648,-0.7804547,0.96505195,-0.066815406,-0.85327595,0.72523826,0.3010292,0.6165158,-0.82573724,0.80322105,-0.4023078,0.1642255,-0.9238198,-0.89191276,-0.387129,0.8276219,0.07618305,0.85905445,0.39379275,0.70588404,0.7958602,0.69803256,-0.7861978,0.29896003,0.63057333,0.6630101,0.56324697,-0.22833663,-0.54661435,-0.53134656,0.40811303,0.89809155,-0.84520566,-0.6012416,0.2841072,-0.3565649,-0.07709403,0.13062175,0.26367852,0.32805413,-0.49070626,0.94792247,0.7357966,-0.7164637,0.4737204,0.6043161,0.49223346,0.5397049,0.009719901,0.746106,0.9432031,-0.77155507,-0.95032066,0.92998946,0.52457416,0.7222767,-0.32898167,-0.6119352,0.7421241,0.83384115,-0.10869485,0.23722556,0.19852069,-0.7234283,0.58801126,0.8625699,-0.32416365,-0.94863,-0.3249884,0.3890908,0.21102902,-0.24048242,0.22943425,-0.8802542,0.87750024,-0.8568399,0.57812494,0.8626074,0.8665437,0.98617727,0.05405482,0.019372877,0.41617715,-0.96139246,0.066314146,0.6879475,0.35701197,-0.3345174,0.05418558,-0.7572126,0.74142087,0.3206562,-0.34945983,-0.31458217,-0.07195754,0.09728086,0.49793643,-0.30069122,0.33216572,0.047005303,0.14208645,0.22473186,-0.42036745,-0.94502556,0.61801296,-0.8408245,-0.37462494,0.21864869,0.9497973,0.21543579,0.51966363,-0.78982055,-0.22399665,-0.59948283,0.71531576,0.8586045,0.11302191,-0.6726986,-0.5156118,-0.011775921,-0.39710346,-0.6220409,-0.37016392,0.053395674,-0.59475344,-0.079262316,0.36579362,0.97972894,0.56296355,-1.0006229,-0.4985292,-0.4414314,0.6028599,-0.49731135,0.52829677,-0.62691104,0.45406738,-0.24517012,-0.6792064,-0.03865199,0.9846673,0.37407157,0.15388553,0.41470268,0.4949423,0.5395115,0.27129444,0.5819774,-0.9753641,-0.22631617,-0.31219357,-0.68932533,-0.09097723,-0.012562193,0.45409495,-0.88554794,-0.1942725,-0.7775441,0.53418195,-0.08153021,-0.53438926,-0.61558664,0.17660177,0.24453302,-0.8393962,0.19161043,-0.96685284,0.21766001,0.7141205,-0.4624309,-0.1331269,0.2535008,0.07714343,-0.88668096,-0.3568866,-0.036276177,0.5612027,0.76372653,-0.17390302,-0.34463593,-0.89311767,0.36414123,0.8131085,-0.91871375,0.002948603,-0.0024304285,0.4656522,0.5453312,0.19847952,-0.48099858,0.6272288,-0.35304368,0.27768126,0.9231805,0.925004,-0.5208546,-0.042143676,0.86818904,0.515455,0.23539965,0.008892792,0.14771953,-0.14267564,0.8096456,0.57975316,0.26594865,0.7543574,0.6322451,0.68321824,-0.35954216,0.08644301,0.8817703,-0.311284,-0.41755405,-0.2652046,-0.9495191,0.7843619,-0.3393149,0.20665726,-0.030933777,-0.58693516,-0.5901101,-0.16540708,-0.54444444,0.35661116,0.877492,0.3278627,-0.6001379,0.90136707,0.1325551,0.38757625,0.93351877,0.056393124,0.7140843,-0.8072375,0.13504924,0.7940964,-0.7826307,-0.45827833,-0.20116843,-0.039582703,-0.5970156,-0.71384764,0.17471413,-0.63154805,-0.7191942,-0.96395516,0.44087425,-0.6851385,-1.0018456,-0.46970606,0.18519337,-0.28237563,-0.84810585,-0.5782544,-0.19571266,-0.7395551,-0.92069006,-0.13865909,0.5708058,-0.33682418,-0.23528597,0.34709814,-0.5254087,-0.053680327,0.33894932,-0.14969881,-0.20068705,-0.99211544,0.32514974,0.75207967,-0.26263845,-0.22745621,-0.9805582,-0.5379807,-0.9024607,0.77978724,-0.68535775,0.17192811,-0.1403019,-0.14487499,0.11237011,-0.7142653,-0.2626752,-0.28303108,-0.70619905,-1.0105044,0.27949682,-0.08840153,-0.7780862,0.5755067,-0.53229046,0.7469771,0.43711874,0.28952253,0.021283053,0.24986042,-0.18664655,0.5325971,-0.8625,-0.2820476,0.4960035,0.8457661,0.2809404,-0.5583314,-0.5861084,0.43141106,0.2919753,-0.4387453,-0.91701895,-0.36275148,-0.29140422,-0.9794853,-0.24844861,0.6286397,0.21558645,-0.5361323,-0.60465205,0.50452757,0.5279304,0.26704848,0.047105655,-0.46274894,0.7453529,0.7517598,-0.33830807,0.9187032,0.14538366,0.9569206,0.117615014,0.12540571,-0.9910469,0.6872522,-0.5084441,0.17129436,-0.9205257,0.9016651,0.9402697,0.30020657,0.6033207,0.34568664,0.5919175,0.94064224,-0.42146078,0.6754972,-0.49496174,-0.5884571,-0.028841453,-0.26445842,-0.8683721,0.51006603,0.62505347,-0.79276067,0.03845326,0.31509265,-0.1528482,-0.8661595,0.8215216,0.5325658,0.8620329,-0.83443475,-0.22503379,-0.83346045,0.6880668,-0.36470497,-0.26883242,0.9827942,0.49989322,0.5555352,0.2876049,0.59987015,-0.25884345,-0.37618497,0.9782893,-0.859144,-0.8672164,0.8250099,0.17279579,-0.38027072,0.479231,0.7925461,-0.52921927,0.46786764,-0.83011883,0.47460458,-0.8891852,-0.05299147,0.2883141,-0.93785477,-0.32540944,0.8628174,-0.6167959,-0.37917686,0.2588483,0.91951674,-0.66904056,-0.45979267,0.012968636,0.29534116,0.017603045,0.46626744,-0.54203767,-0.2548582,-0.66516167,0.8703129,-0.5922742,0.70684564,-0.99357116,0.030142304,0.3518937,0.63967246,0.7863898,0.26150876,-0.9549981,0.67086285,-0.9567814,-0.44996253,0.28814077,0.41829053,-0.9058943,-0.05622357,-0.52460974,-0.108955674,0.8505749,-0.3817226,-0.76663035,0.088432014,0.91080755,0.87172735,0.75256723,-0.9755564,0.4234961,-0.36598906,0.37030122,0.04754333,0.7661595,-0.59000087,-0.92267674,-0.39587122,0.3211627,-1.003383,0.5210994,0.14374362,0.4947481,-0.019632855,0.0180833,0.15589024,0.64862305,0.91740984,0.5418798,0.23802298,0.42991105,0.9229536,-0.82302386,0.6679727,0.6237378,-0.3228164,-0.7271795,-0.36392963,-0.2503263,-0.030270873,-0.37998652,0.61667114,-0.38063496,0.8757959,0.47596613,-0.79953295,-0.44186047,0.48611572,-0.2725259,0.17239535,-0.040471498,0.79373497,0.21912208,-0.07076293,-0.54913974,0.6095509,-0.1641233,-0.70933974,0.1056324,-0.42792955,-0.20742348,-0.99387753,0.7099414,-0.33670065,0.41168398,0.3107836,0.94066024,-0.5352134,-0.28679487,0.1642929,0.40001228,0.49915534,0.5222555,-0.26661372,-0.105057396,0.97413945,0.9825542,0.9883094,0.40161306,-0.006467079,-0.5702934,0.45911095,-0.59475183,0.5175843,-0.024586743,0.8795993,-0.45683417,-0.771544,0.68984485,0.4490535,0.71202064,-0.00792552,-0.5706727,-0.75179535,-0.55555505,0.67670405,0.49471903,0.7626308,0.3634661,-0.07775302,0.29275352,0.76429784,-0.6947867,-0.9865443,-0.8610371,-0.83198875,-0.7938061,-0.13584049,0.018543664,0.8036618,0.63137317,-0.8372402,-0.676108,0.27788994,-0.10652292,-0.81267357,-0.18181758,-0.5815581,0.19581634,-0.92274487,0.3162303,-0.76325226,-0.26187178,-0.12776826,-0.47034523,0.8347765,0.086508974,0.94532174,0.27122363,0.39240658,-0.7139266,-0.32159197,-0.8472087,-0.856005,0.049161226,0.38307106,-0.5284809,-0.7874453,-0.9891302,0.26487997,0.5815856,0.11212237,-0.7800679,0.1513488,0.9325501,0.6702351,-0.88720316,0.54025835,0.60476065,-0.1444934,0.2239804,-0.85862553,-0.40664455,0.31955045,-0.32448122,0.6361291,-0.7496575,-0.0077949865,-0.8021572,-0.5650028,0.5423646,0.049279902,0.25798163,0.26210618,-0.8862664,0.89865816,-0.8022682,-0.3022902,-0.56789666,-0.77489734,-0.9928317,0.68748164,0.50261545,0.5257067,-0.63329196,0.5830998,-0.30168092,-0.058568526,0.30413806,-0.4032995,-0.0051180106,0.3613237,0.9340643,0.9360095,-0.26571906,-0.47508878,-0.3013467,-0.947875,0.7937962,-0.1712215,-0.1861757,-0.70655763,-0.49113986,-0.3951348,0.48661822,-0.0906997,-0.26343527,0.8131198,0.8955268,-0.60110843,0.22481683,-0.42140582,-0.13514265,0.1141406,-0.22687468,0.97855115,-0.34513003,-0.37311536,-0.20356227,0.9272739,-0.30889112,0.10792271,-0.21609317,-0.7062603,0.24724178,0.93613875,-0.41931638,0.36313298,-0.4559479,-0.29762322,-0.33264738,0.9123358,0.00081072014,-0.2839414,0.2959565,0.13887769,-0.47146028,-0.021689437,-0.26126382,-0.24584062,0.32000113,-0.49625805,0.16590676,0.1650131,0.215022,0.5368327,-0.4530725,0.5324889,0.7061795,0.44592008,0.04663938,0.9491839,0.62019557,-0.5704287,-0.89872813,-0.76658064,0.8622895,0.10174376,0.789578,0.9437598,-0.3496144,-0.65820247,-0.3685837,-0.3255284,0.3469951,0.44314173,-0.77423394,0.016897831,0.47374326,0.14316566,-0.8932885,-0.4095079,0.5847314,-0.92488277,-0.25998098,-0.8479329,-0.3514022,0.91990083,-0.1907569,-0.45651543,0.052921686,-0.008134324,-0.60021895,0.32415047,-0.5181964,-0.1926208,0.155985,-0.6667789,0.89199394,-1.0004672,0.28907236,0.8087252,0.21547773,0.33559823,-0.10891612,0.6083916,-0.18329988,-0.9234388,0.20333621,-0.31459928,-0.1502842,0.60912627,-0.37644026,-0.3285905,-0.698487,0.8318934,0.67337805,-0.7484487,-0.14265968,-0.084515214,-0.23116484,-0.3015738,0.9434908,-0.327056,-0.01593306,0.6121437,0.12186496,0.6919091,-0.54437757,-0.3798775,-0.6304373,-0.6857877,0.03910075,-0.07626946,-0.64423656,0.38824606,-0.79539615,0.20004997,-0.027822228,0.11523518,0.50015056,-0.37230894,0.53195894,-0.29050204,0.8037015,0.6054273,0.5301617,0.68019444,-0.77830875,-0.276392,0.429797,-0.03180678,-0.7373737,0.9495148,-0.4467273,0.0022535387,0.43131387,-0.8539268,-0.71060973,-0.026624922,0.63850063,0.555529,0.6801005,-0.721964,-0.26670897,-0.36550143,0.4787638,0.7733296,0.83419913,0.6312225,0.4693819,-0.38398394,-0.40000257,-0.47211063,0.6703044,-0.7802086,0.93650407,-0.19852333,-0.4882402,-0.51013803,0.48107788,-0.14616166,-0.7409749,0.25662583,-0.29986468,-0.7951692,-0.5710535,0.82073265,-0.52862436,0.13379996,0.48126823,-0.3270113,-0.00415719,0.509947,-0.97898084,0.27262604,-0.85730714,0.81959987,0.3769415,0.6191161,0.7226419,0.5846793,-0.032770693,0.6042374,0.14744654,0.33626103,-0.11857274,-0.2789204,-0.83028877,0.040105704,-0.5874626,0.352174,-0.8016935,0.48923692,-0.94840026,0.6422517,0.30543274,0.7470105,0.71552753,0.95197815,0.5332321,0.73307824,-0.36524582,0.48032865,-0.6566575,0.51653963,-0.57568866,-0.49448818,0.8924654,0.94275296,0.6106586,-0.3794812,0.36872265,-0.43831134,0.30683118,-0.6184639,-0.33787227,-0.46506825,-0.8427966,0.014848731,-0.506321,-0.1456824,-0.15596315,-0.5712788,0.79826343,-0.4997351,-0.16859111,-0.66337883,-0.9137292,-0.23001534,-0.9162665,-0.8870149,-0.24721506,-0.18897381,-0.8441724,0.218231,-0.29788542,-0.054056417,-0.60316616,0.49574038,0.18519585,0.2300954,0.14199981,-0.8497118,0.42607415,0.019044295,0.8313186,-0.7459476,-0.19299829,-0.84602904,0.8300658,0.26035205,-0.78569937,-0.1646037,0.96355706,-0.0692295,-0.2595875,0.858919,0.8983283,-0.010905995,-0.9440895,0.18357882,0.41737235,0.72599405,-0.24991779,-0.8254468,0.23514073,0.16826679,-0.5008903,0.14770114,-0.63923526,-0.4732908,0.5551321,0.94431704,0.7505171,-0.8594816,-0.16280563,-0.8139143,0.25805038,-0.093638524,-0.4588626,0.45277327,-0.7031504,0.9605184,0.04137095,0.24527209,0.8716465,0.54550594,-0.29658413,0.51245046,-0.31784767,0.111614235,0.90462065,0.3526992,0.5709861,0.6815263,-0.08337343,0.5518833,0.2027587,0.31101108,-0.47903848,-0.68934244,-0.19741654,0.11801303,0.29215178,-0.9240948,0.40010148,-0.6207973,0.1180094,-0.22089174,0.6202164,-0.7891796,-0.5172513,-0.96430844,0.78805,0.29128757,0.4166385,0.83810854,-0.061522316,0.56477106,0.29093295,0.83859545,0.099434584,-0.16283429,-0.33236814,0.3583288,0.34051454,-0.6855091,0.73728913,0.516251,-0.62263817,0.4370265,-0.2939166,-0.5789509,0.1825604,0.1094598,0.3230023,-0.9906429,-0.0020356379,-0.2287335,0.795029,-0.3232508,0.14660516,0.96622634,-0.6706514,-0.7454668,-0.45229995,0.93818516,-0.22968927,-0.6765512,0.92088044,0.18670696,0.77734387,-0.04727572,-0.20647952,-0.71034193,0.8759458,-0.21871167,-0.48022005,0.98355895,0.075582914,-0.3411907,-0.60532266,0.77136666,0.42603272,-0.8795002,-0.10248518,-0.9838384,0.8232863,-0.06489482,0.6281017,0.5343451,-0.68122894,0.21777816,0.58946925,0.32046866,0.08322167,0.14238225,-0.22315682,-0.24063821,-0.6336116,0.5195008,0.6094345,-0.49254715,-0.8335119,0.2965648,0.08136356,-0.87895554,0.15801623,0.55003583,-0.80053186,-0.013378202,0.82109505,0.498571,0.7229411,0.8840431,-0.9512359,0.6443255,-0.5797344,0.4595779,-0.82657367,0.047628965,-0.25242463,-0.835635,-0.60709804,-0.89514685,0.39352027,0.18558267,-0.070237964,-0.74801636,-0.08401901,-1.0028354,-0.98690075,0.37019128,0.664155,0.61744016,-0.9142975,0.6667383,0.941776,-0.2791498,0.5276793,-0.6160084,-0.8125824,-0.20870146,-0.81829655,-0.0985006,-0.9169525,-0.1431748,-0.45246795,-0.058218315,0.22578089,-0.9944297,0.34498388,-0.66841155,0.63256663,-0.12796363,-0.616401,0.3412281,-0.7051364,0.8656703,0.8292961,-0.8646858,0.40751806,0.19300002,-0.49600706,0.72299504,0.6521794,0.05319257,-0.92947936,-0.28766605,0.29517525,0.67560035,-0.08894389,0.95756996,0.3265122,0.7393611,-0.15834327,-0.870858,0.59816796,0.06388591,0.4456838,0.7404154,-0.8111696,0.6295547,0.16270642,0.2368836,-0.7439597,0.45981294,-0.7166932,-0.6681716,-0.8596481,0.12561032,-0.5289319,-0.5490916,0.50111437,0.58224964,-0.06409957,-0.6212514,-0.055061255,0.9063956,-0.53642225,0.6473097,0.8473337,0.7167683,0.8459819,-0.6017146,0.66930026,0.41248596,0.746362,0.60812485,-0.8417399,-0.38463643,0.86237234,-0.5165281,-0.4928604,-0.78104395,0.60449964,0.47566938,0.74092215,0.5131054,0.5351169,0.088928305,0.5672562,0.2619765,0.2305136,0.6904864,0.9616939,0.32693946,-0.26823756,-0.2767712,-0.42743498,0.24526362,0.13617662,-0.04510054,-0.9322146,0.18733187,0.87530166,-0.8147542,-0.42407238,0.48470736,0.42236555,-1.0105839,0.7949122,-0.14948826,0.9689492,0.25243047,-0.24112867,-0.8061652,-0.5358794,0.7455234,-0.9504693,-0.8413116,-0.50220543,0.47978583,0.0310192,0.3932825,-0.10994927,-0.4742078,-0.69679254,-0.22924751,0.06423594,0.89569515,-0.045769498,0.4932866,0.8059468,0.84967786,-0.24450514,-0.43060863,0.5755634,0.6751748,-0.61047447,0.6247787,-0.20577534,0.7580177,0.7711587,-0.23256032,0.958369,0.73417443,-0.20184274,0.07464818,0.46263617,-0.76826054,-0.18830107,-0.7913268,0.8600498,-0.40918013,-0.7807595,0.70388347,-0.7575016,0.8663091,0.73991704,-0.3301047,-0.35291117,0.9737943,0.9234875,0.45980898,-0.031807788,-0.41351977,0.54660743,-0.07677263,-0.088629246,0.8525208,0.36389142,0.016387952,-0.65713835,-0.03594979,-0.9729426,-0.0116848685,-0.96934515,0.38030303,-0.34154263,-0.47505233,0.30739024,-0.6735176,-0.79245687,-0.43041354,0.14477487,-1.0105786,-0.0018414733,-0.5404199,-0.42056108,-0.63837516,-0.39004615,0.20820788,-0.16837984,0.28342327,0.9289116,-0.94546473,0.33348662,0.5302838,-0.85523516,0.51192886,-0.13240129,-0.47859597,-0.24763358,-0.6913799,-0.55579084,-0.50862527,-0.766433,0.021461273,-0.5443021,-0.57648444,-0.14383334,-0.9078879,-0.6191399,0.059049316,-0.049722087,-0.7808316,-0.39574236,0.004671563,-0.9608663,0.3227018,-0.5217305,0.5217073,-1.0042629,-0.54645014,-0.7233731,0.6811641,-0.52214944,-0.6564578,-0.0019065598,0.36740407,0.5863117,-0.8007681,0.16682906,-0.81979597,0.10803779,-0.26075247,-0.98101217,0.7594245,-0.28839776,0.18381946,-0.47372156,0.4701329,-0.28039235,0.0061692097,0.5545741,0.069492534,-0.6491485,-0.5630082,-0.4811664,0.91482633,0.4050514,-0.8286351,0.9554231,0.4662394,0.7262318,0.009767469,-0.05458975,-0.07980761,-0.6357016,-0.5412611,-0.5648851,-0.5385933,-0.557023,-0.14939171,-0.61183953,0.83472556,0.30195022,0.12031111,0.83282685,0.52990997,0.10725546,0.9393336,0.66794074,0.14006527,-0.53617436,0.11480489,0.6174636,0.52899325,-0.5161078,-0.07691013,0.696643,0.56958354,0.6253196,-0.36382923,-0.36635748,-0.23373376,0.075850815,-0.6745541,-0.5851237,0.4746339,-0.9698751,-0.47184506,0.7424994,-0.43653595,-0.68586355,-0.3163843,0.7936908,-0.94471365,0.8356403,-0.09537064,-0.19585384,0.058932617,0.604619,-0.5627341,-0.34772643,-0.55406314,0.7833312,-0.62894684,0.8654751,0.20990182,-0.22475627,0.67754877,-0.50989217,-0.62613946,-0.8213613,-0.91023105,-0.04678774,-0.71887547,0.7924473,0.9584323,0.8710419,-0.2674577,-0.5176508,-0.9019717,0.26797098,0.8481399,0.14324237,-0.3691659,-0.7197323,0.5381351,-0.43604168,0.5196108,0.86863345,0.82645226,0.58184487,0.4871308,0.7319922,0.03491253,0.41733852,-0.7573749,0.8095583,-0.18851541,-0.1399016,-0.8933254,-0.49131963,0.13843001,-0.43735284,0.20559183,-0.18717079,0.49769872,0.70536834,0.81177914,-0.5137709,-0.20143138,0.26406017,0.41281965,0.047594804,-0.68880075,-0.48263586,0.53953743,0.61359656,-0.12469767,0.4797442,-0.9836382,-0.3960466,-0.43692583,0.61959094,-0.4901765,-0.78522813,-0.055188343,0.33438832,0.039887134,0.23635276,0.4447661,-0.25970167,-0.38554934,-0.36429584,-0.15497255,-0.8413404,0.80132717,0.10207468,-0.82812303,0.26350254,-0.4514738,0.23440136,0.1345685,0.82893634,0.14654867,-0.89992386,-0.049404968,-0.7554554,-0.8248927,0.16011427,0.78801256,-0.54421645,-0.7562097,-0.7987138,0.8073925,-0.13702592,0.7433531,-0.4603787,-0.46956983,0.40150377,0.86617607,-0.88651913,0.32964006,0.09980807,0.046463035,-0.7916904,-0.4463358,-0.23180781,-0.8528146,0.7627112,0.67688316,-0.419705,-0.7926486,0.1862416,-0.5596511,0.75214297,0.75303674,0.51434183,0.6253572,-0.68188304,-0.46956262,-0.40473935,0.2813467,0.97536755,0.91501504,0.15493698,0.16870432,-0.82974726,-0.6372931,0.0012360609,0.75913525,0.42828414,-0.42259577,-0.5726111,-0.18519191,-0.24058706,-0.26412305,0.7756384,-0.9503906,-0.86035544,-0.6549947,0.24420904,0.78150594,-0.73471516,0.62744236,0.4087433,-0.6455699,0.5370376,0.62521744,-0.06160065,-0.27333415,0.22522874,0.93078405,0.64312184,0.015433757,-0.5824295,0.6268906,0.03804651,0.9207036,0.3591615,-0.44784606,-0.55814505,-0.45190698,-0.70621705,-0.16176301,0.083026655,-0.48958874,0.43957302,-0.4473488,-0.48266187,-0.6929807,-0.12889583,0.099740684,-0.105983034,0.095791765,0.29997998,-0.7201926,-0.21773946,0.28514585,-0.48660272,0.11346907,-0.14052804,-0.21888937,-0.9731385,-0.942589,-0.08174882,-0.93221116,0.73234373,0.9014089,0.10321775,0.46716952,0.09181871,-0.6912418,-0.63900435,0.21535099,0.3100954,0.85671604,-0.65525985,-0.9250275,0.23810647,-0.2533108,0.517174,0.08297843,0.888011,-0.93889517,0.34252077,-0.9287655,-0.7414595,-0.58921516,-0.36733907,-0.8839922,0.30379853,-0.61417323,0.23805515,0.9767217,-0.4561564,-0.4994103,-0.11667502,0.9111823,0.44564244,0.024609651,0.020697404,0.78400105,0.8483807,0.14350572,0.46141085,0.19340983,-0.96831465,0.31785116,-0.3873448,-0.58275485,-0.91162926,0.28396815,0.1110345,-0.06030537,0.71765023,0.7693372,-0.9301905,0.8594094,0.261275,-0.09632803,0.36079237,0.84199744,0.38616437,-0.5756843,0.6260724,-0.25501108,-0.06888778,-0.048369296,0.17324074,0.19525723,-0.45857716,-0.59597117,0.018006967,-0.4075975,0.9285838,0.5939472,-0.4627163,0.062090456,-0.8399659,0.6358652,0.70440644,0.22765839,-0.7471768,-0.7260264,0.2740052,0.8075277,-0.8362301,0.000549253,0.85225934,-0.15970549,0.658402,-0.88526523,-0.07424234,0.7193085,0.9838608,-0.49808747,-0.51085943,-0.5481865,0.37280208,0.52113414,0.1024112,-0.7829536,0.8665943,-0.9185215,-0.8106471,-0.026436236,0.5875416,0.22177358,0.77888936,-0.305938,-0.11050823,-0.97161335,-0.00093291147,0.7182309,-0.26900852,-1.0011866,0.70439774,0.16190894,0.9782016,0.6944754,0.92386454,-0.20173606,0.60337913,-0.7093286,-0.074128576,-0.57956904,0.9067898,-0.36963975,-0.3638164,0.10079105,-0.6756709,-0.56898516,-0.24039009,-0.7178467,-0.1099742,0.094077475,-0.90589714,0.80542195,0.020113733,-0.18433192,0.13326038,-0.6534518,-0.83180404,0.9538029,0.1258521,-0.69834507,-0.98080385,-0.9633071,-0.6511089,0.46447298,0.8168584,-0.191247,0.071647085,0.52140176,-0.5790705,-0.3466137,-0.42345414,-1.004142,0.6010947,-0.92270654,0.21642208,-0.44722715,-0.27320597,0.56974393,0.07635933,-0.36434728,-0.5971075,0.6224454,0.94417065,-0.70631933,0.026758056,0.39606893,0.6688225,-0.61948943,0.89967346,0.25627258,-0.44211227,0.3548698,-0.05457083,0.31672624,-0.26082888,0.5308768,0.827084,-0.15482023,0.2176797,-0.599148,-0.25573674,-0.7105349,-0.7660811,-0.5821461,0.06019344,-0.32710773,0.0469362,-0.8244249,-0.66357124,-0.8381542,-0.7213582,0.007771416,0.97051096,0.5143532,0.057069328,-0.32616535,0.25033855,-0.520099,0.17503443,-0.45293108,0.020279052,0.5987296,-0.89143616,0.07825891,-0.59066886,0.31308544,-0.6734891,-0.2278223,0.6790522,0.1518036,0.5763314,0.7531303,0.47202304,-0.01827799,-0.22974952,-0.22572145,0.9421007,-0.6499302,-0.12324053,-0.43901524,-0.3768904,0.2113642,-0.73969555,-0.97456187,0.8742504,0.7369584,-0.0021200525,-0.74294096,-0.25192335,0.46023107,-0.15971959,-0.12478972,-0.6491653,-0.5790028,-0.17334588,-0.4239483,-0.52621675,-0.62380314,0.9679742,-0.3900387,0.058405165,0.38009912,0.56732666,-0.24511935,-0.5043876,-0.5398516,-0.20901833,0.8387361,-0.21445644,0.6518842,-0.09587591,0.12983784,-0.5877913,-0.6329432,-0.10347987,-0.1729495,-0.8967501,-0.25244948,0.4424437,0.62575924,-0.27440315,-0.3443046,-0.51980233,0.81452423,-0.12882897,0.54377043,-0.61681867,0.9123875,-0.72870964,0.58922696,0.6147519,-0.70011806,-0.6209804,0.6342908,0.3989736,0.47109473,-0.16827181,0.61472946,0.7273685,0.5525844,-0.5441448,0.9519753,-0.110810995,0.0686843,0.32479283,0.7795525,-0.39037478,0.8781684,0.804593,0.100873664,0.29984155,0.29667833,0.8964932,0.36628813,0.72134453,0.05747746,0.7170386,-0.17457345,-0.6672761,-0.60422415,-0.22555815,0.79139316,-0.08654133,-0.82749665,-0.8532084,0.3882586,0.853504,0.41303983,-0.57885784,-0.9104405,0.790361,0.26691177,0.2046832,0.39857596,-0.63527757,0.34475052,0.44202513,-0.5916474,-0.6089544,-0.85246986,0.023560414,0.5931667,-0.57718486,-0.20891117,0.9684809,0.011046917,0.24397802,-0.09346934,0.13425146,-0.5355794,0.18362074,-0.0141929,0.8794752,0.5786669,0.9740559,-0.802183,-0.3911878,0.085631296,0.5214903,0.3940885,0.96144414,-0.63290215,0.1740994,0.29600793,-0.8747349,0.80426866,-0.2811447,-0.4953967,-0.7375181,-1.0123104,-0.35796586,-0.59746253,-0.50065154,-0.32894257,0.9469156,0.15859817,-0.3442719,-0.6875974,0.7946833,-0.78994954,-0.7163133,0.77073205,0.974425,0.33099705,-0.15828125,0.20876138,0.5346457,-0.40940282,-0.5733845,0.119700655,-0.5316576,0.28476337,-0.86252654,0.9717714,-0.7215253,0.9226516,0.68466985,0.14454237,-0.8696592,0.23953727,-0.4375225,-0.39257872,-0.25315142,-0.85595655,0.22806248,-0.47645032,0.33243683,0.3867559,0.31459498,0.19619545,0.025398206,-0.10543759,0.64666647,0.79840344,-0.39827642,-0.95329875,-0.7504157,-0.7627925,0.6833346,-0.29853684,-0.65557665,0.83119214,0.88303834,-0.13260134,-0.7776888,-0.79072034,-0.78625244,-0.8073183,0.3982627,-0.72039837,-0.29879296,0.48511985,-0.63555557,-0.44008747,0.94127315,0.45354384,0.66295266,-0.3466082,-0.18074515,-0.51189476,-0.030568328,-0.08728705,-0.3866291,0.6676939,-0.8810201,-0.6061641,-0.83849937,-0.6252266,-0.27019545,-0.19981585,-0.5742765,-0.73090565,-0.4312429,-0.34646946,0.3329247,0.6641066,-0.84458137,-0.24138615,-0.4350291,-0.881799,0.19547798,-0.095075145,0.39144382,-0.29000592,0.17341931,-0.8424174,-0.24521291,0.57681996,0.91536486,0.98656505,0.45939147,-0.98575,-0.417076,-0.58811235,-0.2682789,0.77623135,0.49372804,-0.09726132,-0.4451504,0.82644045,-0.58840996,0.23291151,0.83020246,0.640506,-0.17794566,0.4855119,0.44966474,0.38873562,-0.10493382,0.92668897,-0.25554925,-0.3149234,0.15490526,0.4867896,0.11406514,-0.7359926,-0.38839206,-0.491936,0.7858868,0.20370354,-0.44989985,-0.95347244,-0.83270484,0.6818405,0.97235674,-0.18352494,-0.61901367,-0.7415838,0.8514051,-0.9314412,-0.9269453,-0.6988709,-0.6788482,-1.0063168,-0.29377535,-0.5288899,0.91172737,0.35260847,-0.052567538,0.7694897,0.92138153,-0.24073194,0.10587738,0.89427835,-0.951337,-0.3947969,0.08048176,-0.9616375,0.8931593,-0.9297342,0.24639842,0.7709994,-0.591072,0.39984012,-0.99232686,-0.7001152,0.94612145,-0.3648586,-0.23732607,-0.56203294,-0.89666146,0.07120994,-0.39167386,0.03134209,-0.3508564,-0.27917838,0.012700766,-0.3519722,0.8540302,0.7467652,-0.7111233,0.25013912,-0.20354266,0.55732524,0.356853,-0.19852309,0.8164609,0.25337148,0.6610024,0.06247353,0.4196459,-0.1773101,0.9138211,0.82727003,0.3077066,-0.022014115,0.0044661164,-0.28213045,0.48964736,0.83332694,0.97273,-0.61646676,0.9574316,0.5704243,0.6357727,0.8934137,0.1832095,0.09698093,0.11933017,0.5913577,-0.8259093,-0.60362744,0.4640928,-0.87358016,0.26901576,-0.26771867,0.19393057,-0.0055935094,-0.39762455,-0.8314877,-0.05371129,0.7324185,0.52284354,-0.2339192,-0.30584466,0.14039144,0.49282947,-0.6593546,-0.90433854,0.014021827,-0.2679286,0.58017457,-0.16993392,0.94896865,-0.39772272,-0.45371354,-0.7080689,0.6389152,-0.7363707,0.13192195,0.39854676,-0.951572,-0.882941,-0.5788171,-0.68104315,-0.73881423,-0.9188907,-0.06467604,0.4419826,-0.89948463,-0.3042781,-0.4884745,0.7874691,-0.088467404,0.20055498,0.07289373,-0.34459007,-0.8900028,-0.019753497,0.79000163,0.6401671,-0.5402838,0.33739018,-0.65707386,-0.40260404,-1.0003433,0.2909561,0.9429243,-0.27819335,0.3253362,0.44656765,-0.9281234,-0.49711606,-0.49237055,0.4217563,-0.38728902,0.26118913,-0.15184462,-0.4871961,-0.5117048,0.90099984,0.18457825,-0.8860665,0.30146545,0.1866998,-0.05470444,0.31621507,-0.8069214,-0.5699818,-0.020621572,-0.3209517,-0.85142183,-0.48151636,0.7606763,-0.9431498,-0.13982365,-0.6299296,-0.6473933,-0.8485797,-0.8539191,-0.34907475,0.032130305,-0.3132208,-0.012081706,-0.04093698,-0.82538724,-0.62769854,-0.50608796,-0.7716474,0.111685954,0.78486055,-0.4814594,-0.6393474,0.437757,0.7397078,0.5375349,-0.35383138,-0.30032206,0.4930436,-0.03960758,0.47552112,-0.13234279,-0.9517325,-0.23273928,-0.031933807,-0.059292715,0.6172099,-0.30212513,-1.0080012,-0.6844774,0.21107185,0.97127295,0.7880874,-0.08184277,-0.2221905,-0.3564794,-0.39416057,0.12781206,0.9553875,0.31063515,-0.55162686,-0.6599298,0.8845688,-0.079168916,-0.9273323,0.68322456,-0.43869802,-0.81936675,0.17293657,-0.55547845,0.82129794,0.060804438,0.8752667,0.47278088,-0.4257986,-0.80055344,-0.7850694,-0.28530616,-0.17007785,0.06961613,0.38274255,-0.9660233,0.12829806,-0.55708325,-0.5714162,0.757558,0.04054453,0.006454755,0.22500592,0.69926125,-0.47440287,0.50782895,-0.77822787,-0.30275688,0.3848057,0.74394673,0.51120776,0.2804371,-0.2952893,-0.5468067,0.06716917,0.7443395,-0.66248465,0.03599505,0.97948104,-0.8119902,0.040551066,-0.2964774,-0.54749376,0.5375538,-0.48269486,0.64458525,0.8250921,-0.6214301,-0.5377172,-0.34915286,0.14424385,-0.31050968,-0.7031474,-0.10168457,-0.08922952,-0.3331851,0.9323271,-0.8253115,0.04258324,0.74294055,0.15120958,-0.65851474,-0.9986447,-0.5234141,-0.71060145,0.49892733,0.08054456,0.26736766,-0.39434996,-0.7450744,-0.98006576,-0.94999415,-0.7621617,0.46377668,-0.92301285,0.68683165,-0.28276598,-0.040214706,0.5407328,-0.12208419,-0.9098676,-0.4586423,0.6871524,-0.7130021,-0.7411484,-0.7522725,0.87420225,0.27105752,0.93756217,-0.92374533,0.840162,-0.48865786,0.16802719,-0.067694895,0.19394007,0.39179212,-0.717308,0.63052374,-0.31667307,-0.5185147,0.22618325,-0.8832178,0.3904828,-0.4931321,0.77248704,0.247605,-0.44700685,0.01501737,-0.211132,-0.47424927,0.29553753,0.094856195,0.10619066,-0.6411136,0.3302438,0.83496916,-0.087815665,-0.45818576,-0.8009401,0.9816401,-0.14938964,0.84747714,-0.39718735,-0.1480131,-0.43795624,0.4321271,0.5030118,0.972151,0.59542036,-0.4260805,-0.38082942,-0.03947321,-0.09849111,0.03926375,-0.18374124,-0.22401035,0.087612085,0.57932603,0.29360792,0.65556586,0.44879845,-0.5189304,-0.6602302,0.37312126,0.6817719,0.71419865,-0.7722649,-0.86940837,-0.4666773,0.022509903,0.7580736,0.6572527,0.29282546,-0.51838136,0.048764005,-0.7162728,0.06714565,-0.5800481,-0.18951385,-0.7159524,-0.07667635,-0.61950195,-0.48011884,0.03725388,-0.896279,0.030477477,-1.0076548,0.340844,0.87601876,0.24552113,0.6140323,-0.7330591,-0.09803882,-0.45913404,-0.6526407,-1.0020075,-0.34328943,-0.116811395,0.3075312,-0.69398206,0.83874506,-0.112692066,-0.5133402,0.8953084,0.5088961,0.60299915,-0.49467567,0.29188946,0.8732455,0.68413234,-0.21946059,0.7487425,-0.7530254,0.015381172,-0.10642982,-0.6773122,0.8927152,-0.12644732,0.6164004,-0.17125872,0.60133123,0.76570255,0.48554114,0.8685481,0.58242285,-0.0011579662,0.40177605,-0.05727101,-0.38260165,-0.91772723,-0.86705065,0.7330791,0.215419,-0.7578842,-0.309272,0.7707675,0.77074844,-0.22042571,0.19192761,-0.8284966,0.340186,0.81826323,-0.95296663,0.57103455,-0.13711113,0.41291893,0.14147094,-0.35626423,0.1229075,-0.6215295,-0.07603448,0.5107073,-0.50860345,-0.8870204,-0.35843456,-0.44956592,0.51336324,-0.84139895,0.60860527,0.22291104,-0.6585339,0.82295734,-0.8480291,0.6414945,0.051528633,-0.7146409,0.9341614,-0.2527728,0.0054716663,-0.5214116,-0.27514994,-0.31867066,-0.0016395304,-0.3409609,-0.48249173,-0.35737315,0.48817325,-0.24640007,0.3600929,0.23669942,0.3914113,0.4270228,-0.8085268,0.3027175,0.4214135,0.36012405,0.0674798,0.9409494,-0.25846452,0.66795963,-0.50138044,-0.67930907,-0.99181855,-1.0025797,-0.10488173,-0.44256797,0.6231419,0.3128449,0.8630846,0.21481398,-0.53371185,0.32588747,-0.070302226,-0.705639,0.7896415,0.3532793,-0.43013275,0.6438848,-0.67942744,-0.7523392,0.08942135,-0.53756213,-0.3965612,0.15692152,-0.7164594,0.28781852,-0.25536662,-0.47221276,-1.0016577,0.16242853,-0.1945201,-0.72634023,0.7167586,0.32121086,-0.6107518,-0.62613356,0.9312506,0.8545278,0.9577008,0.14351045,0.58988,-1.0051191,0.17321004,-0.6691484,-0.83380836,-0.9191336,-0.28059465,-0.7569041,0.30251402,0.5948232,0.60553837,0.5018196,0.8219829,0.3293565,0.092095144,-0.5606886,0.59217143,0.0032472943,-0.031662196,-0.9596599,0.4734088,-0.8611647,0.75609314,0.8249443,-0.5422616,0.13990808,0.47463888,0.8031432,-0.7053836,-0.000027293665,-0.9909048,-0.18908204,-0.24074087,0.49033582,0.7363273,0.20577364,0.74041796,0.9176533,0.7974995,0.64963746,-0.14092028,-0.23850718,0.41871652,0.9890069,0.69691277,0.9386517,-0.76450413,0.9589069,-0.22130567,0.047246646,0.112278976,0.23493601,0.92481595,0.8910401,0.45267206,-0.48660973,-0.75815934,-0.4449017,-0.71146184,0.9686365,0.6492699,-0.61301565,0.88711196,0.23711598,0.23060304,0.69458044,-0.4536513,-0.058199096,-0.06409403,0.046185754,-0.88842964,-0.12796615,-0.82866794,0.35369036,-0.51906306,0.7669575,0.39680463,-0.26463723,0.32536075,-0.12417602,-0.46493447,0.39486256,-0.9248165,-0.26759723,-0.12523873,0.52376235,-0.86549634,-0.35418242,0.9510553,-0.9086098,-0.28584254,0.4728705,0.42260626,-0.14876236,-0.5333495,0.91538745,0.044590235,-0.09263222,0.39579424,-0.10745474,0.88648486,-0.15056258,0.45640713,0.08140149,-0.5016404,-0.10987863,-0.24177232,-0.69576746,-0.3950278,-0.52557933,0.34816587,-0.7573538,0.6932121,0.039449967,-0.97830045,-0.41920567,0.11286573,0.009711867,-0.9921939,-0.941714,-0.5807632,-0.9971529,0.8161477,0.9232013,-0.7378394,-0.17428112,-0.4291661,0.29741645,0.14991948,0.6210771,0.4262221,-0.34363955,-0.5526685,0.38427654,0.32194316,-0.9718627,-0.7352128,0.28256595,-0.8127074,0.4188773,-0.88907677,-0.41222692,-0.41870725,-0.40495405,-0.60549855,0.4280734,0.59136903,-0.4459034,-0.8641424,-0.09353271,-0.4626111,0.112567514,0.18480274,0.6565245,-0.5834728,0.2096588,0.87100595,-0.5356153,-0.86637825,-0.8174655,-0.5338019,-0.72984874,-0.6133489,-0.46453822,-0.30115607,-0.5982055,-0.08655769,0.6236467,0.7116836,0.42296532,0.379345,-0.10905958,-0.73779094,0.80472904,0.960319,-0.3402209,0.32000458,0.79293764,0.8549504,0.15118016,-0.7749466,0.88350844,0.55059457,-0.50737494,0.914612,-0.01552156,-0.036149472,0.72616583,0.75646955,0.86220974,-0.37344757,0.520108,0.74796885,0.0027105797,-0.66940296,0.0852642,-0.860546,0.31682268,-0.091905825,0.58893245,0.27356172,0.9004919,0.9234073,-0.8192936,0.9828271,0.65194905,0.6674356,-0.8331404,0.15417047,-0.96939975,0.06850635,0.11188555,-0.16444509,0.35124022,-0.6994941,0.8621567,-0.41705298,-0.37329367,0.05112138,0.83915,0.6156029,0.8366594,-0.31933862,0.22435454,-0.9111727,-0.60941255,-0.9569562,0.8487245,-0.030306572,0.6429503,0.32716522,-0.65162855,-0.47677666,0.52405316,-0.8218024,-0.6847661,-0.18911679,-0.9960429,0.804488,0.37563503,-0.21293621,0.4927603,-0.20547377,-0.2331483,0.36378363,-0.7573918,0.8712982,0.11204971,-0.9260288,-0.09892269,0.7509627,-0.19236863,0.26854485,0.30413887,-0.1644007,0.9844056,-0.25273547,-0.5334352,-0.95256895,-0.3987656,-0.8641089,-0.15264381,-0.7768072,-0.16888031,-0.7134571,-0.72273225,-0.37014213,-0.9425667,-0.24376363,-1.0091928,-0.028914303,-0.096018106,-0.08708777,0.5484705,-0.33266026,-0.6984307,0.92597663,0.50703907,-0.6079504,0.9545029,0.7333255,0.67202204,0.8900829,-0.70095825,-0.570342,0.89978147,0.9558712,-0.37521058,-0.24892245,0.58773017,-0.41995084,0.12704973,-0.38099864,-0.39770922,-0.29718274,0.68063635,-0.6630448,0.7708185,-0.13756636,0.94200283,0.9470498,0.5636477,-0.84413373,0.5856395,0.8379056,-0.27409896,0.25302306,-0.47148117,-0.6046021,-0.8374956,-0.02920134,-0.364573,0.48929325,0.94438624,-0.27505067,-0.6820684,0.116113,0.52885026,0.14769773,-0.25087744,-0.75539875,0.51689154,-0.6033385,0.13725437,0.56744254,-0.14181168,0.25333324,0.9378487,-0.6125178,0.11484141,-0.8707186,0.924366,0.7806401,-0.02198802,-0.765289,0.96636,-0.01659619,-0.8259542,-0.030186333,0.88223755,0.1514011,-0.76823,-0.66741896,-0.9662296,