{"b4":{"v":1,"dim":[1,1],"data":[-0.5780627]},"b2":{"v":1,"dim":[5,1],"data":[-0.016486537,0.0,-0.0160635,0.0032449295,-0.015663506]},"W4":{"v":1,"dim":[1,10],"data":[-0.7285575,0.9961501,0.042353563,0.15899505,0.6214054,-0.63046765,-0.9459038,0.32260147,0.3658105,0.007712364]},"b3":{"v":1,"dim":[10,1],"data":[-0.016553104,-0.0035049405,-0.009546003,-0.0026912754,-0.007589688,-0.012206581,-0.016558515,-0.0055588363,-0.009235827,0.0]},"W3":{"v":1,"dim":[10,5],"data":[0.80622685,0.33004642,0.3652963,-0.603423,0.5059392,-0.3068799,0.8190329,-0.9424002,0.76870406,0.4024532,-0.9204547,-0.7670624,0.603613,0.93515074,-0.084021494,0.7106764,0.38212657,-0.85022485,0.8847351,-0.30904183,-0.9608199,-0.54342675,0.4846417,-0.25703195,0.54171723,-0.71604234,0.3188181,0.524391,-0.15275258,-0.23150413,0.7759658,0.20390725,0.51545584,-0.4735048,0.946752,-0.68477845,0.26589632,-0.32223773,0.087444805,-0.73270893,0.1409106,-0.100157976,0.568219,-0.30755427,-0.850565,-0.9360523,0.8631542,-0.5748956,-0.57286143,-0.5259533]},"b1":{"v":1,"dim":[3,1],"data":[-0.015962956,0.019672047,-0.013406022]},"W2":{"v":1,"dim":[5,3],"data":[0.3203732,-0.06547664,0.37773907,-0.32576108,-0.87210846,-0.30234194,0.48650265,-0.3346174,0.62101704,-0.6335307,-0.7197745,0.18873416,0.7338798,-0.21241683,-0.27891228]},"W1":{"v":1,"dim":[3,12288],"data":[-0.0048087826,-0.13256153,-0.8702563,-0.5018744,-0.5007392,-0.70602554,0.60795844,-1.0023112,-0.7754649,0.43330213,-0.6968207,0.7503324,0.27652878,-0.23987545,0.20758525,0.22902377,-0.2710128,-0.4023065,-0.28311625,0.4977947,-0.6136122,-0.31425816,-0.09121677,0.8701109,0.8873246,-0.33653834,-0.67013985,0.5696617,-0.5647532,-0.5552628,-0.82023865,0.41665238,-0.36287493,0.86046344,0.4124371,0.923114,-0.3954621,0.2457008,0.36509115,-0.43203816,0.2899205,0.14561442,0.6219501,0.39946267,-0.36160582,-0.77394044,-0.0070715067,-0.8643535,-0.28857416,-0.27751848,0.8940743,0.5713771,0.70656365,0.35644582,0.007815092,0.61333174,-0.035821445,-0.3509618,-0.1022695,-0.7062097,-0.057187114,-0.50878286,0.20512043,-0.94244546,0.18036509,-0.50955987,-0.9362952,-0.16585077,0.18071508,-0.354259,-0.39865375,-0.10453185,0.017854776,0.67723835,-0.92824334,0.3714235,-0.2700164,0.7899073,-0.6603608,-0.63716805,0.62544465,0.14978464,0.31708568,-0.5637328,-0.18132545,0.9330419,-0.4952834,-0.0055087036,-0.06554035,0.5245004,0.6610233,0.28729773,0.73327553,0.5661001,0.39906228,-0.5874388,-0.67222077,0.97755414,0.14353245,-0.3253513,-0.65838444,-0.030472921,-0.014709242,0.58115864,0.11297663,-0.8212622,-0.081925705,-0.3480301,-0.54651576,0.042520575,-0.053532626,-0.30203754,-0.33128688,-0.75557387,-0.7354117,-0.120998986,-0.41132236,-0.7898091,-0.8000307,-0.73099196,-0.2652483,0.6910855,-0.3627635,0.3003212,-0.7219884,-0.21983744,-0.33844644,-0.8063374,-0.1036413,0.75597644,-0.11801398,0.8558044,0.5530028,-0.16758446,0.9784339,-0.3494009,-0.9197292,0.30666953,0.123063326,-0.8529423,0.3263988,0.08292131,0.22550966,0.8264109,-0.07367958,-0.3449033,-0.25829047,0.78642595,0.5928997,-0.17525625,-0.3487623,0.11803809,0.8174554,0.09247405,-0.23009886,0.45546943,-0.40734193,0.52542365,0.42191994,-0.09072722,0.67074305,-0.88606775,0.65023524,0.7502664,-0.7641039,0.5363887,-0.94410574,0.3920838,-0.4142448,-0.14524576,-0.741746,0.0060367608,-0.036953453,-0.91220725,0.09787274,0.84697187,0.49219972,0.021352408,0.5017649,-0.1586391,-0.24229127,-0.62048954,-0.5825784,0.28302926,-0.13407996,0.9180605,0.028065354,-0.60698223,0.73809767,-0.4506239,-0.4517307,0.7278686,0.17023288,0.58177227,0.1553844,-1.0003623,-0.0033669334,-0.89067054,-0.3636952,0.9175974,0.38789016,0.0046635224,-0.2937981,0.74024534,-0.33277398,-0.14172374,0.2059195,-0.0972839,-0.6082205,0.26409006,0.52957624,0.39686325,-0.22586517,0.15227251,-0.6541087,-0.9761163,0.08050101,-0.62143445,0.84177786,-0.088609025,0.21159752,0.9826379,-0.06938746,-0.6321474,-0.7369523,0.031014837,-0.5921926,0.76614326,-0.7167556,0.524924,0.0047134385,-0.42915028,0.29277122,0.41071624,0.65350825,0.9311954,0.41450122,-0.92194647,-0.14567672,-0.29833806,-0.09713265,0.42100078,0.5842701,0.6604325,0.78470814,0.0787738,0.72049165,-0.71767455,-0.6082178,-0.03479277,-0.057888176,0.7941857,-0.8297249,-0.5490635,-0.2931083,0.18611698,-0.6521307,-0.59508955,-0.47239834,0.7215321,0.65563583,-0.4893452,0.55942565,0.37594482,0.15950613,0.20384726,0.8017247,0.61768246,-0.3757267,-0.44039184,0.16902103,0.58649343,-0.17254984,0.0014881245,0.81462926,-0.5055329,-0.2789827,0.34095362,-0.16601005,-0.3995681,0.8468303,-0.7387084,-0.052256707,-0.47261322,0.034363795,-0.007135061,0.97324896,0.60704565,0.28633583,-0.7448268,-0.90235335,0.2842158,0.32115826,0.072118945,0.13413003,0.69249386,0.19770639,-0.3893222,-0.85530144,-0.5885274,0.6759157,0.84426326,0.051296514,0.945724,-0.46484223,-0.6414765,0.02124047,0.38734135,0.48219368,0.6763087,-0.72026384,0.36342552,-0.96583843,-0.22107376,0.35081458,0.36817297,0.9837144,0.8192809,0.4536777,0.4990457,-0.09526594,-0.27507773,0.43522373,-0.8434234,0.9549681,0.43574065,0.43408996,0.12892705,-0.19389865,-0.6437769,0.7166712,-0.729207,0.49596104,-0.2000217,-0.11776141,0.95036733,0.5023573,-0.34583172,-0.96682334,0.7320188,0.191795,0.41462305,-0.46754932,0.8782074,0.5053222,0.77509505,-0.3419604,-0.009643279,-0.3135983,-0.97027093,0.91852695,-0.10284695,-0.25037903,0.021566175,0.75548774,0.69207996,0.17722636,-0.44947028,0.6136375,-0.29805714,0.06165373,-0.61388797,0.25009283,0.8473309,0.974675,0.4994039,-0.7016464,0.80028695,-0.38426778,0.055281494,-0.9238772,0.8365858,0.40340918,0.76430744,0.42593792,0.02460201,-0.65927595,0.9343188,0.47657007,-0.7091028,-0.23154615,-0.6622238,-0.2802129,0.9029812,-0.13109973,0.6079739,-0.8133585,-0.06885346,-0.67380977,0.5382896,0.5308951,0.6891648,-0.437975,-0.9980112,0.35153574,0.83876294,-0.65453804,-0.8811206,-0.39210504,0.40115815,0.7211051,-0.56923276,-0.96931064,0.6957038,-0.9674991,-0.77691054,-0.9333645,0.40180293,-0.3780178,0.13088365,0.82463527,-0.83818424,-0.36648944,-0.7899633,-0.29870588,0.14080113,0.046704605,-0.40169537,0.14729257,0.93302345,-0.8720266,0.4615786,0.9705311,0.44836533,-0.80482763,-0.10025813,-0.21937309,-0.15119009,0.8573702,-0.75592285,0.43807235,-0.7822468,0.37142313,-0.8500149,0.726681,-0.8852246,0.28005105,0.8827494,0.16155204,0.65728736,-0.9394872,-0.7481872,-0.97164667,0.7365321,-0.8664327,0.018866522,0.7080289,-0.94137084,-0.22399262,0.4586497,-0.3882933,-0.44438717,0.6810913,-0.2134696,0.40634072,0.43059546,-0.9045879,-0.35032713,-0.33294928,0.015752073,0.5973678,-0.13079189,-0.7263186,-0.9582852,-0.65054953,-0.33308092,0.8713771,0.45548302,0.4292491,0.03729286,0.7932287,-0.06463433,-1.0091746,-0.837536,0.6866507,-0.707073,-0.13737579,-0.1133815,0.019178052,0.84017706,-0.33122602,-0.84370023,-0.2547146,0.9022535,0.84490514,0.51077557,-0.9061003,-0.19235799,-0.28916815,-0.61503655,0.36801562,0.9138923,-0.057967383,0.61118937,-0.8837778,0.1774668,-0.0041964785,0.7493033,-0.097580075,0.24617101,0.9579506,0.7414884,0.71739185,-0.8789467,-0.9009251,-0.42916384,0.15162762,0.8705147,0.96912915,0.46091986,-0.6670979,0.025784649,-0.8502002,-0.71017206,0.6269822,0.54147923,-0.41449392,-0.2496085,0.42360112,-0.8303197,0.4224984,-0.0010103448,0.44457358,-0.19004288,-0.6314813,0.5522933,-0.000049799164,-0.07755363,0.6739399,-0.60242265,0.27224243,-0.3396773,0.6417314,0.51719534,0.5626628,0.6724281,-0.069035135,0.9328276,-0.7239232,-0.029494109,0.56315815,0.82094294,0.95982593,0.3561245,-0.8619681,-0.50697684,-0.5888305,-0.057482976,0.14948614,0.109909244,-0.96268356,-0.51212317,-0.4252492,-0.6210761,-0.24459311,-0.8439086,-0.7086637,0.7091843,0.6467041,0.09184623,0.81304127,0.15879747,-0.20096128,0.3382019,-0.5729752,0.73562723,0.1891266,0.65291816,0.6702051,0.79950404,-0.49384758,-0.18332902,-0.42783618,-0.8573741,-0.4144333,-0.35919306,0.24114513,0.007879535,0.29240254,0.9119306,-0.13569728,-0.79005295,-0.13517444,-0.052299578,0.96736586,0.93414843,-0.9522427,0.6972911,0.33395225,-0.79436374,0.84580576,0.025409278,-0.13299382,0.40140954,0.7412693,-0.14472178,0.076292515,0.18367612,-0.62163246,-0.45884183,-0.42096278,-0.021159353,-0.9960505,0.9532933,-0.3024532,-0.1409141,-0.9934669,0.86721545,-0.22864823,-0.16022505,0.9294447,0.42686704,-0.4845836,-0.76941264,-0.7997215,-0.44337448,-0.8627661,0.16916388,-0.9878608,-0.78703076,0.71359766,-0.82200664,0.6839141,0.5966003,0.40464836,0.08337679,0.10262718,-0.10634965,-0.13240364,-0.11366624,-0.017737614,0.12361734,0.18553966,0.16344488,-0.2424066,0.22126888,0.28928643,-0.5318473,-1.0095136,0.6566157,-0.15084209,-0.17039622,0.034978006,0.3502236,0.3513094,-0.3459438,-0.8245891,0.14949277,-0.036933575,0.9779535,0.71255535,0.19863622,0.8968331,0.6043836,0.14515738,-0.5507017,-0.24944186,-0.5379378,-0.5230236,-0.6885242,-0.041207235,0.2940783,-0.5665273,-0.36888635,0.10038837,0.5209261,-0.80032957,0.55351543,0.94972944,-0.10475692,-0.79934835,-0.46552983,-0.3329733,-0.34226725,0.3744643,-0.9621894,0.927837,0.30952278,-0.62629473,-0.8061391,0.76941234,0.59203833,-0.6229471,0.40788713,0.05441873,0.34689614,-0.05531993,-0.9085239,0.17745626,-0.03268637,0.0656525,-0.9281625,-0.91714936,-0.24406868,-0.15847512,0.74780005,-0.11575192,0.5689899,-0.3079763,0.8775342,0.229867,0.5137409,-0.45313013,0.69958377,0.29609433,-0.14227694,-0.503478,0.35380664,0.014305224,0.8715932,0.34919924,-0.62816113,-0.212094,0.35593468,-0.46983397,0.1461156,0.36981255,0.8119821,-0.3195814,0.31547108,-0.8986726,0.30636424,0.19567224,0.6518483,0.88566107,0.78289455,0.5730973,0.5868686,0.90223455,-0.67095524,-0.23211335,0.98238575,-0.9825791,-0.2996072,-0.63203734,0.19768474,0.17624256,0.31040543,-0.34056002,-0.31882575,0.8948829,0.40396577,-0.7131899,-0.77695125,0.25848958,-0.74282587,-0.4065892,-0.27586254,-0.72600824,-0.32145086,0.26045412,-0.84929705,-0.06593384,0.19524737,0.65247846,0.13628387,-0.5705169,0.9509994,-1.010541,0.74609774,0.91407704,-0.8425248,0.7482179,-0.43883273,-0.59773016,0.5598304,0.14498465,-0.5774002,-0.25932747,0.71150774,0.2037275,-0.24999315,0.19705574,-0.042391784,-0.597256,0.8489714,0.86911505,0.15209895,0.5495226,0.3727992,-0.3163976,-0.8780895,-0.49446085,0.8336557,-0.11038999,0.8051568,0.4878233,-0.87216836,-0.19621748,0.029444344,0.26539865,-0.06282077,0.4656085,-0.48296186,0.8838783,-0.8748867,0.12275477,-0.591466,-0.7618385,-0.14531793,0.89214456,-0.20383076,0.39513752,-0.69081265,-0.42651755,-0.20926455,0.63929445,0.580696,-0.13893636,-0.4088153,-0.46990776,0.705205,0.7429717,-0.582976,-0.16673222,0.8245346,0.6744162,-0.22642785,0.4553086,-0.91012865,0.7037053,-0.037260216,0.28735745,-0.92083555,0.5794268,0.65917903,-0.56342936,0.34849054,0.043617673,0.678516,-0.22952946,0.23905732,0.94893974,-0.504041,0.1848925,-0.5556375,0.08999779,-0.9468815,-0.35300708,0.4142405,-0.7463399,-0.93192196,0.2688976,0.006326597,0.49946138,0.18588382,0.78167534,-0.27213177,-0.14958094,0.58563495,0.055105865,-0.4540942,0.60492384,0.5075232,-0.33945522,0.002981901,0.01309893,0.8682506,-0.20127517,0.66473025,-0.78349453,-0.038568903,0.96204734,0.7364065,-0.0952135,-0.5792143,-0.5394531,0.16489199,-0.5331563,0.056798495,0.8452782,-0.51054317,0.27388877,-0.82859236,-0.7158007,-0.4492375,0.14776428,0.6355375,0.97174186,-0.5523596,0.0032163148,-0.3750121,0.7200433,-0.9368174,-0.848959,0.7084005,0.8026617,-0.8321212,0.330073,-0.6432408,-0.2088425,-0.06476725,-0.50337577,-0.028813057,-0.56068563,-0.2976088,0.929441,-0.7845983,-0.88523954,-0.73555297,0.75145113,0.5863968,-0.54658,0.4679469,-0.8110154,-0.2039086,0.04108212,-0.8792533,0.23151648,0.2934609,0.22548375,0.6201372,0.3884092,-0.33315387,-0.72790045,-0.33628604,-0.51808465,-0.07151885,-0.74425024,0.0084384605,-0.29825506,-0.7962223,0.025889903,-0.76034373,-0.58964705,-0.51342726,-0.9588216,0.2552084,-0.12898074,-0.98727787,0.9423703,-0.86451274,-0.79857534,-0.021882191,-0.04430222,-0.9415264,0.33496302,0.3537707,-0.9371089,-0.012745003,0.6456717,0.9736591,0.676989,0.7724551,0.17785503,-0.064275816,0.35271546,0.661674,-0.824109,0.5322235,-0.5188397,0.036576085,-0.930399,0.030963777,-0.47170737,0.6424096,0.06580286,0.13534665,0.18795308,-0.52506787,-0.60060996,0.81959677,0.42669302,0.43056867,0.34980956,-0.17767073,-0.6642464,0.656176,-0.6359107,-0.44766915,-0.12702955,-0.0342616,-0.9622792,-0.4710768,-0.41625595,-0.920192,0.026252968,0.7580207,0.14559147,-0.7139612,-0.94512856,0.39902064,0.45447594,-0.2866593,-0.08848815,0.5438298,0.38524026,-0.69851553,-0.32346123,0.68234944,0.13309437,-0.418862,-0.44039023,0.21597604,-0.83627886,0.5803277,-0.030556995,-0.7259289,-0.32898453,-1.0072141,0.50544256,-0.52640736,0.5167364,-0.27936918,0.71636695,0.8153916,-0.5713336,0.71875775,0.08820953,-0.7852076,0.7169376,-0.9166352,0.28724813,-0.13764454,0.6310576,0.013461068,0.593423,0.6663648,-0.2897389,0.7433073,-0.9553987,-0.094893895,-0.20184664,0.8964296,-0.13135242,0.23071764,0.82664204,0.0142167695,-0.19855802,0.7750304,0.10363524,-0.051743567,0.28068075,-0.4989018,-0.74523056,-0.34374595,-0.098675296,0.29366332,0.20794092,0.4128391,-0.49632683,0.107582845,0.93409544,0.50519407,0.76627815,-0.7995948,-0.2705353,0.65525323,0.10388743,0.7197758,-0.5439777,-0.30633688,-0.40567815,-0.20669533,0.18564437,0.8283453,0.0009580174,-0.42594355,-0.5163251,0.9094023,0.049637355,0.9180449,0.6675116,-0.44744965,-0.8474207,0.10567559,-0.6127296,-0.33627838,0.50490505,-0.07459462,-0.7884312,-0.73225224,-0.23832299,0.34637192,-0.9301631,-0.22980578,-0.629534,0.0038991019,0.43231243,-0.45365167,0.6379291,0.696843,-0.47451127,-0.23237886,-0.2784958,-0.84552294,0.1599101,0.58437145,0.79060525,0.36451632,0.34117883,0.15971293,-0.21540673,0.10468123,-0.92784953,-0.41294318,0.8937601,-0.6661201,-0.90967643,0.38195744,-0.11705209,0.014749856,0.94257957,-0.34499782,-0.023220198,-0.23615405,0.18085325,-0.57511085,-0.8712775,-0.8121209,-0.381818,0.8611893,0.5723597,0.69911695,-0.06913334,0.45259562,-0.33485144,-0.5749182,-0.63946384,-0.73931926,0.3265662,0.07582418,0.82916206,0.08641885,0.75230324,-0.596424,-0.29046983,0.42609632,0.6463489,0.57692677,0.27996752,0.9004768,-0.32557046,-0.3994411,0.26423168,-0.39443,-0.46126837,-0.05424707,-0.83603084,0.5951568,-0.8568766,-0.53536904,-0.7829689,-0.204522,0.69664776,-0.18162532,0.7633286,-0.24435298,0.16974965,0.2651295,-0.34440356,-0.34432676,0.80435514,0.43217924,0.6450252,-0.238328,0.056032076,-0.48416469,0.593781,-0.043281518,-0.5066376,-0.32803154,0.45750386,0.04782444,-0.55601007,-0.31243432,-0.2080952,-0.36065295,-0.6353342,0.93348813,-0.45095566,0.3460472,-0.99128556,0.71468747,0.5755439,0.014747585,-0.18650606,-0.04599827,0.79167104,0.82153046,0.1139411,-0.15380023,0.17001705,-0.93297505,0.04109517,-0.17327186,-0.75342774,-0.7638832,0.8513243,-0.6730565,-0.8034487,0.09560839,0.8062016,0.28048477,-0.20831333,-0.82115006,0.20344727,-0.0044488125,-0.816085,-0.11988491,-0.58280236,0.1941753,0.43012646,0.3621098,0.04845674,-0.6222615,-0.5171222,-0.60241055,-0.1172479,-0.37612316,-0.7949621,-0.94131625,-0.17199638,-0.9374356,0.033205956,-0.95715785,0.6210953,-0.031887922,-0.25948477,0.33084527,0.2538819,-0.90745664,-0.63311607,0.11713236,0.5020652,-0.50352925,-0.44582137,-0.31030348,-0.868874,0.14865933,0.5526765,0.05773945,-0.8005496,-0.9188137,-0.24899772,0.28953165,-0.1876564,-0.8306101,-0.10315376,0.82552487,0.09493791,-0.098059595,-0.14905569,-0.8737937,-0.2930114,0.6991367,-0.9388542,0.4058092,-0.6799141,0.5366289,-0.05706591,-1.007753,-0.73037297,-0.0021711013,0.1349087,0.7293456,-0.32418817,-0.8799042,-0.39738792,-0.31159014,0.41395757,0.89833176,-0.6401717,-1.0072955,0.60697913,-0.57996666,0.6443343,0.72652036,0.3419117,-1.0002228,0.020339563,-0.7645046,-0.39730835,-0.7429006,-0.2819615,0.7061118,-0.42416298,0.5259874,0.75999695,0.35112038,0.7538799,0.06418204,-0.5448712,0.59054345,0.9742241,-0.814975,-0.3397625,0.6834182,0.44702837,-0.41330105,-0.41016364,0.84252876,0.93068576,0.36942163,-0.15183286,0.9498428,0.8418977,0.20777574,0.61225325,0.7709469,0.8425668,-0.15504059,-0.3943851,0.44474792,-0.13051218,-0.278716,-0.37388068,0.23359017,0.096651025,-0.4502093,0.7561682,0.20421778,-0.41939414,0.30422142,0.033730056,-0.6862738,0.4564856,-0.49293768,0.9444979,0.40914175,0.6551414,-0.7465068,-0.6117294,-0.44972152,0.5801355,-0.18967116,-0.867019,0.22099979,0.74212915,-0.81570077,0.7344175,0.28057274,0.9744795,0.8869557,-0.10854659,0.8732327,-0.5244783,0.054645505,0.6796038,0.068655185,-0.612728,-0.7576355,-0.30408704,-0.625973,0.12355132,0.08622695,0.0340528,-0.20728283,0.3983398,0.39300287,0.8787138,0.970373,-0.026430828,-0.92774886,0.72926044,0.45480403,-0.77988905,0.28122178,-0.36158818,-0.24905467,-0.013414136,-0.33592722,0.9577845,0.043008775,0.53061473,0.669921,0.5108239,-0.633247,0.5598728,-1.0134965,0.9748274,0.87632185,0.42859516,-0.72449654,0.089217514,0.7452154,-0.435433,-0.2549287,0.6796526,0.56109226,-0.93484986,0.40865627,-0.63095176,0.43219125,0.34698477,-0.39533037,0.34107676,-0.41260397,0.11251271,0.015702765,0.5769629,0.9472936,0.7278052,-0.24634421,0.26932052,-0.74580085,0.9334792,-0.12186322,0.73911875,0.13991286,-0.3766952,0.28955284,-0.98393875,0.43545422,0.55402184,-0.60337794,0.9751409,0.9179319,0.6800215,-0.016577888,0.8764719,0.37336826,0.8593397,-0.38271078,0.27580488,0.21393709,0.47429708,0.6810265,0.16422926,-1.0006385,-0.2405773,0.9270104,-0.8492618,0.18798584,0.7780124,-0.48877865,-0.5714496,-0.24111134,0.37656432,-0.856161,-0.94113564,0.42440236,-0.84985775,-0.94110155,-0.28398386,-0.9584514,-0.9030603,-0.09991261,0.4687539,0.854466,-0.81412435,-0.8647348,0.91899145,0.05987515,-0.4075208,-0.51307034,0.92545295,0.8521455,-0.21395135,-0.7782274,-0.62013227,-0.62487984,0.1130174,-0.7277971,-0.46974257,0.92268497,-0.9136143,-0.9800808,0.07187787,0.84892064,0.29846963,-0.9822181,0.95875,0.32239768,0.703631,-0.8691883,-0.59941584,-0.26536343,0.7151224,0.5393471,0.58464515,-0.41024715,0.0007157503,-0.3173087,0.58695585,-0.5094149,0.9226301,0.8439652,-0.72034377,-0.6177547,0.633541,-0.94466496,-0.4512688,-0.53944445,0.97436994,0.54620093,-0.33278215,0.7766312,-0.25470826,-0.7255668,-0.5744861,-0.09976261,-0.30473942,0.6991483,-0.5541996,-0.83174276,-0.9404206,-0.9805082,0.2886444,-0.3819561,-0.16961108,0.09625911,0.43857482,0.15407847,0.6481584,0.66362476,-0.75932056,-0.7167142,-0.41774526,0.94576454,0.90905076,-0.28801864,0.36896104,-0.4749416,0.7227274,0.61974144,-0.26863527,-0.49245554,-0.3948335,0.6885515,0.739802,-0.52561134,0.34202376,-0.44325998,-0.19777362,0.40625325,-0.3066581,-0.38904548,-0.7174078,0.87513167,-0.7674283,-0.9731742,0.85111064,-0.6492417,0.17753877,0.9186196,0.067461416,0.67501414,-0.15841053,0.6506548,0.55055946,-0.61647904,0.6018303,-0.27507862,0.11542662,0.10352774,0.8453319,0.8405787,-0.7937327,-0.29878813,0.80276495,0.39944118,0.5806395,0.82190377,0.7298955,0.8412682,-0.49450663,0.4980115,0.16975006,-0.12819983,-0.2801045,-0.87958837,0.2745809,-0.9925543,0.226246,-0.622315,0.11677611,0.018190755,0.051114112,-0.086067066,-0.03105356,-0.07548618,0.6325741,0.1741035,0.29781142,0.14353731,-0.49454287,-0.7807463,-0.39102358,0.3933382,0.51923907,0.90778166,-0.51628375,0.6448869,0.14115998,0.29769832,-0.1656345,0.70776254,-0.96527755,0.383642,0.68165547,0.37325874,0.4011892,0.42757025,-0.3469278,-0.020496484,-0.3817445,-0.866606,-0.5380745,0.045812327,0.20727476,-0.18180561,0.3764328,-0.8977235,-0.98356926,-0.50839823,0.15058291,0.015606942,-0.9959556,0.83796823,0.7673703,-0.33948532,-0.36460984,-0.0069235265,-0.79499793,-0.79627764,-0.099933766,-0.5981599,0.25534335,0.45826322,0.26463526,0.014739704,-0.2686399,0.76512474,-0.46462238,-0.112838544,-0.61408305,-0.7450118,0.24111576,-0.9244381,-0.19343297,0.09276468,-0.2003398,0.579679,0.5989615,-0.8148604,0.087440304,0.3683366,0.9654645,0.10661124,0.49363378,-0.20851168,0.642581,-0.37130195,0.3998955,0.47906345,-0.96375453,-0.22488692,-0.10243615,-0.32849327,-0.72706234,-0.12576833,-1.0143836,-0.4493616,-0.33946764,-0.33088398,-0.70854545,-0.52642965,-0.8795027,-0.4602064,-0.5220475,0.6696607,0.42590287,0.79011273,0.05118598,-0.23848495,0.4055428,-0.5373563,-0.5245903,0.8605245,0.08512599,0.030844005,-0.8794288,-0.5102403,0.061348904,0.23681048,-0.4956033,-0.71283656,0.4035289,0.8986506,-0.71596766,0.74826103,0.51462495,0.5966815,0.95202327,0.78729707,0.632179,0.90286136,0.7584227,0.8019946,-0.85047394,-0.096040614,0.5965085,0.33797354,0.33184633,0.055884287,0.72624826,0.48068878,-0.27514362,-0.17737806,-0.25833938,0.70883304,-0.38433325,0.5577917,0.58930033,0.86022776,-0.23016353,-0.6169609,-0.30073425,-0.5219659,-0.9262847,-0.65794283,0.2784588,0.40065923,0.5252519,0.29975915,-0.8551388,-0.48651183,-0.49074548,0.23684168,-0.30474007,-0.29929647,-0.28721815,0.5589151,-0.05437136,0.6171599,0.49824426,-0.74606997,0.2352255,-0.15806103,0.24566947,0.8243788,0.90548754,-0.6334521,-0.6981631,0.792114,0.2074507,0.7084742,0.6891376,-0.2873476,0.5965221,0.55689204,0.46359405,0.6607538,0.11970041,-0.8842324,0.705476,-0.26064003,-0.302356,-0.44556692,0.8605387,-0.52786374,0.5376021,0.9769131,0.32747552,0.75955594,-0.34981325,0.48451787,0.77021396,0.4986025,-0.16991541,0.44087124,0.6774413,-1.0093793,0.93038094,0.5694652,0.76566994,-0.8858872,-0.92012525,-0.34179524,-0.0102468,0.1554059,0.44245163,-0.37491047,-1.0066653,0.038316797,-0.89100134,0.5402058,0.5004158,0.6826682,0.27142042,-0.20097393,-0.05389281,0.405887,0.17049897,0.6308628,0.5452129,0.4498325,0.27055427,-0.48442632,-1.0131918,0.3923991,0.977987,-0.72521466,0.5685869,0.5303357,-0.6221115,0.8717879,0.03163726,0.10094134,0.82559955,-0.40340984,-0.5752231,0.17321855,0.28844717,0.119319506,-0.31965476,-0.8834777,-0.37875107,0.54692006,0.80505115,0.3547273,-0.112763815,0.8865749,-0.47398812,-0.681474,0.14828646,0.63623327,0.38765016,0.78565025,-0.17996667,0.14029612,0.9101386,-0.43761224,-0.16641176,-0.41735968,0.7317432,0.036108796,0.9202902,-0.251187,0.71736914,-0.27326462,0.49171427,-0.81361145,-0.87067467,0.6173134,-0.7564701,0.30354398,-0.7564408,-0.33281657,-0.2752871,-0.80356866,-0.36728078,-0.37537995,0.9138906,0.5313967,-0.20562458,-0.49052218,-0.96636415,-0.7383471,-0.3571813,-0.9158356,-0.403165,0.48277465,0.62104297,0.6353833,0.7448504,0.5327156,-0.8548892,-0.33075705,0.7881272,0.01738384,0.8771679,-0.5502459,-0.3851457,0.7315739,0.5697728,0.7677668,0.62130976,0.50583065,0.9704534,0.9806269,-0.5176429,-0.042847745,-0.040657975,-0.908237,0.49029818,0.11195958,-0.15982331,0.0566084,-0.42924687,0.4201904,0.61837894,-0.8164159,0.301075,-0.6215428,-0.8265146,-0.1907166,0.9360791,-0.58765364,-0.5652046,-0.5012584,-0.22590253,-0.45568162,0.39484903,-0.8073379,0.40772393,0.33710614,-0.80296445,0.030812584,-0.4009083,-0.89082944,0.09960265,0.3797211,0.49371663,0.38476753,0.23542656,0.48180726,-0.28969762,0.5680231,-0.35204706,0.051649313,0.7577848,-0.35582066,-0.20461178,0.3028114,-0.78853345,0.12267288,-0.47111303,0.37966156,0.57305354,0.5569477,-0.5082162,-0.008782007,0.2879227,-0.17732887,-0.8250061,-0.68428624,-0.18056011,-0.68816906,-0.41129568,0.39297727,-0.6470895,-0.8740672,-0.32659322,0.6207959,-0.28940308,0.86899275,0.63624865,-0.865396,-0.120950185,0.44791648,0.70733696,0.6271076,0.04591574,0.554195,0.5861609,0.93888026,-0.07498425,-0.3717043,-0.4975321,0.50209016,-0.45680994,-0.6343714,-0.8044699,-0.19658343,0.16709316,0.12975056,0.14288644,0.5801308,-0.052675452,-0.51037306,-0.24713528,-0.09214458,-0.58333594,-1.0118353,-0.10440359,-0.9626793,-0.28240255,-0.39654204,0.26295283,-0.8647452,0.6880726,0.35672328,-0.3520154,-0.8843961,0.123323485,-0.7999687,-1.011188,-0.4576429,0.04871797,0.5006937,-0.4892354,-0.18761078,0.59435576,-0.15221676,0.44138953,-0.4581469,0.3506788,-0.19416367,-0.034418374,0.034337517,-0.84114647,0.42764774,-0.91152596,-0.23393007,0.52008086,-0.11828121,0.68319273,0.16015816,0.1016845,0.9033389,0.6725818,0.7074413,-0.18837278,0.012195743,0.22209936,0.07677046,-0.39690942,0.77245504,0.06846701,-0.9601374,0.5039855,0.31121388,0.4171872,-0.26510137,0.7188765,0.7412535,-0.06520082,-0.24942364,-0.26016143,-0.36466518,0.94094,0.72813946,-0.47289774,-0.11739414,-0.576043,0.9378814,-0.98764795,-0.17316887,0.79283166,-0.91007805,-0.46076652,-0.07314239,0.5737073,-0.8013556,-0.41174462,-0.7682282,-0.021779327,-0.49593723,-0.15238422,0.15129782,0.61299604,-0.38974223,0.77305466,-0.26563007,0.18298706,-0.22086993,0.32486182,-0.75862074,0.51049787,0.84445703,-0.33522272,-0.6258302,-0.91927713,-0.6141052,-0.43167636,0.64773387,0.6195453,-0.07946322,-0.81288683,0.9525794,0.6519837,-0.44116244,0.51574326,-0.82277083,0.38494876,-0.7369424,-0.4422217,0.3133541,0.70785207,-0.95326716,-0.84563947,0.06081461,-0.75096494,0.69912654,-0.056129232,0.82478946,-0.19494814,0.6349002,0.60944474,-0.7438413,0.14995931,-0.8030094,0.47972795,-0.8433858,0.28370067,0.84424496,0.7619403,-0.35895962,-0.573029,-0.2983427,0.5334434,-0.72565794,0.9667672,0.15671824,-0.5324991,0.092380695,-0.7350287,-0.29892522,0.063851215,0.077022396,0.044589605,-0.48335972,0.7386627,0.77850693,-1.0143442,-0.15897475,0.9261744,0.6946364,0.56232893,0.34150392,-0.047843233,-0.9171631,0.48028615,-0.7911441,0.7634232,0.2650636,0.88339674,0.4855066,-0.6358964,-0.63586265,0.42647249,-0.8294515,0.3643517,0.22140872,0.1882433,0.7287513,-0.78906494,0.93279505,0.85056895,-0.9121267,-0.62501884,-0.90584546,-0.7456339,0.5693657,-0.15375623,-0.38650694,-0.61188066,0.39491692,0.36657232,-0.62587184,-0.8682199,0.2937068,-0.014205354,0.32392624,-0.036697317,-0.08378641,-0.024181955,0.76451534,0.5319811,0.90335816,0.59591603,0.8638212,0.832605,0.83273494,-0.8969586,0.6813254,0.5738556,0.7355926,-0.53808063,-0.9982039,0.7077248,-0.88950104,0.85496473,-0.568407,-0.69261044,-0.11039716,0.813175,-0.7907922,0.91549015,-0.2890292,-0.20152637,0.10841731,-0.16573633,0.07767576,0.80578995,-0.55242944,0.72029036,-0.1479307,0.024192464,0.11819625,0.83164895,-0.6563598,-0.321984,-0.6427839,0.38418722,0.004092336,-0.923948,-0.36839718,-0.810477,-0.93493205,0.6629326,-0.4748381,0.92965055,0.2634766,0.5812565,-0.4864527,-0.83731574,0.49691617,-0.23796989,-0.19188866,0.5019847,0.32815644,0.16745184,-0.25341192,0.062454693,0.98102707,-0.97817504,-0.39354554,0.9754771,-0.45915297,-0.461989,-0.2011029,-0.09236972,-0.23858492,-0.8792899,-0.7486337,-0.5336083,-0.7065027,0.009552164,0.22706407,-0.4413523,-0.28070858,0.9317338,0.79596686,0.14729303,-0.91276884,-0.14989124,0.19899239,0.6073575,0.025380524,-0.4086909,-0.14487542,-0.8217587,0.50752705,-0.13474244,0.7103459,-0.81828976,-0.37396517,-0.006312333,-0.49126208,0.9216294,0.3916324,0.28382587,-0.67160904,0.48645243,0.80881,0.657896,0.7214281,0.6255801,0.2983337,-0.24646758,0.8524781,-0.23600419,0.9573136,-0.37429598,0.00047887838,-0.20945607,0.22853923,-0.5147956,-0.033467263,-0.4129367,-0.91735256,0.23626225,0.7970951,0.2552961,-0.1515142,-0.6200238,0.25988,0.071861446,0.6510354,0.3159059,-0.05806582,-0.8777163,-0.7260131,-0.5393491,-0.017358204,0.040571645,-0.90025157,0.9584992,0.5843174,0.11965789,0.005700507,-0.39837614,0.7304915,0.50696325,0.26748145,0.08362629,-0.7851433,-0.5928432,0.52882785,-0.2784601,-0.9261719,-0.6727415,-0.90900636,0.23002993,-0.02799973,0.5142789,-0.08803213,-0.49895164,0.26208776,0.598004,-0.98755103,0.33801234,-0.849016,0.24043944,0.76294875,-0.88753664,-0.834645,0.78500396,0.1285442,0.6610016,0.44787416,0.43996534,-0.22030465,-0.6804436,-0.48334354,-0.097611375,-0.87064373,-0.012890456,-0.05814895,-0.49532464,-0.92645276,0.36310107,-0.7090249,0.34324357,0.90437573,-0.35995668,0.3706783,0.86416775,-0.080962755,0.075563535,0.025059653,-0.9177237,0.85149455,0.22525363,-0.7817862,-0.86802244,0.40455735,0.7886116,-0.9621392,-0.83092535,-0.11006735,0.42753068,-0.18782881,-0.4034433,0.74585485,0.45268244,0.7472574,0.8265609,0.5997528,0.7056673,0.39328516,0.07039918,-0.19403863,-0.094993606,-0.11990848,0.024842963,0.6701104,0.20128061,0.47484675,-0.89486545,0.6123791,0.72303605,0.7228956,-0.27027813,-0.5827299,-0.15182312,0.17739855,0.85146296,0.29712906,-0.24372953,-0.2868345,-0.12046338,-0.7671202,0.70403206,0.9281892,0.629885,0.50092787,0.15982293,-0.33487555,-0.732014,0.22653125,-0.5942514,0.5209634,0.270036,-0.03778072,0.65613633,0.2792665,-0.42666486,0.26426157,-0.50288117,0.1289732,-0.22062753,0.08049313,-0.73519754,0.8718463,0.016811093,0.24167524,0.42642334,-0.75756294,-0.13511322,-0.41399372,0.16585127,-0.13500066,-0.07327542,0.33935434,0.4841321,-0.89496064,-0.22186978,-0.17396003,-0.10344809,-0.46864137,-0.80243874,0.24599248,-0.68526036,-0.09014423,0.13500698,0.2313352,0.97348946,0.06386112,0.8418266,0.15985456,0.7974055,-0.72683305,-0.18576884,-0.19188347,0.22788756,0.41884062,-1.010243,0.62850845,0.8303547,-0.6078798,0.5162142,0.26204175,0.22131573,-0.13699912,-0.06622858,0.08056199,0.89495873,-0.5428736,0.35768732,0.28185055,-0.116947144,0.45532486,0.86308604,-0.7883247,-0.83194244,0.98284256,0.5583577,0.60719675,-0.81018806,-0.39992774,0.40413383,0.5754701,0.9185739,0.7027366,-0.7119986,0.4059675,-0.6199566,0.2762562,-0.52320814,0.3590423,0.17437541,0.5945709,0.58052117,-0.7054041,0.5550648,-0.8233153,-0.30839774,0.18258426,0.51075596,-0.935578,0.017345328,-0.77440715,-0.44677266,-0.4439592,0.7602601,-0.8407798,-0.97537714,0.020060632,0.07615362,-0.2052807,0.84112173,0.95950556,0.30515736,0.29249784,-0.46365234,0.43201122,-0.1949361,0.5353585,-0.67094874,0.31845295,-0.030059956,-0.1989741,0.70092577,-0.73173714,-0.1596499,0.29374054,0.63302666,-0.6589325,0.18186271,0.12775758,-0.346013,0.3135441,-0.3726401,0.9268542,0.52304405,0.6731382,-0.7176438,-0.19498971,0.80565333,-0.17507166,-0.4473615,-0.38195428,0.8217137,-0.17858481,-0.71107036,0.007638525,0.34140635,-0.15051153,0.21545169,0.44195265,-0.55814654,-0.4780514,0.48958534,-0.29440114,0.50720763,0.18004538,0.1231897,-0.22557437,-0.51592475,-0.9321642,0.39770782,0.84147406,0.45900443,0.17861712,0.8005646,-0.82008594,-0.4666259,0.67448604,0.33638683,-0.7606771,0.55239075,-0.41223404,0.16821434,-0.7482576,-0.2564981,0.026970714,0.27194053,0.8863046,0.65438914,0.020825999,-0.6552263,-0.27093402,0.5143537,-0.049533036,-0.57825696,-0.6917835,-0.15731154,0.453787,-0.75198525,0.3210596,-0.24792136,0.86910045,0.21236163,-0.81350154,-0.6018139,0.5365512,0.15034111,0.7769612,-0.22622597,-0.037176605,0.23862599,-0.02813389,-0.7474065,-0.74170184,-0.5863495,-0.2970654,0.8409252,0.40541044,0.106812686,0.95141095,-0.06231846,-0.14542706,0.80969906,-0.9027369,0.17718141,-0.6388754,0.14356248,-0.34630892,-0.7869198,-0.45946023,-0.39419612,-0.8331091,0.19708021,0.56983334,0.8976855,-0.34228942,-0.32396084,-0.96718335,0.4522883,0.24284881,0.75033975,-0.9348778,0.53554076,0.9153019,-0.614414,-0.3277431,0.24172066,-0.073003784,-0.23276615,-0.9704758,0.42158177,-0.32646498,-0.33976197,0.62324136,-1.0127163,0.49850926,-0.043364286,-0.65701514,0.3873738,0.23249763,0.1134102,0.041402344,-0.8985273,-0.7246409,-0.515287,0.6660769,-0.7967509,-0.048155237,0.63721013,-0.12827104,-1.000585,0.02138561,-0.312803,0.44846684,-0.8523133,0.219063,-0.34830043,-0.59033656,0.14315756,0.7911305,0.6381866,-0.48324275,0.1889494,0.56414455,-0.51043403,-0.3647798,-0.8874628,-0.03360282,-0.8383361,-0.66295063,-0.11876622,-0.8233455,-0.20373458,-0.58336157,-0.43031013,-0.8393616,0.5591972,0.050953355,0.36654744,-0.028035104,-0.6097882,-0.63838094,0.87250096,-0.59539723,0.24312626,-0.61910623,-0.87315744,-0.42428145,-0.5676224,0.07850406,0.537771,0.9099763,0.5842989,-0.25911707,0.30923703,0.26904792,-0.63462067,0.14599435,-0.5575767,0.69894624,0.17644316,0.06391729,-1.0012333,0.39816168,-0.81892073,-0.82666886,-0.16657223,-0.5395179,0.93718857,-0.8521899,0.24185477,0.86233693,0.23431976,0.5347743,0.5975502,0.25797224,-0.92744577,-0.045637608,0.92432296,0.72891676,-0.31450835,-0.23512718,-0.36865184,0.39507672,-0.51623183,-0.8364852,-0.08374374,0.90469956,-0.6982253,-0.6802206,-0.15995742,0.14640279,-0.42374012,0.026259305,-0.5458297,-0.7680732,-0.59369665,-0.600192,0.37451544,-0.7176643,0.03916702,-0.46855164,-0.19768733,-0.02226179,-0.060141362,-0.6273141,-0.085159615,0.9766715,0.77252036,0.19815591,-0.55918324,0.3817348,-0.05875233,-0.43940714,0.17886372,0.9469302,-0.08313068,-1.0000736,0.102649435,-0.42214727,-0.015447089,-0.89512336,0.7313882,-0.68388367,0.6718444,0.8464777,-0.050416972,-0.6670562,-0.96148914,0.5462061,-0.2085382,0.6271061,0.54129595,0.023075052,0.053050198,-0.19746627,0.26517093,-0.08672832,0.7986451,0.26114848,0.16500705,0.42469364,-0.71275467,0.4493858,0.12714131,0.19759405,0.25936213,-0.1983612,-0.18542811,-0.73835284,0.65130126,0.8282559,0.5264561,-0.9824871,0.75165206,0.6671609,-0.6889278,-0.21774966,0.6594204,0.12621418,0.9089157,0.01802352,-0.95118827,0.45186493,-0.76823795,-0.6611076,-0.8631731,-0.73648804,-0.07169141,-0.4630701,0.34371614,-0.9038866,-0.13263796,0.45730108,-0.2762061,0.26799542,-0.522166,0.08834102,0.65295064,0.93901515,-0.35404965,-0.08022187,-0.23081708,0.89319354,0.68661326,0.041938912,0.070591405,-0.21852098,-0.027105587,-0.97292733,-0.58950764,0.8792453,-0.5808702,0.7395962,-0.4922623,0.2172645,-0.17264554,-0.14762269,0.20874923,-0.9716452,0.5616754,-0.25676268,-0.2835208,-0.5792061,-0.45229512,-0.98535943,-0.9933276,0.9684639,0.12148462,0.55323416,-0.4579372,0.3114901,-0.54414177,0.78069276,-0.44441694,-0.4913384,-0.2220373,-0.3331703,0.2435182,-0.59024924,-0.61725223,0.84029126,0.66583604,-0.9542895,0.7327009,-0.033455968,-0.8422434,-0.44654074,-0.32473883,0.80910796,-0.18633024,-0.6782853,0.19262731,0.36086345,-0.45666748,0.31784472,-0.09778725,0.39744347,0.21031564,0.9668529,-0.44399074,0.69967324,0.8260908,-0.07122354,0.099540606,0.18424891,-0.72359395,0.868218,0.42604414,0.108935416,-0.09821154,-0.2980041,-0.25176862,-0.09623756,0.16156693,0.68134093,0.6783158,0.28460598,0.13214947,-0.1074839,0.43761307,0.76917565,0.84139013,-0.3932592,-0.8528922,0.6348936,-0.10428306,0.6540258,0.41648424,-0.300374,-0.35666904,0.042652044,0.044530306,0.6040475,0.48975095,0.66772753,0.51745796,-1.0033511,0.10602923,-0.0112409815,-0.088236526,-0.9710374,0.6834499,0.06199534,0.21525559,-0.28843552,-0.25438645,0.26661292,-0.5372716,0.46392113,-0.9251765,-0.12965816,0.013377504,-0.799926,-0.70483595,0.82256526,-0.31540647,0.3431177,0.35973966,-0.032320723,0.9374792,-0.08614345,0.21017681,-0.5679496,-0.59609795,-0.5918762,-0.2946057,-0.48693275,-0.3728856,-0.8740489,-1.0076406,-0.7365528,-0.91408825,-0.88878995,-0.626738,0.07469924,-0.19184895,-0.5808647,0.06344163,-0.34142247,0.97301126,0.84414536,-0.34302938,-0.26680118,-0.69920546,-0.7170182,0.34001362,-0.9776017,-0.09210271,-0.19358167,0.21095793,0.24445656,0.31306496,-0.36108527,-0.24946266,0.012011073,-0.38262245,-0.3725001,-0.6803617,0.369889,0.044032946,-0.6024857,-0.05440102,0.11413759,0.8718973,-0.9943233,0.65005225,0.50058687,0.89711756,-0.8520523,0.43308544,0.6027431,-0.21319935,-0.73238105,0.7519712,-0.04634906,-0.15954496,0.34717834,-0.81975657,-0.017420227,0.5321745,-0.7120938,0.5764432,-0.24658772,0.67171454,-0.7699223,0.30701792,-0.038132712,0.78314227,-0.8731152,-0.31432027,-0.83461446,0.5760619,-0.8463922,0.4008435,0.5702768,0.8194923,-0.46585467,0.95107865,-0.09592327,0.47512072,-0.4655836,-0.41462386,-0.6358593,0.3188501,0.54197776,0.28209123,-0.34202597,-1.0130923,0.91852975,0.90094095,-0.21521789,-0.1082485,-0.92129654,0.06769784,-0.36651492,0.93228424,0.9775972,-0.15110041,0.5191239,0.26537034,0.5023304,-0.89009434,0.20349236,0.22422397,0.78720623,0.20062234,0.85165673,0.68125325,0.6100729,0.15115134,0.085700266,-0.010318281,-0.9851107,0.31684077,-0.53376013,-0.46311125,0.8382665,0.97525346,-0.058175758,0.8757656,-0.27980542,0.6801522,0.33180022,0.63118684,0.77402365,0.18169068,0.2843035,0.5333667,0.06117216,-0.9204133,-0.84116226,0.41232494,-0.8508079,0.6153541,0.19077536,-0.14932206,0.28457126,0.56477284,-0.28992158,0.39468315,-0.7359039,-0.679489,-0.16683102,0.8551349,-0.1795035,0.97111905,-0.71897817,0.5268952,-0.73457384,-0.17770818,-0.5225978,-0.78010386,0.48357868,0.4772878,0.6882691,0.20555268,-0.39300427,0.15433756,0.5438676,-0.7387019,0.49821073,-0.5894176,-0.7986672,-0.7290087,-0.70196587,-0.986773,0.6153681,0.83489186,0.18025625,-0.67563033,-0.6420655,0.38336536,0.45099086,-0.48743922,-0.21631707,0.57657284,-0.3427863,0.34200507,-0.046400633,0.72088915,0.2479491,-0.8223958,-1.0003037,-0.80096686,0.9416197,0.6647003,-0.57580584,0.4691387,-1.0122747,-0.28156826,0.8351548,-0.6258569,-0.4236296,0.16642497,0.16291435,-0.2951802,-0.28701445,-0.3972326,-1.0056115,-0.27085894,0.6038214,-0.5511989,-0.7399594,0.89350486,-0.9813745,-0.71520436,0.5111387,0.005199433,-0.55465466,-0.35542974,-0.70384383,0.77933615,-0.30800527,0.048246257,-0.5686003,0.7729566,0.7037826,-0.88874286,0.09921031,0.0105428295,0.40217108,0.94131005,0.90265465,0.7331903,-0.40450945,-0.48664168,0.23969959,-0.94964665,0.2586881,0.053774644,0.85430384,0.82532823,0.24175271,0.8052638,0.3631118,0.15087119,0.58102566,0.1838345,-0.23454665,-0.5861117,-0.15024436,-0.86402804,-0.992793,0.7751758,-0.7129827,0.86691016,0.9128364,-0.14582026,0.5633227,0.40143576,0.31582138,-0.23699726,-0.13901465,-0.6465581,0.6139418,-0.0031797574,0.87557924,0.90449643,-0.4537254,-0.9755036,-0.11173776,-0.9114434,-0.84118754,0.6382686,-0.7591694,0.9030469,-0.44014996,0.36888167,0.4118296,-0.6687072,0.69365835,-0.5916104,0.35311273,0.8058268,-0.117895216,0.29544303,-0.64346313,0.80009055,-0.9088325,-0.3795257,0.19848658,0.7133872,-0.1744133,-0.45767665,-0.5684499,-0.4196267,-0.18169129,0.0634896,0.9831966,-0.4741638,-0.6957593,-0.60754764,-0.34416643,0.38237566,-0.99472773,0.56805086,0.6671167,0.7211645,0.71317846,0.18371288,-0.2814328,-0.6313514,0.39042377,-0.7212708,-0.2178735,-0.8007143,-0.584088,0.012147058,-1.014667,-0.18444194,0.43363693,0.402453,-0.68408465,-0.070420355,0.6694771,0.6954812,0.15863726,0.5093575,0.014781974,-0.8207047,-0.33380416,-0.48073375,-0.27226862,-0.0057225064,-0.031050202,-0.8422284,0.45193335,-0.7623557,-0.91539156,0.52882236,0.06561646,0.3463182,0.48269814,-0.2736928,0.23867632,-0.6273753,-0.6689236,0.21508959,-0.8917232,-0.15253338,-0.59627116,0.12080628,0.268314,0.5446483,0.48138323,-0.2625412,0.06661231,-0.8490157,-0.68204796,0.44266883,-0.29014492,-1.0020572,-0.45159528,-0.30795348,0.6821868,0.40037325,0.2968388,0.37142718,0.09483245,0.7116687,0.21448544,-0.4084674,0.7766365,-0.35597524,-0.8144453,0.025261855,-0.3428311,0.21280281,0.3948147,-0.7290479,0.19457623,-0.09980494,0.18006973,0.3030633,0.1939471,-0.6465145,-0.18638134,-0.96310264,-0.7722341,0.9401688,0.72662157,-0.9198852,0.19205788,-0.6247312,-0.48991215,0.4982105,0.5368939,0.938842,-0.22278126,-0.8601991,-0.886217,-0.62223905,-0.75756156,-0.7572631,-0.71081465,0.30741057,-0.02844047,-0.40121955,0.55706114,-0.3128657,0.9151656,0.8000288,-0.5313753,0.15530245,-0.39247462,-0.43704888,-0.6643553,-0.535976,-0.46730572,0.38885805,0.4432476,0.0662268,-0.36209336,-0.5483343,0.74052256,0.9532587,0.38829064,0.386824,0.5220426,-0.9242148,-0.8088354,-0.7784888,0.2703702,-0.06267081,-0.88667583,0.85169303,-0.38187733,-0.35492083,-0.76453376,-0.7020523,0.32800826,-0.92680484,-0.13738191,-0.6928334,-0.026760897,0.54575056,0.559779,0.08489236,-0.017444313,-0.39952195,0.47370857,-0.4414008,0.2012345,-0.3495831,0.907828,-0.7797485,0.52995044,0.64439917,-0.39716697,0.3407589,0.13942377,0.43915796,-0.5971512,0.067555144,-0.30164206,-0.9790924,0.68070596,-0.45762923,0.36647332,0.6450833,0.14206254,0.17962706,-0.15367484,-0.44467062,0.7020761,-0.075864844,-1.0049027,0.7799983,-0.8198671,0.47540823,0.4411152,0.42172918,0.4078454,0.1954696,0.93159616,0.92504877,-0.40146804,-0.007280344,0.85703427,0.9514191,0.39216354,0.41989723,0.23577715,0.00859343,0.8817555,-0.06330987,0.90286434,0.76899904,0.43334165,0.8310685,0.14154632,0.60091645,-0.8759326,-0.06807053,-0.21969661,-0.74397486,0.07336873,0.53111655,0.78417194,0.02224741,-0.86515564,-0.64151895,0.6976455,0.7038442,0.7167675,-0.021128124,0.7166694,-0.37022606,0.4377005,-0.5130916,-0.10177216,-0.4499379,0.57675606,0.31937677,0.008922887,0.46859384,0.8893834,-0.06470099,0.6562069,0.96559066,-0.036430612,0.0480387,0.7383887,-0.40980455,0.6243006,-0.6259108,0.09313931,-0.60664487,-0.7774407,-0.6190153,-0.6181654,-0.8610859,0.5179573,-0.5499951,0.10183992,-0.67060554,0.50171316,0.2720028,0.058827933,0.10871936,-0.39338192,-0.28354365,0.5963961,0.5680516,-0.89206296,0.15915431,0.048911177,-0.58614826,0.3537243,0.6581455,0.81814873,0.45652962,0.24489123,0.8153107,0.071012184,0.30356064,0.9551744,-0.334504,0.6877803,0.9143024,-0.45634654,-0.42198446,0.13350306,-0.69287616,-0.33988357,-0.25745547,0.89646804,0.5167852,-0.9666893,-0.37457022,0.71268576,-0.48654398,0.40518415,-0.57905495,-0.0879793,0.3047038,0.693664,0.5580404,-0.8138838,-0.1474279,0.80135465,0.8140781,-0.4925526,0.6039544,0.690123,0.415308,0.9532942,0.7943202,0.8858407,0.21464795,0.815883,-0.9118805,0.028855603,0.118982844,-0.7331354,0.6547106,0.6128247,0.26004177,-0.28449872,0.10821625,0.009748719,0.17276104,-0.12546776,-0.48359466,0.87525564,-0.7287154,0.89626235,-0.042478394,-0.067314334,0.5893222,-0.10206332,-0.77708966,-0.48500207,0.61204886,0.46483374,0.40387645,0.946424,-0.26647267,0.9448589,-0.44108614,0.9801594,0.31472173,0.1630841,0.45639923,0.16967241,0.05171406,-0.35030466,0.48195308,0.7264047,-0.7535418,0.8150756,-0.97520024,-0.120341405,-0.19425252,-0.1662713,-0.44968912,-0.84599245,-0.48251545,0.5817962,0.94908744,-0.828805,0.4470624,0.30211458,0.8504105,-1.008247,0.034383997,-0.5202591,-0.49010456,0.1826684,0.27716345,-0.7355669,-0.15193577,0.30041444,-0.4462689,0.5659179,0.2782084,-0.505076,0.35312334,0.23039968,0.97358996,0.5365962,-0.56194574,-0.9596748,0.6695819,0.43261027,-0.54203534,-0.55870223,0.5976919,-0.13994054,0.13664836,-0.03274721,-0.5938973,-0.60494804,0.25919417,0.18522848,0.54126334,-0.60077477,0.5518585,0.27911547,0.09532707,0.91141677,-0.52359027,0.13745134,0.32686654,-0.41367942,0.92177033,-0.7082751,0.16866647,-0.40650225,-0.19520605,-0.6851165,-0.37813988,-0.14197604,0.4717627,-0.7790648,-0.46979782,0.09459427,0.0871022,0.71679103,-0.21305914,-0.39749202,-0.93976235,-0.3331558,-0.999191,0.4248918,0.37614602,0.22117558,0.17581622,0.42215523,-0.6093206,0.08976319,0.19863768,0.052467085,0.69586056,-0.24360318,-0.35345858,0.41043407,-0.9780978,-0.7658321,0.7757652,0.17196345,-0.25588548,0.2156822,0.4197768,-0.112339936,-0.8218704,-0.32504812,0.9182514,-0.56167614,-0.7036656,-0.91209877,0.9511293,0.22213626,0.63261884,-0.9987383,0.18357387,-0.78510416,0.91017044,-0.4672238,0.5555576,0.20865576,0.16081896,-0.62260467,-0.21797389,0.92183894,0.4445572,-0.35394707,-0.6900332,-0.640265,-0.033215687,-0.21426624,0.42284077,-0.55909926,0.18509889,-0.7794392,-0.21435459,0.5894772,0.9041143,0.9249948,0.58999956,-0.9821487,0.55982435,0.66814065,-0.421029,0.70667636,-0.87495583,0.404645,0.92787373,-0.87492096,-0.12706469,-0.7140598,0.43846142,-0.79866827,-0.42359015,0.35114223,0.4519542,-0.79454494,0.6859331,0.3132719,0.7266573,-0.7593087,0.22081752,0.6094375,-0.21910812,-0.4039952,-0.07529411,0.7123623,-0.88282067,-0.06413331,-0.16247843,-0.44500628,-0.57868034,0.09516857,0.8254044,0.8854726,-0.30190772,-0.37430006,0.6125033,-0.51090366,-0.8084305,0.5804958,-0.9671723,0.48439193,-0.36717668,-0.96733135,-1.0047858,-0.27101764,0.45728177,0.81276083,0.035388872,-0.0030351453,0.6509354,-0.1665973,-0.30680498,0.36129814,-1.0092282,0.6282443,-0.8043635,0.71469134,0.5649454,-0.4666466,0.5608303,-0.87768906,-0.11254944,-0.4299613,0.6992246,0.35981652,0.11861239,0.9192171,-0.09266063,0.22949517,-0.87480086,0.304395,0.6848615,-0.70577407,-0.286599,-0.79505867,-0.9483208,0.88694704,0.26357663,0.1331485,-0.41493767,0.483009,-0.18590227,0.7438445,0.9580639,0.84334177,0.34856904,0.79792804,0.6346371,0.1342594,0.050851762,-0.300564,0.106561184,-0.8726569,0.58096105,-0.5921175,0.38248843,0.040792447,-0.2059943,0.1699987,-0.9867165,-0.18795805,0.483089,0.37949497,-0.32444847,0.3834182,0.06575606,-0.8980686,-0.45112407,0.018962862,-0.11069329,-0.2957358,-0.16192335,0.42565644,-0.057167076,-0.24027655,-0.75941336,0.71613276,0.0507691,-0.871899,-0.8129572,-0.4641869,-0.4705423,-0.5237487,-0.1803219,0.12554751,0.9759622,0.9483328,0.94281083,0.5295829,0.68060213,-0.6774311,0.9650084,-0.8680202,-0.93869597,-0.60897493,-0.15756941,0.3887212,-0.15497424,0.91922915,-0.1319409,-0.551159,0.60956824,-0.053313546,0.032746118,0.44495627,0.11030097,0.15163757,0.13992992,0.1465366,0.30334097,0.85438424,0.11985093,0.58594596,-0.25436872,0.8180369,-0.6427968,0.38997227,-0.23017755,0.45907313,-0.3655652,0.013260739,-0.8672058,0.6877018,-0.26775256,-0.47358268,-0.9643574,-0.577479,0.38498375,-0.48475,0.39399433,-0.9242299,-0.48075634,-0.8963195,-0.46606094,-0.7855976,0.62581944,-0.84114623,0.49429202,-0.27722698,0.5638345,0.6512651,0.66160727,-0.8595837,-0.91073906,-0.2516855,-0.5341097,-0.32856458,0.37806654,-0.14932148,0.5503207,-0.10150028,0.047340117,0.6276741,0.3257785,0.1963002,-0.73429567,-0.54092705,-0.8176903,-0.6112932,-0.45684206,-0.6130785,0.30660123,-0.41046074,-0.98591924,0.6172551,0.5375283,0.7392256,-0.34355003,-0.8651632,-0.9452999,-0.7449781,-0.269396,-0.2273723,-0.8731115,-0.37702987,-0.44624957,0.7716172,0.8452702,0.23254122,-0.40285495,0.3584332,0.14424479,0.07119965,0.015769439,-0.14347553,-0.54907393,-0.6464809,0.79159397,-0.94482416,0.79449743,0.54039145,-0.53009105,-0.84776586,-0.4367173,-0.8153659,-0.185064,0.8600019,0.49720708,-0.056784928,-1.000428,0.58355105,0.2437609,0.81120247,0.1668354,0.8737549,-0.77829474,-0.4907792,0.9805506,0.9548992,-0.65295094,0.08750213,0.7410991,-0.46435973,-0.25546852,0.9758855,0.5887019,0.062620275,0.6671727,-0.5730712,0.86909354,-0.50554377,0.11201152,-0.79336447,0.2147962,0.8646094,0.4301903,-0.8565965,-0.8550321,0.36463663,0.08540301,0.93214923,0.3214747,-0.61372226,0.67081344,-0.107608646,0.33562738,0.22754759,-0.35888636,-0.31784,-0.47549683,-0.7580248,-0.21835218,0.6641527,-1.0120659,-0.80335027,0.21973339,-0.7933468,0.7492608,-0.88886964,-0.6114024,-0.02142781,0.84892046,0.14509632,-0.9125309,-1.0095528,0.63992333,0.8446823,0.60323185,-0.102667645,0.32109538,0.44111577,-0.31860498,-0.8088601,0.40318063,0.9080481,0.29538888,-0.41287193,0.9743357,0.014194252,0.23665507,-0.297786,0.5970736,-0.46200138,0.21082723,-0.8965466,0.26752877,0.29648474,0.4776971,0.86882055,-0.059829045,0.6168499,0.2029972,0.83624583,0.22926249,-0.61915046,-0.21972196,-0.52702796,-0.4528338,0.39036196,0.2365441,0.7096933,-0.5840614,0.8146078,0.43105197,-0.080003306,0.12066663,0.3490075,-0.59339803,-0.19131283,-0.2772428,0.28414828,-0.59717256,0.086837746,0.25404555,-0.85572284,-0.99332523,-0.058257956,-0.09430883,-0.73765004,-0.38027388,-0.3663139,-0.27068323,-0.5766891,-0.5671677,-0.58663595,0.72989,-0.4139229,0.21407463,0.35175368,0.47405177,0.6576754,0.93035156,0.17732517,0.7167404,0.03381696,-0.3839433,0.23829053,-0.12483038,0.7069801,0.2049471,-0.08830246,-0.94415414,-0.12600094,-0.7987266,-0.6266189,0.36147055,0.8582932,0.6237985,0.8248516,-0.602953,-0.9138599,-0.3271863,-0.5294337,-0.25586674,-0.718893,0.15566045,0.9227998,0.102002114,-0.22763537,-0.82663,-0.28813964,-0.72639483,-0.49159,-0.2578901,-0.44560024,-0.16343643,-0.48263493,-0.9825206,-0.6493161,-0.8920647,-0.48354965,0.5962773,0.14551036,-0.39962077,-0.9794521,-0.014905032,-0.4369203,-0.616014,-0.8269188,-0.2502615,0.81275153,-0.58769,0.73057926,0.27973664,0.75906163,0.70566946,0.5431007,-0.879865,0.07927604,0.66970414,0.14798549,0.2641185,0.4834447,0.043398105,0.46034387,-0.11373508,-0.16958828,-0.6405128,-0.97806907,-0.103401616,0.582789,-0.51363635,0.86966056,-0.9787034,-0.5161125,-0.696601,0.458329,0.981844,-0.360802,-0.61815155,-0.30382738,-0.14367186,0.37676415,-0.10747615,-0.7931207,0.6334662,-0.031392112,0.0821354,-0.042747755,-0.086540215,0.6190868,0.80892736,0.85293776,-0.23314933,-0.61309946,-0.24733102,-0.7334702,-0.16980678,0.30452082,0.33013204,-0.5910695,-0.77172536,0.3305338,0.15377137,0.3172658,-0.6434238,-0.044647567,-0.9831944,-0.7861737,-0.7711997,0.459458,0.014355974,-0.56731194,0.7115691,0.9344753,-0.766746,0.48563042,-0.81285703,0.2633513,-0.48801184,0.51786256,-0.08012565,0.5870245,0.4691981,0.25277057,0.0033476122,-0.4104447,-0.9660358,0.7794987,-0.70507675,0.568097,0.06399323,-1.013175,0.51998186,0.106871836,0.75882065,-1.0070542,-0.2559078,-0.28689754,0.849296,-0.39795884,-0.84004676,-0.10867853,0.07600886,0.92813444,0.41571403,0.9794373,0.49521756,0.63761324,-0.07044975,0.9170978,0.86821336,-0.49952102,-0.36647224,-0.41965717,-0.36240256,0.0796035,0.45409733,-0.7821512,-0.18918397,-0.7193487,-0.25328368,-0.8429709,-0.008627321,-0.7879359,-0.047661666,-0.04441402,-0.98273146,-0.5290758,0.09097894,0.60404325,0.6479141,0.6480824,0.0087735085,0.5782205,-0.4598404,0.22163776,0.19062047,-0.11795849,0.20715743,-0.83258796,-1.0049695,0.6491421,-0.03604349,-0.15596724,0.32631922,-0.5109526,-0.68886656,0.845705,-0.7918922,-0.14980285,-0.51758456,0.897546,0.9811298,-0.29870147,0.4613699,-0.88656855,0.06783538,0.38629615,-0.16177677,0.28995287,-0.31364408,0.7429454,0.023305753,0.34645936,-0.5120773,0.9584751,0.1511973,-0.6541047,-0.7174719,-0.38549128,-0.33088988,-0.38631728,0.35163826,0.74251103,-1.0022995,0.7584569,-0.35906795,0.80742204,0.75995743,-0.5543161,-0.5809255,-0.22180615,-0.14991273,0.2832049,0.6351748,-0.21443139,-0.16716063,-0.6941712,-0.48614636,-0.4040222,0.29195297,0.23660837,-0.03388952,0.30062148,-0.11585384,-0.6789852,-0.826789,-0.23191904,-0.22806038,0.771696,-0.56909436,0.603479,-0.72416,-0.20419171,-0.9449152,-0.76281005,-0.4493848,-0.5149122,0.62449384,-0.47766697,0.73959225,0.029522263,-0.11470765,-0.4788143,0.8342269,-0.8961518,-0.28158215,0.71071196,0.64228606,-0.037386548,0.97862005,-0.50868124,-0.0835675,0.43397844,0.5867092,-0.016301442,0.5239779,0.62678164,-0.11322728,-0.69013286,-0.26014182,0.70166093,0.94758254,-0.97416407,-0.1817067,0.06791639,-0.06543202,0.007939587,0.37556756,0.61595166,-0.6195671,0.5546292,-0.7385234,-0.8539094,0.60562456,-0.44604835,-0.83770406,-0.36142886,-0.9396936,-0.6647285,0.60034525,0.45429274,-0.6519726,-0.15161662,-0.83670723,0.5434829,0.08599294,-0.7793793,-0.2924959,-0.575954,0.5022658,0.763651,0.96851176,-0.058273815,0.25120658,0.12799071,0.15305229,-0.59912896,-0.7594822,0.8028855,0.29676297,0.9495641,-0.059756465,-0.11723026,-0.24887595,0.5342656,0.2547527,-0.15326451,-0.7943805,-0.4580079,0.6196504,-0.7492445,-0.81746405,0.42475295,0.3901873,-0.11705004,-0.08826641,-0.3523797,0.55806655,-1.0141143,-0.8331061,0.46996322,0.12086193,-0.23345375,0.69993764,-0.7096814,0.2716593,0.027979918,-0.46430242,-0.7272367,-0.25891396,-0.8295322,-0.688405,0.09374553,-0.051866237,0.0787167,0.9213345,0.050753407,0.21670303,-0.39768553,-0.45448512,0.4231295,-0.55530643,-0.16266413,0.01815047,-0.49409682,0.12172467,0.2189803,-0.39872864,0.5405715,-0.5714745,0.61337256,0.22751649,0.85837907,0.9456322,0.8302646,0.5963455,0.2860797,-0.09813954,0.98283833,-0.7705027,0.6756067,-0.19796297,0.8768338,-0.3875327,-0.76472247,0.46834907,0.63681185,-0.5876161,-0.113787726,0.2989957,0.5439279,-0.7033183,-0.7888006,-0.2334735,0.7221019,-1.006044,-0.0061199507,0.4436794,0.73078066,-0.7126362,-0.645526,0.27187383,0.539176,0.5285074,0.4781277,0.058818683,0.9559452,-0.22693145,-0.5029847,0.94282186,0.5189912,-0.39370275,0.39735633,-0.36569825,-0.08445679,0.048942458,0.703353,0.26969773,-0.62803155,0.566644,0.8234551,-0.3747096,0.6949469,-0.3819107,0.33550352,0.36721602,0.31978598,-0.8935422,-0.59606826,-0.37485066,-0.7358305,-0.50937325,0.68519926,-0.20892283,0.72225684,-0.03553869,-0.24381736,0.26065627,0.12737793,0.81668913,0.7439315,0.5717129,0.96025157,0.10624717,0.37932673,0.6916927,0.92206043,-0.16961828,0.72523654,-0.18022643,-0.37486428,0.96842563,-0.5783215,0.9289416,0.93563473,0.11475944,0.81747687,-0.37598082,0.7611533,-0.9830742,0.81092733,0.34909528,0.27627075,0.5971077,0.019850845,0.72790325,-0.07072992,0.29844058,-0.9095722,0.11583209,0.32683656,0.83049524,-1.0130168,0.92542875,-0.2106737,-0.24284281,-0.7616067,0.03867981,0.9259472,-0.49246746,0.115300424,-0.070174865,0.81866884,0.84017205,0.20306513,-0.68235594,0.35067853,-0.21250871,-0.24993254,0.18727735,0.89856476,0.6267656,-0.10032138,0.94058996,0.8900499,0.55448085,-0.005923543,-0.7587861,0.013917787,-0.86151683,-0.8699348,-0.5811914,0.5847977,-0.810232,-0.6168683,-0.50092226,0.050378937,-0.42269897,0.630794,0.5175527,-0.021607006,-0.8478542,-0.9298534,0.45574492,0.624144,-0.1722078,0.4552064,0.18363467,-0.656501,0.8851803,-0.49065134,0.9023494,0.7125065,-0.13534045,0.6115241,-0.70374656,-0.4135796,-0.7644238,-0.44794744,-0.7919125,0.112118356,0.6621373,0.1359897,0.90220714,-0.46852714,0.042885568,-0.029754901,0.09184288,-1.0024916,-0.45366627,0.86482173,-0.5828853,0.6112862,-0.36977804,-0.72937286,-0.78285426,0.12735085,-0.77757823,-0.00979525,0.21690072,-0.20313169,-0.014556875,0.7576785,-0.6517459,-0.7843673,-0.69255495,0.83280754,0.5728692,0.56215346,0.71075314,0.69403386,-0.3040706,0.7667885,-0.3654765,0.048223652,0.18644896,0.5836024,0.38638514,0.78473604,0.42451903,0.88888234,-0.5978488,-0.581968,0.69771844,0.86432904,0.16142751,0.46092707,0.17031056,-0.19105524,0.02132829,-0.81607366,0.01130078,0.5409565,-0.87076426,0.351797,0.13829482,-0.16301914,-0.04921181,-0.7250938,-0.4505673,-0.06252642,-0.5445282,0.13281474,-0.08279292,-0.60883135,0.37219167,0.16052923,0.802178,-0.16579826,0.5519069,-0.124329425,-0.13263525,0.47794557,-0.77207416,0.95920074,0.5245842,-0.123912714,0.47227126,-0.9975893,-0.5497183,0.058598153,-0.16660763,-0.90602857,0.30390802,0.16473746,0.86874974,-0.41854826,0.027512105,-0.82497907,-0.049335346,0.5353015,0.95673627,-0.36083406,0.67164177,-0.8287711,-0.8935188,0.4305354,0.4449028,0.49553418,-0.011645421,0.9775119,-0.31984594,0.8435601,-0.28409284,0.21756521,-0.18127225,-0.8456275,0.7172399,-0.6101668,0.19671917,-0.053806275,-0.13699782,0.94564396,-0.2475819,-0.8411377,-0.49829406,-0.036724962,0.15218033,-0.27826214,0.038500696,-0.88459283,0.0048621283,0.49130037,-0.6893398,0.6578745,-0.0094604185,-0.33355397,0.9633545,-0.6708142,0.20325272,-0.28113574,-0.3965094,-0.626389,-0.8858203,-0.9990953,-0.2968388,-0.722057,0.88956136,0.7093375,-0.5219952,0.25804117,-0.7296659,0.8658798,0.108009964,0.91989124,0.87780386,0.47253332,-0.1414176,-0.7791987,-0.22651087,-0.8866273,0.24446566,0.9082497,-0.88848287,0.96389234,-0.9672624,-0.010466532,0.5078965,-0.3627618,-0.96724576,0.8244015,0.88577086,-0.99250823,-0.679183,0.9041868,-0.73937905,-0.5030535,0.27137378,-0.9416211,0.088334866,-0.09939708,-0.68588746,0.5604654,0.9793092,-0.74388385,-0.55386865,-0.9508089,-0.20195675,0.60241455,0.6383558,-0.7662854,0.10713965,-0.61723316,0.8412245,0.867435,-0.48195302,0.7589082,-0.05285642,0.2997788,0.5469304,-0.27160326,0.97748715,0.3138295,-0.9966714,0.20930074,-0.09915883,-0.96893436,-0.7121194,0.28716126,0.8911788,-0.15520437,-0.50319874,-0.3954541,0.0773461,0.9172572,0.8383379,-0.5966228,0.20751138,-0.56555045,0.7102806,-0.4862228,0.5562699,0.12014703,-0.7951529,-0.0888058,0.74883276,-0.93345094,0.5269663,-0.9789431,-0.39418012,0.46498033,-0.9823283,-0.7976361,0.35239455,-0.48490447,0.05923482,0.052880734,0.74573517,0.19040312,-0.8831095,-0.2586608,-0.31257206,-0.0073644863,0.17933725,0.19617489,-0.11036584,0.13424881,-0.4427518,-0.9166363,-0.9354806,0.7974072,0.57244253,-0.6944748,-0.83036387,-0.36322474,0.24312264,-0.4331153,-0.19453177,-0.29720882,0.3532681,-0.75792193,0.7450252,-0.9416697,0.3094709,-0.7416156,-0.8896811,-0.122620836,0.7722045,-0.7716551,0.68970186,0.34380466,0.17568931,-0.37096962,0.03947095,-0.035777427,-0.37221882,-0.7532105,-0.6639341,-0.19518133,0.9115455,-1.0142202,0.06284017,-0.7294252,-0.19218674,-0.57053775,0.86434734,0.89608043,-0.8821738,0.17575102,0.59161335,0.8781873,0.7801172,0.6274656,-0.7807568,0.6762381,0.6583163,0.5568111,0.12184474,-0.9176032,-0.51976687,0.6573051,-0.8760745,0.48208654,0.55954117,-0.9067738,0.33026922,-0.2897935,-0.12932649,-0.11351726,-0.5444229,-0.4487002,-0.41492257,-0.5219583,0.18030652,-0.3874436,-0.8362353,-0.5788661,-0.21125369,0.6858348,0.8837385,0.57243687,-0.27887177,-0.09897051,-0.1481398,0.83623993,-0.6475578,0.89302635,-0.62164015,-0.61210966,0.61115617,-0.96875674,-0.139453,0.68773586,-0.20689063,0.10840241,0.7495487,0.047927365,0.316096,0.32955676,-0.8942968,0.41599375,-0.9534348,-0.11394045,0.5009914,0.74314535,0.075434975,0.10594493,-0.8763792,0.10196775,0.7138339,-1.0047076,-0.50166184,0.8261226,0.42092577,-0.51619965,0.27055874,0.25912088,-0.67247254,-0.54782516,-0.04651855,0.08101739,0.66812855,-0.8440114,-0.05347188,0.7327624,0.86950433,-0.37613958,-0.23918328,0.44506377,0.20695102,0.6921919,-0.8951292,0.50427157,-0.2681169,0.95161676,0.4798569,0.422389,0.5730027,0.35626292,-0.006980922,-0.54071957,0.26645306,0.37571743,0.112858124,0.7204374,-0.15954937,-0.13724783,-0.52784294,0.8870465,0.5920582,0.028846376,-0.39762262,0.2043689,0.033631492,0.0680821,0.49765423,0.91096795,-0.34207135,-0.08796962,-0.5841079,0.41704628,-0.6602467,0.011259358,0.37818334,0.2444674,0.0043899077,-0.6805222,0.47137684,0.5671427,0.64598066,0.7065355,0.7778313,-0.31776738,-0.8540719,-0.80198914,-0.26796612,-0.0073089986,0.8412812,0.7530039,-0.14402032,-0.080845945,0.34874982,-0.36460832,0.2975022,0.087977685,-0.51782644,-0.68269265,0.4106619,-0.30222028,0.47800082,0.6414518,0.82058835,0.42450058,-0.5852879,0.36276853,0.7985057,0.18439785,0.2343388,0.55113244,-0.8260983,-0.7171966,-0.9039631,0.56580055,0.39981207,0.313286,0.00015988758,-0.22930804,0.55665916,-0.10369283,-0.78493106,-0.105285384,0.19559744,-0.13747177,0.7247028,0.8121304,-0.037328828,0.90281475,-0.7629996,-0.9726608,0.7260749,-0.37980515,-0.9868367,0.6309347,0.84231323,-0.2311552,-0.58052105,-0.8530503,-0.86829716,-0.72702295,-0.0290179,0.53739786,-0.0017745433,-0.95770353,0.7280418,0.32629296,-0.15618357,0.60349315,-0.25704423,0.46420363,-0.17062841,0.9520447,0.8233726,-0.54968864,0.9675644,-0.6348393,0.8712338,-0.10637258,0.59067696,0.54713356,0.89972585,-0.5363387,-0.45911536,-0.5979972,0.16819583,-0.42208248,0.7525435,0.28020495,-0.04124499,-0.86292475,-0.49494022,-0.6902472,-0.09315446,-0.48389018,-0.86118233,-0.6234397,-0.91043025,0.44217566,0.8315192,0.9446839,-0.9680387,-0.6816681,0.56040245,-0.38106546,0.06690219,0.83062315,-0.8729284,-0.9377382,0.9196389,0.2970899,-0.76598245,-0.3797632,0.91003585,0.19878522,0.28608125,-0.8033772,-0.25247297,-0.6485226,-0.8148909,0.4672994,-0.36756706,-0.9839607,-1.0102665,0.98278457,-0.58960396,0.5885326,0.46902573,0.029548272,-0.15453503,0.8694623,0.0942592,-0.8574228,-0.4810046,-0.92906713,-0.183454,-0.6281487,0.55310565,0.07916645,0.13902572,-0.7797082,-0.17077234,0.081933185,0.54412425,-0.38008484,0.6798703,0.5808085,0.49434116,-0.14433601,0.7938827,0.87922764,-0.087533794,0.16546108,0.83623946,-0.5793441,-0.39656726,0.8471391,0.5271585,-0.7195898,0.9240159,-0.22912802,-0.44776136,0.8290171,0.10355555,-0.47528628,-0.97410655,0.49832514,0.7638899,0.7838841,-0.14340194,-0.8657332,0.22030102,0.2461666,-0.23695056,-0.7895638,-0.8304991,0.56944144,0.09568329,0.66205096,0.05553758,0.44325054,-0.5238626,-0.44582152,-0.3840648,-0.6579103,-0.31106684,-0.8163561,0.29210982,-0.8833404,0.48169646,0.8850004,0.21595432,-0.59029907,0.32753593,-0.6518649,-0.021263873,0.577348,0.51719964,-0.21675058,0.034934938,0.07493307,-0.24109861,-0.8276687,0.9012745,0.07000568,0.32402945,-0.49938825,0.9792333,0.6721608,0.70460826,0.75108296,0.7877488,0.40547913,-0.046789546,-0.83843315,-0.21458074,0.878039,-0.5796747,-0.047680862,-0.56360894,0.4184274,-0.07157908,0.94614327,-0.16857217,0.75080746,0.17218728,-0.9194585,-0.0028646535,-0.36307055,-0.052205432,-0.48742488,-0.73430526,0.58952206,-0.65629256,0.67237246,0.041478,0.8978416,0.7409549,-0.16341364,0.4394888,0.43392205,0.8108199,-0.07792938,0.07604926,-0.018462364,-0.8511501,-0.5049061,-0.00070911855,-1.007611,-0.21171834,0.9193627,0.077173576,0.3234645,0.5701004,0.96030736,-0.3446557,0.5560646,-0.113783054,-0.527594,-0.9900758,-0.9922975,0.1332203,-0.7008222,0.33612803,0.18358143,-0.9131429,0.4047749,-0.20036606,-1.0119343,-0.6814178,0.41988325,0.43275702,0.9183503,0.49961367,-0.8729762,0.59220564,-0.42958754,-0.94965357,0.48461846,0.41440734,-0.73206955,0.30800936,0.27196383,-0.47211972,0.8648841,0.41021556,0.6848187,0.53284836,0.29026678,0.8626409,-0.23302977,-0.5044275,0.71001637,-0.2752096,-0.7209461,-0.17905186,0.32873508,0.61040324,0.87828845,-0.34000573,-0.71144867,-0.27804407,0.17863987,0.5318386,0.8866622,0.32288074,-0.8515647,-0.121487126,0.8658614,-0.031006323,0.5992468,0.61989266,-0.70366454,-0.42781535,0.4195015,-0.18887167,0.52761674,0.13680817,-0.6339712,-0.8900488,-0.5174925,-0.22007053,0.8193267,-0.3265419,-0.9600938,-0.5305034,0.85212314,-0.45824206,0.3895098,-0.08746191,0.8043991,-0.9622262,-0.7636392,-0.7224504,0.9111151,-0.5614544,-0.98149455,-0.5982336,-0.500761,0.018266242,-0.20573758,0.904862,-0.56542206,0.30394885,-0.90452254,-0.7762166,-0.27134365,-0.19895966,0.49881986,0.8596463,-0.42462915,-0.89639807,-0.27121317,0.14307359,0.13563623,-0.07745829,-0.61789113,-0.9629081,-0.3961836,-0.36820272,0.83390665,-0.5395891,-0.18771404,0.039213583,0.74934304,-0.33316493,0.34882015,-0.007954923,-0.7674965,-0.3399603,-0.025578566,0.8038745,-0.24474753,0.071589515,-0.81517255,0.79062694,0.07260759,0.92721975,-0.093805455,0.31665483,0.6611217,0.30718595,-0.7816052,-0.114908926,0.41125154,0.5033911,0.3701515,0.24622275,0.89031357,0.016016563,-0.19098091,0.90324986,0.015722575,0.48387712,-0.92050576,0.6323727,0.7514189,-0.12131353,-0.93272156,0.51885647,-0.16230166,0.77322394,-0.42497313,-0.05599132,-0.4925422,0.23932289,-0.65411097,-0.27956557,0.53932124,0.037664138,0.093634084,0.5461831,0.1179664,0.7476537,0.29888564,-0.06618525,-0.12642528,0.6155432,-0.08355965,0.31546482,-0.5755921,0.13635838,-0.240444,0.62476903,0.23482081,-0.08025303,-0.23234099,0.2929725,-0.27708098,0.609519,0.41928792,-0.6405596,-0.1280948,0.40082952,-0.88519335,-0.724143,-0.103213824,0.9086995,0.83534753,0.7723063,0.32261246,-0.5300676,-0.9834997,0.5136805,-0.73056126,-0.32720366,-0.3081674,0.46087152,-0.42228717,-0.31769612,-0.6736125,0.34757087,0.8045303,0.0635713,-0.28185633,-0.44792193,0.54633516,-0.32445282,-0.63302624,0.19549645,-0.6283293,0.6037912,0.23341532,-0.7382829,-0.72603256,0.87036604,0.6442797,-0.19439514,-0.83055323,0.83631504,-0.58393186,-0.10165032,-0.9457472,0.77120906,0.6535943,0.4267388,0.4438352,0.18137136,0.77439886,0.77765375,-0.638772,0.8562916,0.056777105,-0.7888657,0.15524036,-0.85775673,-0.25267962,-0.59666955,-0.33258024,0.8629504,-0.17756614,-0.54533356,-0.3547023,-0.7093229,-0.21728021,-0.06905239,0.23186384,0.51149255,-0.7411257,0.19661695,0.09991447,-0.28730154,-0.93575275,0.25362268,0.36704743,0.88892764,0.34988287,0.65344036,0.71097136,-0.20869102,0.45184842,0.8386511,-0.03535901,-0.6939746,0.8678728,0.0820531,-1.0059534,0.6907087,-0.8400518,0.2664833,-0.08306673,-0.76188827,0.012951112,0.10480841,0.84006786,-0.29373297,-0.98274595,-0.38975966,-0.75825953,0.09411386,-0.31822392,-0.89437497,0.7629596,-0.9103557,0.5251684,-0.7380289,-0.1930923,-0.21847439,-0.18626304,0.4274102,-0.6307641,-0.10823865,0.17942248,-0.67636234,0.11371369,0.37850222,0.80239,-0.18081236,-0.583503,-0.0074234824,0.24865176,0.30060816,-0.09510664,0.23261386,-0.3222982,0.91521144,-0.7250398,-0.5758028,0.028365102,0.80170894,0.9717746,0.008113385,0.32443482,-0.88905835,-0.51372296,-0.005836001,0.9440002,-0.2088937,0.6201901,-0.8124224,-0.0911763,0.030306244,-0.9660247,-0.37609032,-0.7069051,-0.9083592,0.63975424,-0.296443,0.042291973,-0.9576742,-0.4047328,-0.6394429,0.32054478,0.09887607,-0.14814875,-0.467887,0.75458384,-0.13133693,0.0079300245,0.16981095,-0.0748562,0.3774887,0.36766592,0.6336576,-0.71391535,-0.96435356,0.103094816,0.7478248,0.0038578243,0.22649905,-0.064292245,0.05695911,0.88713586,-0.058465846,-0.8829984,0.26338604,-0.87065434,0.380794,-0.23282184,0.27872524,-0.33711123,0.35760263,-0.012353097,0.8941491,0.41182137,0.5333799,0.818551,0.8695894,0.23083898,-0.5531967,-0.40283558,-0.78590405,-0.547713,-0.2356656,-0.6802151,0.49398825,0.22856963,-0.59976655,-0.70931214,0.0154764075,0.6354243,0.15417689,0.84940994,0.59946734,-0.09901576,0.9044972,-0.36394465,-0.8538866,0.47105533,0.7995691,-0.9259064,-0.17229761,-0.52260697,-1.0089558,0.8304866,0.4995766,-0.85971373,0.7319727,0.4949055,-0.12594023,-0.2931872,0.123294756,0.27188194,0.44674665,0.09049736,0.17663889,-0.6665413,0.09783465,-0.4563394,0.73338425,0.2710582,0.9666202,0.31218475,-0.5411246,0.0016170996,-0.8383175,-0.03503782,0.42175263,0.40988225,-0.013451937,-0.5381728,-1.0033377,-0.98605216,-0.011460971,-0.7634521,-0.8488915,0.9423708,-0.63148445,-0.98894775,0.6847351,-0.28700125,0.020886179,-1.0051159,0.33936587,-0.6193188,-0.66871375,-0.62654734,0.3214502,-0.09492909,-0.67597574,-0.738761,-0.99967974,0.7589265,-0.77602893,-0.8605668,-0.13083059,-0.7899134,0.49074537,0.13303867,0.8917012,0.3643133,-0.8603517,0.74608016,-0.31593284,0.30634353,0.5902825,-0.21131784,0.53427565,0.95377064,-0.8508014,0.5024957,0.87860924,-0.9360669,0.40045398,-0.22841795,-0.7858666,-0.12951128,-0.41135594,-0.0102107385,-0.14641498,0.84753245,0.3049451,0.23335834,0.8623435,0.22860852,-0.80792487,0.5805285,-0.29899293,0.84795475,0.023841068,0.31307536,-0.65863556,0.883556,-0.09198077,-0.939335,0.12643585,0.3068342,-0.6933982,-0.71435356,0.27147517,-0.7824808,-0.4726905,0.95912075,0.08414223,-0.17678565,-0.5547797,-0.53253937,0.6723351,0.24048671,0.8890288,-0.9033664,0.72821784,-0.6182477,0.37181845,-0.65277857,-0.05729874,0.10687983,-0.24897939,-0.03691869,-1.0040743,0.38191366,0.17910238,0.37898973,0.634708,0.29477605,0.6875343,0.0567783,-0.5238741,-0.31149012,-0.90428793,-0.9943891,-0.69686705,0.8509927,-0.06059515,0.08534272,0.37859765,-0.85698116,-0.35801336,-0.47492185,0.7569124,-0.23664305,0.38769138,0.9167016,0.5080699,0.7966718,-0.055927534,0.078259304,-0.6549349,0.89076203,-0.93309045,-0.2673456,0.57541776,-0.79797,0.5056099,-0.20467527,-0.07520476,-0.0031807977,0.48615494,0.32649246,0.6583298,0.19762981,0.5938594,0.18032834,-0.14279203,-0.43237463,0.95350426,-0.8125168,-0.80930096,0.8242993,0.24943018,0.3336658,0.05741919,0.27991918,0.65533066,-0.7575887,0.6811713,-0.034010287,-0.14806707,-0.41525817,0.04884744,0.16247027,0.03982053,0.708521,0.22714022,-0.27038458,-0.006408355,-0.6455876,0.046725303,0.15922599,-0.80250466,-0.3578257,-0.51984584,-0.4250377,-0.10265584,-0.47677597,0.18709539,0.3188007,-0.05544416,-0.8467526,-0.2348595,-0.21321113,0.408438,-0.2062748,-0.10763679,0.39838403,0.012098618,0.6822481,0.48336953,0.7368968,-0.36683756,0.4608431,0.2725678,-0.19950458,-0.9815159,0.8328331,-0.49238732,-0.975697,-0.23811908,-0.7067477,0.5868138,0.45422575,0.26110584,-0.06554753,-0.5322409,-0.06280664,-0.977354,0.17148669,0.9604698,-0.70777035,-0.15472515,-0.723831,-0.23561837,-0.73814774,0.51961505,-0.8560204,0.90708244,-0.3287457,0.78169924,-0.7057232,-0.9384717,-0.18361636,0.6887927,0.56124127,-0.40566385,-0.09942596,-0.82916486,0.09661365,0.09007042,0.06519647,-0.217494,-0.21226937,0.7154534,-0.41518643,-0.59032977,0.15450515,-0.660998,-0.8470916,-0.054987825,0.45240933,-0.83787113,-0.76306844,0.9441997,-0.628389,0.12797542,0.16475739,0.39968812,0.08600475,0.47436228,-0.21160065,0.49160585,0.10611086,-0.5504979,0.5357634,-0.20988764,0.28300357,-0.6981131,0.4290159,-0.4165802,-0.21832128,-0.19166608,0.3478234,-0.24841706,0.7791568,-0.22202368,-0.20376723,-0.6823743,-0.02029564,0.39360732,-0.28019738,0.75671446,0.8065274,-0.7090221,-0.67890936,0.027567137,-0.5464191,-0.6126145,0.14079282,0.91722816,0.20149091,-0.10099903,0.45796233,-0.06541709,0.77828574,0.8731823,0.17210181,0.49439257,0.08081287,-0.9959051,0.8082505,0.5647718,0.7395294,0.29780853,-0.8467664,-0.95978546,0.026677601,0.7420793,0.5323214,-0.6126627,0.1438371,-0.8871994,0.26165706,-0.33169436,-0.53079844,-0.9006032,-0.17598116,-0.97624284,0.5529257,0.73868567,0.32244843,-0.9682663,-0.53061295,0.85736656,-0.06375803,0.4097127,-0.97316915,0.44957623,-0.18941963,-0.92495143,0.520966,-0.74586076,0.42830032,-0.91947174,0.24407785,-0.026348356,0.76010174,-0.75406617,0.17792739,-0.56109726,-0.95967233,-0.3175758,-0.39923778,0.21017368,0.20601696,0.44822776,-0.7451266,-0.5497565,-0.84518534,-0.06314975,-0.17570512,0.6594574,-0.71463436,-0.52646816,-0.6064134,0.56418526,-0.67692935,-0.72421896,-0.7628363,-0.889076,0.86567825,-0.29139835,-0.7878299,-0.34520248,0.47198597,0.7101822,-0.62942505,-0.13834867,0.9606124,-0.52668977,0.76087654,-0.6775947,-0.24559405,-0.67225987,-0.49074167,0.6238919,-0.5150846,0.6683884,-0.058262568,-0.07006336,0.019932711,-0.7629648,-0.7718785,-0.26288444,-0.16119507,0.10812128,0.19057424,-0.1998581,0.2518592,-0.09941986,0.82655424,0.26383424,-0.8801726,0.31996045,-0.31354684,-0.5602553,-0.7859425,-0.85603875,-0.7869602,0.20968772,0.10662049,0.7573799,-0.42961982,-0.7732189,0.29259515,-0.010461387,-0.9404626,-0.84153914,0.7257952,-0.20162316,-0.25159746,0.55077815,-0.9563786,-0.2150413,-0.57513785,-0.13544244,-0.8984872,0.6608928,-0.25324744,-0.5804157,-0.6324177,-0.05857791,0.7851477,0.07318253,0.4173353,0.513142,-0.55018574,0.76264125,-0.4968279,0.19047822,-0.9940312,-0.9113261,0.06598339,-0.564453,0.06443649,-0.49755794,0.82673633,-0.4307271,0.8726714,-0.75305015,0.55786383,-0.70570534,0.6450424,0.90602845,0.503636,-0.6154504,-0.40199107,-0.7686618,0.27861452,-0.9977695,-0.10950646,0.09414767,0.08878136,0.6445594,-0.81100434,0.045823462,0.23786794,0.6953357,0.4951152,-0.5662115,0.56233484,0.420377,-0.12527612,-0.39138418,-0.44938853,0.85023063,-0.2668321,0.70538145,0.15034181,0.017803805,0.63417107,-0.1564709,0.41491517,0.56124306,0.64353526,0.73554987,-1.0106884,-0.45441175,0.49524215,-0.17776221,-0.54003936,-0.673587,0.6352625,-0.6607296,0.6664515,0.23327403,-0.6030904,-0.3985376,-0.9952649,-0.4224991,0.9287977,0.89314795,-0.9932689,0.23398761,-0.22020608,-0.9849385,-0.5895164,-0.8453176,0.0038852652,-0.95057106,0.6828505,-0.94793785,0.39887348,0.1896731,-0.0057667987,0.7266684,-0.6286753,-0.42983493,-0.81682295,-0.7095721,-0.36918932,-0.31573337,0.5842344,-0.89960265,-0.9100603,0.61573994,-0.8897618,0.7198746,0.9377362,0.7610517,-0.057187308,0.13231608,-0.98470145,-0.75882864,-0.58237475,-0.6909472,-0.05689951,0.8562044,0.9077008,0.4657391,0.8657485,-0.19458807,0.09450521,-0.79457194,0.038427655,-0.38779685,-0.86045843,0.072364844,0.38394576,-0.42553124,-0.06470591,0.6294676,0.3185678,0.4755706,0.34752858,0.83221596,0.3281483,-0.9144517,-0.702524,0.369235,-0.14430368,0.9332574,-0.18942946,-0.37780574,0.1622579,-0.6584856,0.49821156,-0.36494145,-0.21782628,-0.080521606,0.9816769,0.9349837,0.73036873,-0.62047523,-0.3340202,0.8786051,0.8119974,0.3407338,-0.25638247,-0.17489791,0.71017534,0.45458728,0.98419476,-0.57862425,0.90608186,-0.5316496,-0.32548335,0.21736863,0.6618279,0.6690875,0.61469537,-0.0060430407,-0.7295908,0.41766334,-0.8626,-0.08512208,0.3457405,0.23182139,-0.8651756,0.89181465,-0.29435048,-0.6117468,-0.38403034,0.9589801,-0.9741907,-0.88724875,0.8584542,-0.5692421,0.091243535,0.6037552,0.65467,-0.6311947,-0.4023059,-0.09823991,-0.7852546,-0.3977164,0.027382303,-0.7411647,-0.2667557,0.71825033,-0.6770422,-0.62311673,0.42581782,0.6823292,-0.5850873,0.40068012,-0.4986838,-0.3313208,-0.9017089,-0.67696977,0.14821471,-0.713597,0.6346315,-0.61822575,0.055242732,-0.6394458,0.03601226,-0.73567766,-0.64313805,0.8232961,-0.21197298,0.7963746,0.17591937,0.64308906,-0.3483477,0.6782371,-0.72756064,0.15565144,-0.57553494,0.83664274,0.65596884,0.21631432,0.84952605,0.42256796,0.28846896,0.90079445,0.37714624,-0.3496293,0.9718053,0.042682104,0.9221964,0.67103225,-0.7609285,-0.99348843,-0.71294117,0.06616987,-0.12140764,0.5160273,-0.5584555,0.21607018,-0.69953465,-0.827837,0.8832774,0.77700573,0.84293926,0.8111853,0.6879504,0.7052,-0.97213066,0.6068477,0.27337423,-0.80425686,-0.68114567,0.48320636,0.023108456,-0.6465773,0.92566067,0.5759964,0.7973842,0.7023537,0.22396798,-0.4371762,0.8231767,0.24082035,0.5207002,0.322822,0.70731294,-0.037749376,-0.16804294,-0.44214523,-0.93655443,-0.7955015,-0.807848,0.15009908,-0.36525935,0.77707434,-0.34800875,-0.9430822,0.7949184,0.5202576,0.33439222,-0.9750907,0.6349316,-0.6113633,-0.64866287,0.23841251,0.5634314,0.8179163,-0.9141522,-0.34626314,-0.015617472,0.05906194,0.5066478,0.25831637,-0.37709543,0.052792635,0.50319433,-0.16825412,0.9655857,0.37280932,-0.24043255,-0.18050572,0.4214987,0.15547,-0.7584456,-0.4685998,0.2859534,0.63541806,0.29617807,-0.8411535,-0.23011525,-0.43372056,0.49809214,-0.09813479,0.9585913,-0.45372498,0.89861065,-0.98939335,-0.30140126,0.27848276,-0.74292934,0.4785398,-0.731575,-0.69701695,-0.28803688,0.583806,0.83384895,-0.6330934,0.25353906,-0.13700001,-0.8829038,0.21976751,0.6597609,0.92295283,0.81725943,0.48843458,0.31674248,-0.27339,-0.6165513,0.09610227,-0.61801106,-0.71996343,-0.87587315,0.6005965,0.6940544,-0.46891034,0.59934926,-0.065597445,-0.97425705,0.64112556,-0.45924255,0.1818253,-0.4430008,0.10157001,0.2300459,0.87176096,0.7136926,0.9353494,0.2899382,-0.9401181,-0.83967733,0.6355053,0.77609533,-0.54955244,-0.5683389,0.11477571,-0.19486943,-0.69194293,-1.0130639,0.3516034,-0.3622085,0.47352952,0.3335134,-0.5666065,-0.12892213,0.075684525,-0.34805351,0.8441517,0.6025395,0.27135232,0.83667475,0.9010402,0.45435706,0.10425042,-0.6393823,0.14752908,0.90345067,-0.49081764,-0.49815837,0.5114226,0.33454174,-0.004146722,0.10440788,-0.4271666,-0.42448282,0.8989167,0.89374995,-0.64893407,0.55994684,0.43495867,0.38374975,-0.004533314,-0.26905414,0.60523903,-0.6790841,-0.8669025,-0.78938884,-0.48506668,-0.44758168,0.52943534,-0.91394556,-1.002706,0.20976996,0.6776522,0.7965406,-0.85663295,-0.7381079,-0.46781296,0.6930199,-0.4926182,0.16240105,-0.71146536,-0.8415996,-0.10064597,-0.54266816,-0.8633889,0.86826724,0.49285433,0.6375257,0.9733224,0.24632493,-0.6948012,0.11095781,0.03730863,-0.7736796,0.97270566,-0.8603105,-0.6827906,0.08904476,0.96045184,0.24777076,-0.38705456,-0.9326248,-0.93411434,-0.6810044,0.96579134,-0.18484496,-0.39509714,0.5315436,0.68327814,0.54503405,0.023309903,0.374551,0.6232753,0.016656658,-0.13317865,0.53566533,-0.73667,0.22687195,-0.5856601,0.48323417,-0.15697394,-0.28974423,0.107099906,-0.13221297,-0.32867062,-0.15371037,-0.06836868,-0.2523977,0.6724333,0.053157676,0.28225106,-0.8957592,-0.5402163,0.7861456,0.7342713,-0.09783844,0.20907615,0.2754074,-0.9852276,-0.21302395,-0.44199678,0.59773654,0.25392684,0.45841622,-0.15849228,0.28868473,-0.10138876,0.8249185,0.77511936,-0.5863148,0.17303485,-0.8997553,0.31368357,-0.2803469,-0.9642364,0.009354889,-0.2063839,0.96733254,0.48873192,0.38949215,0.20458263,0.21353902,-0.5949644,-1.007831,0.44686857,-0.5274261,-0.31383845,-0.39803207,0.3061092,0.25855622,-0.0017301692,0.2349175,0.5248459,-0.96546113,0.9134526,-0.62592316,-0.3534945,-0.28426403,-0.98787487,0.044221133,0.8609601,-0.58517,-0.56173444,-0.16046798,0.74409145,0.5449551,0.19092543,0.8715374,0.51590854,0.23006748,-0.9470403,0.6366226,0.38024193,-0.51885545,-0.14231679,0.84541804,-0.52805924,-0.80627376,0.3168219,-0.81617254,-0.16853133,0.0004235522,0.80002993,0.6996395,-0.66042763,0.085459344,-0.26270136,-0.42463583,-0.07906885,-0.38426584,-0.9670343,0.17482752,0.14493515,0.114279956,-0.4390131,-0.2281009,0.013301788,-0.008956705,0.032120198,0.59939146,-1.006069,0.47812837,-0.70558286,0.18097308,0.011281615,-0.27675796,-0.6443231,-0.71762425,-0.97760534,0.54390424,-0.013114954,0.9347841,-0.66093564,0.6762682,-0.15720254,0.048678275,0.26041925,0.01404787,0.8332828,0.7904652,0.97554725,0.7399525,0.08492974,0.17609353,-0.44813484,0.67826474,-0.48902124,0.7115929,0.14500536,0.45965612,0.74825084,-0.3481601,-0.10376343,-0.7587007,0.65005714,0.0018029137,0.58523977,-0.84667796,0.37820548,-0.12222074,0.40183622,0.45038867,-0.43038386,-0.29917574,0.042632326,0.18168011,-0.85409516,-0.18325585,0.13371968,0.5483197,-0.25967824,0.077760525,-0.79987717,0.10337331,-0.51188856,-0.4198523,-0.98332226,-0.0985332,0.5763858,0.7534769,-0.61043,-0.97691995,0.70553005,0.34555513,0.5645247,0.7928148,-0.38346246,-0.15435404,0.6011631,-0.78741086,-0.3474958,0.7943267,0.31425014,-0.19956107,-0.44044408,-0.63363546,0.31183934,0.96336263,-0.13128488,0.37391895,-0.90347385,-0.00061099016,-0.80830324,-0.113061994,-0.3917602,0.00132803,0.947319,0.3634289,0.429974,-0.031149767,0.66106963,-0.47585002,-0.239548,0.26515433,-0.36835572,-0.7263419,-0.060114156,0.73036784,-0.39870396,-0.89601666,-0.3485975,-0.42873833,0.36016998,-0.73326784,0.7692928,0.19839412,0.16801655,-0.72465783,-0.2937212,0.6321322,-0.6883507,-0.21437253,0.96666336,0.66736287,0.4887387,0.8279679,0.7955958,0.50504214,-0.7055008,-0.13290446,0.8882089,0.63900054,0.435629,-0.24371892,0.6822265,-0.60400623,0.80402964,-0.8637233,0.9014997,-0.5089171,-0.51585335,-0.10677704,-0.69773364,-0.51390314,-0.9448025,0.6440098,0.16881342,-0.70728475,-0.3683551,-0.14492953,0.3234653,0.81985956,0.06149021,-0.3232283,-0.10381541,0.63432276,-0.4095427,-0.62166,0.777095,-0.5935218,-0.85092705,0.30159998,-0.87679696,0.57772386,-0.27517322,0.5099671,-0.13796525,0.17039417,0.6477306,-0.63847095,0.7839724,-0.3716228,-0.15651922,-0.6221917,0.65043026,-0.8710526,-0.08438274,0.5037312,-1.0148393,-0.68112206,0.037024863,0.7475505,-0.24218968,0.14230666,-0.39412394,0.42024377,0.9735453,0.12152403,-0.042213675,0.9750521,0.47982496,0.6310844,0.258286,-1.012992,-0.094656624,-0.76339173,0.49655038,0.5345904,0.16630797,-0.68849087,0.7647496,0.68921113,0.46248293,-0.072892934,-0.99339586,0.5995679,-0.34851736,0.13601941,0.10037325,0.8089013,-0.40481672,-0.9553418,-0.11673529,0.019998483,0.3598491,0.44824332,-0.812166,0.20686333,0.9578785,-0.6812981,-0.4472184,0.18928106,0.6528551,0.9528532,-0.00020075703,-0.6658137,-0.03283992,0.80986506,0.89203537,0.7213117,-0.29461813,-0.22394417,0.7212411,0.889241,-0.6622989,0.97077525,-0.058491502,-0.96344215,-0.3329618,0.6942784,-0.18043216,-0.6461024,-0.027922073,-0.3796443,-0.3552611,0.3874636,0.7635933,-0.3292059,0.29660136,-0.73958534,-0.4960277,-0.8247812,-0.51672125,0.3835919,0.13998517,0.5509036,-0.8616137,0.29648042,-0.56004554,0.647753,0.07155027,0.19190021,-0.37849686,-0.431663,-0.7530881,-0.49987924,-0.10279228,0.5877059,-0.32856402,-0.6968756,0.60262895,0.47226694,-0.39143544,0.3115651,-0.7408872,-0.08151084,-0.54945254,-0.7584137,0.25116292,-0.05717788,-0.16877183,0.10101731,-0.0646079,-0.19700341,0.11590867,-0.8300408,-0.206725,-0.29518673,0.6391336,-0.0007829094,0.75877005,-0.2759237,-0.15757807,0.27031144,-0.53667325,0.7322002,0.62168235,0.84978265,-0.5046824,-0.2712872,0.65451705,-0.6762881,0.5947485,-0.22608586,0.02450394,0.22395244,0.033624355,-0.20517033,0.9246856,0.24993296,-0.04051938,0.040779945,0.12361521,0.8776819,-0.11458818,-0.76052445,-0.06887858,-0.79382116,-0.76967216,-0.68388575,0.22925846,-0.3622728,-0.37289712,-0.030766217,0.21832462,0.27090326,-0.4834753,-0.8142932,0.80317944,0.06539557,-0.6647542,0.66291416,-0.63049567,0.3409747,-0.07424181,-0.4643851,-0.7854777,0.82736605,0.8104711,0.48012945,0.2936321,0.75542545,-0.43232322,0.57510763,-0.06965883,0.7356332,0.6553244,-0.8691202,0.8339189,0.21335338,-0.73315334,0.91607666,0.62573236,-0.6731194,-0.2185362,0.3420456,0.97160864,0.7908273,0.81415135,0.111665905,0.30557385,-0.8538074,-0.11187905,-0.03116966,-0.3285105,0.315646,-0.328997,0.3216214,0.87021434,0.5675117,-0.11991406,-0.61600405,0.56831133,-0.95301217,0.22594775,0.649064,0.42880523,0.14762823,-0.29746097,-0.63836265,-0.06407589,0.80070156,0.12992369,-0.5793834,-0.58292025,0.7324337,-0.9123888,0.053856503,0.7540887,0.49352065,-0.05394898,-0.40770712,0.7734961,-0.6821772,0.106279425,0.3524592,-0.26297453,-0.92791957,-0.64668244,0.6756918,-0.6753406,-0.67596364,0.8480835,-0.2602952,0.0006945225,-0.3820306,0.4809812,0.17425703,-0.8519621,0.80357414,0.34081933,-0.23165348,0.4545911,0.8183296,-0.59597987,-0.40305236,0.7536023,-0.36195958,-0.92253995,-0.57068515,0.95577705,-0.5751577,0.525319,-0.7756664,0.7097778,-0.14556469,0.11863387,-0.7822993,0.41199747,-0.9842205,0.19518112,-0.93891895,-0.9580975,-0.2494396,0.15738103,0.9776195,0.39653632,-0.9754887,0.57059246,-0.24775606,-0.7009119,0.777046,-0.5904182,0.36717388,-0.7307433,0.14909522,-0.60023385,-0.08539184,0.4921503,-0.26009125,-0.10568758,-0.3225896,-0.35837325,0.6845366,-0.025062127,0.37598783,0.8235567,0.3253241,0.7759646,0.48266146,0.7738937,-0.7949305,-0.48831826,0.013416441,-0.3258476,0.81045455,-0.7150964,0.074115396,-0.88117313,0.46366528,0.9026129,0.5137019,-0.37464663,-0.23501278,-0.14335918,-0.26308805,-0.1900126,0.4620497,-0.51418155,0.3130618,0.90246725,-0.8003379,-0.5453443,-0.8364346,0.0030712755,0.8843189,-0.5731263,-0.40117553,-0.36717594,0.9358321,0.42167062,-0.12639,0.09387984,-0.2754631,0.0013562709,-0.063201524,-0.5091888,-0.15610653,0.33593333,-0.7333388,0.16842985,-0.0000055632813,0.95966214,-0.45260736,-0.16325068,0.47212103,0.29153726,-0.90576303,0.9359622,0.8631383,0.32129687,-0.3571269,0.7442747,0.022754176,-0.08425329,0.6323719,0.71697605,0.9071099,-0.15393175,-0.12045796,-0.1662207,0.71999997,-0.00613584,-0.47539884,-0.5566461,0.05357032,0.69024557,-0.49465325,-0.06507191,-0.912028,0.951399,-0.33418086,-0.4271974,-0.8225976,-0.9298786,0.53053486,-0.14030196,0.2929561,-0.99918586,-0.9378292,0.77456933,-0.9457504,-0.12693998,0.8475899,0.5078991,0.099521644,-0.9068313,0.66658324,-0.845045,0.58205795,-0.844942,-0.8856977,-0.42518666,-0.3143031,-0.89958954,-0.09964607,-0.7483751,-0.6316571,0.86481136,0.9277147,-0.4112001,0.50471723,-0.7952006,-0.81319517,0.5494183,0.39798203,-0.93181187,-0.9449483,-0.86185634,-0.42462006,0.36523157,0.41303533,-0.16329676,0.1445291,0.33004594,0.97130305,0.93831056,0.7632577,-0.96847415,0.34542555,0.20455377,0.90477526,0.24437067,-0.4152237,-0.26642624,-0.07179341,0.12173877,-0.9865062,-0.93553674,-0.049358543,-0.5213084,-0.36889055,-0.5197098,0.6834656,0.9580767,-0.12736282,-0.9510658,-0.27145192,-0.044181272,0.20853885,-0.14871302,0.28298166,0.011440887,-0.73088074,0.9292565,-0.14556022,0.36145988,0.62382376,0.14907062,0.22262555,0.18230756,0.90578425,-0.9391193,-1.0130793,-0.5957572,-0.58066076,-0.43738788,-0.13193393,0.31100243,0.21220203,-0.8773216,-0.81820697,-0.38313657,-0.987303,0.8027451,0.25958973,-0.41400337,-0.87909764,-0.12536517,0.61348593,-0.29482684,-0.48020312,-0.9354361,0.95875335,0.42216188,-0.13475588,0.35856968,-0.8531374,-0.944681,-0.80378246,0.69385505,-0.33908638,-0.34605443,-0.9375964,0.3522494,0.45020345,0.037424617,0.38432637,0.22001922,-0.772235,0.8354547,0.8064788,-0.07510009,-0.43216223,-0.08859271,0.13229068,0.2535696,0.36779475,0.22080952,0.14583156,0.26433626,0.4217943,0.21690227,0.40951854,0.82042134,-0.54769593,-0.60298604,0.47193787,0.10889681,-0.72080743,0.3644693,-1.0058689,-0.42971537,0.11402097,-0.7062568,0.5936136,-0.3606092,-0.8179596,-0.03676776,-0.6390907,0.78868383,0.21166667,0.4520877,0.6209068,-0.640275,0.03131022,0.42589796,0.8741635,0.15588492,0.20220733,-0.23520316,0.040059187,-0.89508176,-0.059933115,-0.66366327,0.1624575,0.27088186,0.6134535,-0.06408749,0.2330729,-0.8265934,0.18754682,0.14127189,-0.97266775,-0.96099937,0.874841,-0.34857598,0.97849447,-0.319618,0.25653985,0.6011935,0.17603447,0.26100776,0.6979546,-0.49629682,0.73590875,-0.21185672,0.47012138,0.19650668,-0.60595036,-0.7202904,0.13952218,0.64574933,-0.40664607,0.9078398,0.5670523,-0.067083,-0.9596239,0.10733171,0.27815798,0.94095314,-0.11286613,0.7437911,0.9692263,-0.59333336,-0.6947945,-0.035446923,-0.3117164,0.4247371,0.79144716,0.6871767,-0.09481217,0.009058488,-0.849439,0.1251086,0.23690028,-0.09682277,0.36612317,0.21627435,0.81865996,0.49814376,-0.6110029,-0.5828446,0.1050116,-0.03149541,0.5104826,-0.61874723,-0.70628023,0.58639467,0.42801362,0.21507357,0.8624999,-0.3194956,-0.61445093,0.937043,0.14654374,-0.9438452,-0.71458435,-0.19410866,0.05556452,-0.6450797,0.34555337,0.89957654,0.53736347,0.6872531,-0.48527724,0.6908279,0.76461774,0.94350535,0.75583,0.10106679,0.8126279,-0.40436757,-0.62653494,0.21994555,-0.043356463,-0.9141084,0.9349938,0.007949265,0.69379747,0.37639406,0.2723634,0.35014737,-0.48341626,-0.23913606,0.10938544,0.34971476,-0.40000725,-0.39721584,-0.376305,0.46242446,-0.9801598,-0.47781178,-0.5692426,-0.9168255,-0.9970307,-0.7285775,-0.5963534,-0.3999964,-0.236208,-0.4832672,0.012671696,-0.13639332,0.8873744,0.31518075,0.5787628,0.31202796,-0.72605145,-0.925608,-0.8166462,0.84514076,-0.48183456,-1.0049759,0.3959894,-0.038952854,-0.50063074,0.3670717,-0.085556164,-0.66390836,-0.0018786687,-0.18378839,-0.06903396,0.26007628,0.8018704,-0.08886904,-0.707904,0.4945311,0.8391523,-0.10580693,0.95443606,-0.063492,-0.3106525,0.97144985,-0.53649324,0.1987832,-0.24104567,-0.6099166,0.4267377,0.6430259,-0.41898224,0.038167994,-0.3097479,-0.37777153,-0.42555705,-0.660218,0.97989875,-0.2732388,0.4718738,0.19756389,-0.99818003,-0.04171787,-0.4758096,-0.56507874,0.5174273,0.22433054,0.52949697,-0.84918684,-0.27755114,0.4634537,-0.6037287,-0.43154088,-0.45978323,-0.6243272,0.044663925,-0.41697896,-0.18955587,-0.27176875,-1.001452,-0.3612754,0.05445419,0.22108185,-0.24035569,0.7369805,0.12677151,0.60335016,-0.83992034,-0.12949803,-0.7545018,-0.1682177,-0.6335023,0.866567,0.878851,-0.06432254,0.78885937,-0.5853021,0.7478897,-1.0086843,-0.92226547,0.41047496,-0.490755,-0.2074515,0.7546727,0.04457126,-0.27067575,-0.060866278,-0.6962244,-0.42938212,-0.9168304,-0.6066942,0.57271296,0.8052328,0.43341377,-0.2515493,0.4723341,0.95019937,-0.25571063,-0.38814527,0.84856606,-0.6842935,-0.39216036,0.17111054,0.79696727,-0.06239087,0.7225211,-0.27827212,-0.10060491,-0.50849336,0.60622567,0.63647664,-0.4483234,0.060786687,-0.37560606,0.88048947,0.46261957,0.9158652,0.044280015,0.04763352,-0.051090997,0.016306387,-0.048534203,0.46847963,-0.029215587,-0.83483803,0.20150511,0.80546266,0.31354967,0.6125046,-0.90530384,0.70704216,-0.676117,0.06388176,0.4805299,0.47505158,-0.41588005,-0.4390259,0.53390193,0.63495874,-0.08951246,-0.05572584,0.22961953,-0.56650966,0.51350254,-0.28035107,0.39059445,-0.7129152,0.25364375,0.7589071,-0.07720904,-0.3788147,0.36148047,-0.6468676,-0.63451684,0.85839504,0.8969713,0.7315464,0.3494064,0.45073432,-0.94835913,0.2128372,-0.56005305,0.26951602,0.8218752,0.84433895,-0.51478857,0.525971,0.25519472,0.066119,0.8675756,-0.6335339,-0.9832351,0.275411,0.23626721,0.34888214,-0.48331043,-0.05060778,0.63818383,-0.028270278,0.54797626,0.3209792,-0.0014042391,-0.17444152,-0.5620104,-1.0037853,-0.18072851,0.24947484,0.44930798,0.64147204,-0.16270337,0.80084443,0.08461488,0.58253187,-0.15079005,-0.38766032,0.46474868,0.8362111,-0.26734456,0.05981107,0.49874637,0.5986863,-0.8858987,0.9509901,0.23358326,-0.44443932,-0.45958474,0.49193987,0.053439233,0.44228646,0.08015096,-0.5978036,-0.034710545,0.4672886,0.20221272,-0.5002632,-0.7160278,-0.11254293,-0.17472938,0.09193442,0.728503,-0.033031873,0.63286835,-0.71963847,-0.91930896,0.4930702,-0.4784229,0.45589533,0.27980554,0.16612458,0.7995655,-0.27122927,-0.6552329,0.80074286,0.6486381,0.8502115,0.18032554,0.38406065,-0.98060226,-0.7043793,-0.1455032,0.88543344,-0.27960378,0.8001227,-0.13215564,-0.8420692,-0.9798847,0.24384461,-0.9358301,0.7545292,0.1605124,-0.40441918,-0.32978955,0.88055927,-0.8066115,0.93400747,-0.91473675,0.98191833,-0.51515806,-0.17886229,0.468343,-0.4470977,0.13489686,0.43679464,-0.053812347,-0.9470133,-0.39737725,-0.117631674,0.07143533,0.5096449,-0.049581256,0.73963475,-0.3962799,-0.07998075,0.0027091806,-0.069400646,0.294115,0.010357798,0.05763589,-0.60344917,-0.18892646,0.070347905,-0.6595902,0.31809074,-0.36579818,0.94103736,0.97083485,0.2413639,-0.55488205,-0.8488253,-0.35380223,0.59180355,-0.29383397,-0.6227497,-0.086040795,0.9344302,0.65300715,-0.0005238759,0.2393613,-0.49243826,0.24078873,-0.81388664,0.78638554,-0.96490186,-0.76930654,-0.28558728,-0.53738254,0.964782,0.43225572,-0.92034274,0.89761114,0.028470421,0.82964605,-0.6583937,0.9560974,0.7323142,-0.47151408,-0.90846175,0.41788054,0.91777486,0.046865195,0.5244778,0.15487958,-0.6714031,0.5283311,0.40852216,-0.0024091627,-0.83999217,-0.05745004,-0.89769286,-1.0142243,0.5325525,-0.45708653,-0.7907243,-0.258143,-0.69188184,-0.42402565,0.37567174,0.88127416,-0.71957284,0.43111324,0.58755386,-0.9134047,0.9825695,0.0779409,-0.22794327,0.26614344,-0.086042285,0.91898537,-0.0298783,0.33967787,-0.14657526,0.7980375,0.9414106,-0.97550774,0.13181925,0.5180602,-0.11997734,0.15238725,0.7706815,0.46865326,-0.6589907,-0.9810397,-0.14320728,0.4349132,0.33027083,0.40120313,-0.45388022,-1.0041232,0.660643,-0.9661326,-0.8879467,-0.7089186,-0.9736215,0.80514365,-0.2652876,0.79700726,-0.13146524,-0.49669614,0.31958222,0.1314169,0.19868922,0.31269437,-0.6401819,-0.410151,0.7320649,0.0012855333,0.4224453,-0.4537204,0.7451323,0.33131886,-0.77524614,0.23059583,0.89984494,0.7366975,0.47851944,-0.579682,-0.97198224,-0.80577385,0.6156333,0.7796721,0.7759236,-0.9726901,-0.16004726,0.38598713,0.53714573,0.49758133,-0.8759553,-0.76303375,-0.56970584,0.8325069,-0.28137186,0.569059,0.75514364,-0.80169,0.7822168,-0.1489418,-0.16807778,0.57390773,-0.049859527,0.7919708,0.14365202,-0.4771585,-0.16684987,-0.5678809,0.77148414,-0.35027468,-0.8927835,0.7199385,-0.7216196,-0.027943484,0.8693196,-0.9491988,-0.543017,-0.48571804,0.30522808,0.39554927,0.82111263,0.41773513,0.677013,0.39999002,0.38686132,-0.039757315,-0.14751513,-0.30023834,-0.3918134,0.24130966,0.3887754,0.40089393,-0.17424092,-0.547728,-0.21786405,-0.466017,0.9542737,-0.9919375,-0.0612867,0.41914448,0.6180499,-0.71088445,-0.5612938,-0.95567155,-0.56740266,0.5639654,-0.16326544,0.44953614,-0.58425623,-0.50822383,0.28674445,-0.63357544,0.19213821,0.47389516,0.10465944,0.8524172,-0.5705486,0.03168707,-0.42525113,-0.13456199,0.970152,0.31866795,-0.84353787,0.82463354,0.9572774,0.37770963,0.39581317,-0.25440103,0.09819512,0.6560481,0.9718791,0.5051841,0.38864863,0.50162005,0.48464254,0.2353033,0.95818335,-0.94985574,0.25604752,-0.7734531,-0.639036,0.17290537,0.7046659,-0.21948138,0.37221614,-0.7580597,0.4538509,-0.35278663,0.9055531,0.021582928,0.5657448,-0.2100668,0.29455566,-0.9069691,0.7783285,-0.82769376,0.5135767,0.64884955,-0.56433403,-0.15379569,0.15256146,0.0952308,-0.21220978,0.06020128,0.16779923,-0.81709313,-0.8821488,-0.18094184,-0.3836717,0.5698909,0.32142892,-0.47500473,0.3291778,0.91512656,0.2574436,0.08254043,0.4733248,-0.33878195,-0.2587221,-0.5362552,-0.82240075,-0.2591691,0.32384026,-0.046620995,0.477113,-0.8458647,0.75275344,0.008826025,0.6884647,0.083072126,-0.42411947,-0.004069707,0.100114495,-0.5202399,0.061249796,-0.70089763,-0.9292844,0.671229,-0.21773489,-0.96449983,0.109197155,-0.7046024,0.30913317,-0.30511186,-0.2472068,-0.60199976,-0.17231795,-0.112603925,0.7730365,-0.29197204,0.773058,0.7997154,0.7545735,-0.9980599,0.7140224,-0.09673563,-0.5509607,-0.4557726,0.42236045,-0.5846298,0.69666725,0.97276676,0.15180413,-0.97702944,0.17233123,-0.095618404,-0.9806441,-0.1170732,0.9592393,0.056293055,0.20730984,-0.9371514,-0.21386611,-0.20647968,-0.033060428,-0.15152906,0.44013572,-0.33083197,0.3015015,-0.6589119,0.8279752,0.46796033,0.7939078,-0.8851374,0.73108524,0.62271386,0.0017761567,0.4301471,0.09362271,-0.57426107,-0.42787653,0.62784976,-0.21883138,0.47084314,-0.24501528,-0.12310555,0.12258111,-0.43584433,0.79589987,-0.19582209,-0.4743413,0.41429484,0.15965833,0.48665214,-0.265559,0.7654791,-0.29861325,-0.34334102,0.048006557,-0.6574364,0.14109191,0.92255867,0.29915765,-0.74127406,-0.9733034,0.27075517,-0.85068214,-0.58821046,0.15359,-0.44792977,-0.065214165,-0.23970541,-0.5071626,-0.68880326,0.34668434,-0.28370374,-0.870611,0.78179735,0.14495398,0.37021038,-0.112152785,-0.8411924,0.44266844,-0.6248445,0.4093509,-0.040757377,-0.21306002,0.20713295,0.6964691,0.38309363,-0.29576385,-0.47070083,0.92497784,0.44912556,0.64194167,0.00056721113,-0.1058715,-0.42644233,-0.010126498,0.118390515,-0.13487777,0.7125664,-0.9722659,-0.8496976,-0.10638079,-0.4155102,0.5013031,0.07819923,0.6324092,0.20349586,0.36583665,-0.3729258,0.5751668,-0.9073706,-0.09104299,0.34692636,0.5358229,-0.9770849,0.13767017,-0.05036397,-0.31130522,-0.26355448,-0.33182806,-0.38427106,-0.29755476,-0.06294505,-0.49034005,0.34364215,0.7047199,-0.3087834,-0.3977935,0.58487785,0.89897335,-0.75364864,0.43370134,-0.4951296,-0.44520003,0.085932024,0.802268,0.058821164,-0.52428854,0.90871036,0.23399495,-0.25991452,0.82790476,0.809667,-0.46378475,0.7616496,-0.46396643,0.068986446,-0.46994826,0.8813564,-0.9367065,-0.36456817,0.10016186,0.09407287,-0.8686205,-0.2596448,0.40799695,0.9012683,0.8238585,0.043327212,0.6850716,0.9763982,-0.6518443,-0.6613189,-0.3060339,0.23855996,0.4889695,-0.080827996,0.099665016,0.5042026,-0.39200726,0.06157494,-0.4666576,-0.26248205,-0.69049287,-0.26771367,0.73333603,0.59737015,0.06258837,0.058159538,-0.14339335,-0.61775017,-0.39868072,-0.8485491,0.48252186,0.12419144,0.32406682,0.14545614,0.5085176,-0.91763395,0.46843,-0.008574574,-0.18019742,0.82684594,0.60587466,0.37307128,-0.28907502,-0.2951778,-1.0045738,-0.05955117,0.29068232,-0.17105383,-0.8715946,0.42501613,-0.73275936,-0.30585042,0.5233794,0.07613378,-0.1084593,0.59766227,0.12746961,0.5804402,-0.76272744,-0.08177571,-0.6316812,0.45916224,-0.60469055,-0.28481853,-0.22212191,-0.57410425,0.59978336,-0.85500467,-1.0064065,-0.7508374,0.16753328,-0.17252581,0.3874602,0.5861531,0.879767,-0.98902893,0.16850449,0.92786634,0.043183282,-0.32670343,0.4235601,0.16386883,-0.0854567,0.3602712,0.8792544,-0.17542505,0.5079288,-0.014809687,0.17700091,-0.6893706,0.54149693,-0.10711461,0.28058267,0.16471504,-0.22751392,0.56925356,-0.96528155,-0.2753864,-0.307085,-0.3448637,-0.7540353,0.6669479,-0.46861535,-0.36031622,0.0016368718,0.020556765,0.066930056,0.67871207,0.054779228,0.066205814,-0.08732061,0.26584256,0.66875196,-0.06633451,-0.4284075,0.7397153,0.4797147,-0.018784646,0.4705238,-0.6278233,0.008215871,-0.1249578,-0.07232087,-0.8075067,0.38614112,-0.881662,-0.56621116,0.15359594,0.4477906,0.36093512,-0.7177109,0.28066486,0.66417897,-0.32775515,-0.010832872,-0.9157538,0.1311149,0.035543524,-0.9409241,0.95575154,0.13264689,0.93246394,-0.5529111,-0.0111501925,-0.86610675,-0.14419027,0.07542201,-0.79663426,-0.094417535,-0.04456779,0.7799838,-0.70739883,0.7257093,0.26960334,0.73925775,-0.45782593,-0.7038722,0.74649453,-0.766595,0.91525644,0.46334553,0.42079982,0.85702974,-0.45183843,-0.024378072,-0.20869677,0.52375335,-0.060992684,0.8795477,-0.60408854,0.2896538,0.3506753,-0.6866963,-0.8060226,0.2073928,0.88292277,0.5396543,0.10699384,0.70090765,0.008356293,-0.25488284,0.6702612,0.0039215223,-0.3014342,0.6677181,-0.7804627,0.8525186,-0.50994456,-0.5762967,-0.5013623,-0.003584748,-0.6676166,-0.733827,0.4255131,-0.7915545,-0.46086112,-0.19319992,0.6565484,-0.74423826,-0.58336985,0.080503605,0.9212275,0.52230823,-0.35993108,0.33646247,0.94423646,-0.4415822,-0.32752717,-0.027903894,0.783169,-0.8233941,0.25830892,0.53706235,-0.50217503,-0.76260936,-0.9164034,0.25085184,0.9502333,0.71152854,-0.67719185,-0.30472285,-0.8431092,0.21921924,-0.8585926,0.7062786,-0.591298,0.9550634,-0.2182029,0.42795166,-0.1341228,-0.19854751,0.5408201,0.68325496,-0.45491216,0.077579126,0.34500206,-0.95861745,-0.79250777,-0.5978411,0.7850735,-0.117296115,0.9485282,0.25297296,-0.8145877,-0.30529758,-0.35360304,-0.80064005,0.033414442,-0.7633513,0.058108434,0.7683327,-0.05866952,0.24330199,0.7614924,0.857694,0.6523843,0.7019298,0.9822471,0.24441634,0.23966826,-0.73276466,0.017082242,0.23154487,0.47371715,-0.648644,0.27898872,0.7836615,-0.2641429,-0.5108248,0.6329204,0.6707546,0.30012873,-0.55071455,-0.18774639,-0.35285673,0.038378898,0.5586799,-0.64914227,-0.6044451,-0.5203867,-0.44363165,0.32237136,0.94270027,-0.81808364,0.076250955,-0.263412,0.8637429,-0.8014933,0.6398147,-0.40850794,-0.9630622,-0.8599341,0.20533937,0.40083632,-0.48797694,0.6796253,-0.67709637,-0.4552127,-0.82412446,-1.0136245,-0.48346227,0.30874094,0.65392935,-0.9971507,-0.2604972,0.36614472,0.93040353,0.105232425,0.52293515,0.14936076,0.30676964,-0.32403088,0.68874174,-0.6335939,-0.8197516,-0.5719451,0.2925065,0.72649336,-0.6088386,-0.12072895,0.02979976,0.26478463,-0.39853206,-0.25481355,0.9464037,0.33690146,0.070801705,0.689594,0.18702014,0.53954124,-0.07612537,-0.7111034,0.02987298,0.271381,0.070514575,-0.075201534,-0.20399603,-0.7416591,-0.57302475,0.8741056,0.9689731,0.87920016,-0.9279484,0.74006766,-0.9594438,-0.25123364,-0.3572787,0.8969826,0.7587814,-0.35190305,-0.14545727,-0.7878171,0.3956421,0.38189825,-0.90175027,-0.025137661,-0.5507246,-0.8038303,-0.5796175,0.642284,-0.64221793,0.21664804,-0.18906766,-0.9893156,-0.41184714,-0.027292171,-0.9214487,-0.10969493,0.3434707,-0.936882,-0.31814697,-0.45900002,0.862831,0.9836133,0.028188858,-0.10464651,0.39447242,0.13201235,0.30717477,-0.76483774,0.8822487,-0.85644,0.7969193,0.93477947,-0.17563263,-0.38203543,-0.955661,-0.12263944,-0.9248889,-0.6538403,-0.058807656,-0.39803597,0.74041706,0.16516994,-0.6494991,-0.49681985,-0.9594142,0.08966605,-0.7644211,-0.46064195,-0.8264747,0.92329097,0.61598444,-0.01716368,0.35395405,0.5806422,-0.049284328,0.37942427,0.68894404,-0.799387,-0.80644923,0.9006031,0.28743032,-0.043638483,-0.51907825,-0.4229495,-0.78260934,0.6263209,-0.7466744,-0.22441414,-0.07491138,0.3562164,0.11196343,-0.6895258,-0.6390252,-0.80956125,-0.18568388,0.5934157,-0.35261896,0.69221795,-0.15588418,0.3771504,0.6389915,0.53035927,0.2713983,-0.96695364,-0.97932553,0.48560205,-0.646963,-0.90582895,-0.24456327,-0.64915925,-0.06552993,-0.41182047,0.87367594,0.16714565,0.838175,0.7563238,0.92498326,0.6367872,-0.13220999,-0.27483302,-0.7752654,0.8769992,-0.5533023,-0.4290988,-0.42920494,0.880079,-0.51600736,-0.37728512,-0.5950437,-0.12882636,0.289277,-0.46687427,-0.76956147,-0.1635144,-0.7772224,0.08819462,0.55092376,-0.009106321,0.4012587,0.06832948,0.5796189,-0.036935825,0.8164471,0.28650886,-0.021314738,0.052641094,-0.5970349,-0.5427852,-0.34409076,0.4558058,0.0058464077,0.7811023,0.40311205,0.632858,-0.44161555,0.9542883,-0.04503004,0.41519862,0.34435302,0.7988953,-0.44577056,-0.34294465,-0.653282,-0.45225742,-0.39044157,-0.21012768,0.43505773,-0.65534097,0.69388676,0.98062664,-0.69999677,0.40748715,0.18162566,-0.7563109,-0.9265859,0.4284656,0.1648889,0.19971074,0.6776223,-0.6101516,-0.5382299,0.227241,0.17713505,-0.7706164,-0.21265984,-0.9748037,-0.789996,-0.92055166,0.72068584,-0.6648847,-0.91049594,-0.7411993,-0.40511563,0.06928795,0.4172696,0.7726111,-0.90876627,-0.44013894,-0.6733699,0.41856918,0.9710878,-0.18424477,-0.5866768,-0.46686423,-0.7523591,-0.91985476,0.47256005,0.89526457,-0.24822162,0.6184585,-0.50158954,-0.8105646,0.7571285,0.482066,-0.20776252,-0.036187768,0.019981576,0.9811242,0.21030965,0.7835446,-0.015305399,0.7590437,0.04085646,-0.25557193,-0.07024593,0.8218178,-0.58986574,-0.4428553,-0.51540244,-0.70683837,-0.34370995,0.36918193,0.025999483,-0.33421072,0.45442653,0.8255243,0.78373617,0.6917084,0.5896454,-0.50132716,0.89837736,-0.6531345,0.9513762,-0.37489462,0.5800316,-0.85396814,-0.19473854,-0.662561,0.54884756,0.8247859,0.6563557,0.0070845652,-0.6304624,-0.73973674,-0.66096705,-0.051098425,-0.62855273,0.96967876,-0.66929585,-0.21751468,-0.7030557,0.78286165,0.6475524,-0.60077035,-0.22029963,0.10712929,0.006161782,-0.9364374,-0.18279977,0.7221378,-0.68888295,0.2366232,-0.7798141,-0.61263084,-0.33066958,-0.7223949,0.27209556,0.455775,-0.84519637,0.8944424,-0.27103677,0.61537606,0.9182675,-0.0064161397,0.5269234,-0.2837473,-0.46697217,0.003399539,-0.8794604,0.48165613,-1.012053,0.5537061,-0.41116416,0.65811306,0.1398024,-0.61487484,-0.28370252,0.4480815,0.82622844,-0.19522771,-0.20768726,0.7053186,0.9230775,0.26740128,0.3103386,0.9219487,-0.17896129,-0.044354543,-0.46499714,0.03249443,0.42187816,0.5373256,-0.1328921,0.30058074,0.118819356,-0.11512802,0.24393587,0.1793083,-0.9587613,-0.7665876,-0.54555005,-0.99406,0.5328982,0.6947732,-0.6617082,-0.53681237,0.4756972,-0.653201,0.87996995,-0.47727644,0.64479274,0.47040096,-0.22439604,-0.7118796,0.45961136,-0.27799627,0.6469635,0.47893468,-0.91934747,-0.593684,0.5439051,-0.37441295,0.097846515,-0.6284343,-0.9138522,-0.1453769,0.25588632,0.8999984,-0.64333576,-0.940833,-0.045600593,0.7083324,0.59370506,-0.045697767,0.50790143,0.56829846,0.7711617,0.22099386,-0.6061674,0.42731994,-0.14021593,-0.0743076,0.17747085,-0.25065053,-0.14266084,-0.17363022,-0.8640247,0.519807,-0.61652994,-0.047854714,-0.3080929,-0.6622094,-0.06398401,-0.8216612,0.68312055,0.32754835,-0.9821958,0.6374165,0.6063683,0.31799525,-0.6653365,0.72187257,-0.94706035,0.5500328,0.628083,0.13912885,0.96085817,-0.6574539,0.8182751,-0.028561354,-0.45025918,-0.5937644,0.5088349,0.19067104,0.061893463,0.47151926,-0.3503623,-0.39289215,0.130904,0.16437744,-0.60114545,